svm_type c_svc
kernel_type rbf
gamma 0.166667
nr_class 2
total_sv 72
rho -0.105352
label 1 -1
nr_sv 38 34
SV
0.6947784359643114 1:-0.00172 2:-1.02136 3:-0.17764 4:-0.76032 5:12.34352 6:0.62136 
0.01733163906377555 1:-0.048833333 2:-1.0357667 3:-0.06225 4:-0.25573333 5:38.5051 6:4.5318167 
0.3946708834928972 1:-0.042533333 2:-1.0252556 3:-0.13324444 4:-0.28837778 5:39.022056 6:4.9109556 
0.5648528397297157 1:-0.00031666667 2:-1.0276667 3:-0.14266667 4:-1.0712333 5:17.4313 6:1.29645 
0.3457826474423485 1:-0.0627 2:-1.04672 3:0.00332 4:-1.1649 5:40.52366 6:4.80304 
0.3169829527181988 1:-0.020825 2:-1.023625 3:-0.136325 4:-0.763375 5:32.597325 6:3.49045 
0.3940524962115329 1:-0.09302 2:-1.04946 3:-0.00584 4:-1.35268 5:63.28856 6:8.31298 
0.1151834891517383 1:-0.10728333 2:-1.03275 3:-0.04415 4:-0.61196667 5:65.999983 6:8.3613333 
0.02139708654586783 1:-0.0069 2:-1.0312 3:-0.12168 4:-0.54502 5:20.51756 6:1.60764 
0.297220371869267 1:-0.028225 2:-1.0265875 3:-0.1324375 4:-0.7251875 5:35.6059 6:4.1813 
0.5572281393958979 1:-0.0626 2:-1.0384167 3:-0.058816667 4:-1.8345833 5:43.48345 6:5.2875167 
0.1927981647795489 1:-0.004625 2:-1.02585 3:-0.1404875 4:-1.0391125 5:22.000962 6:2.1001875 
0.7646120466672173 1:-0.08066 2:-1.04478 3:0.00138 4:-0.91754 5:51.31142 6:6.23052 
0.4090658643131176 1:-0.0417 2:-1.0348 3:-0.0718 4:0.284 5:33.5114 6:3.742 
0.3712142395694387 1:-0.0351 2:-1.0348 3:-0.0866 4:-0.1361 5:29.7608 6:3.5776 
0.5973851299156451 1:-0.0717 2:-1.0253 3:-0.1084 4:0.8731 5:46.1174 6:5.7395 
0.4388249759479546 1:-0.0819 2:-1.0233 3:-0.1206 4:0.5565 5:54.7122 6:6.9137 
0.1212405725413269 1:-0.0794 2:-1.0239 3:-0.0968 4:0.3588 5:54.3435 6:6.8465 
0.2145866765350661 1:-0.0924 2:-1.0241 3:-0.1063 4:0.2114 5:56.9916 6:6.9725 
0.4250238978197708 1:-0.0901 2:-1.0349 3:-0.0653 4:0.3424 5:59.482 6:7.5845 
0.6303146896167587 1:-0.1095 2:-1.0372 3:-0.0806 4:-0.1985 5:66.0572 6:8.5744 
0.4336566729372467 1:-0.1084 2:-1.0255 3:-0.0939 4:0.4275 5:62.8482 6:7.7328 
0.4729764025816162 1:-0.056 2:-1.0348 3:-0.0815 4:0.4898 5:42.6349 6:5.0725 
0.2725749403905582 1:-0.0506 2:-1.0338 3:-0.0508 4:-0.0267 5:36.4758 6:4.0941 
0.2801761869095213 1:-0.0211 2:-1.028 3:-0.1187 4:-0.5027 5:22.1472 6:1.8855 
0.1477873439365354 1:-0.0189 2:-1.0241 3:-0.1362 4:-0.3893 5:26.2493 6:2.5382 
0.1169500692519665 1:-0.0196 2:-1.0231 3:-0.1426 4:-0.2814 5:27.4428 6:2.7077 
0.253682423738214 1:-0.02 2:-1.0261 3:-0.1281 4:-0.4362 5:25.2923 6:2.3849 
0.15379026133216 1:-0.0284 2:-1.0336 3:-0.0771 4:-0.659 5:37.4148 6:4.3359 
0.4508435346773405 1:0.0103 2:-1.0206 3:-0.1605 4:-0.9596 5:14.5736 6:0.8757 
0.4345360584213727 1:-0.0848 2:-1.0443 3:-0.0253 4:-1.2417 5:60.0522 6:8.0903 
0.548725931570712 1:-0.0852 2:-1.0478 3:-0.0087 4:-1.6692 5:56.1272 6:7.2786 
0.6047629012399175 1:-0.0555 2:-1.0479 3:-0.0549 4:-1.3359 5:47.6091 6:5.7084 
0.3373587300658522 1:-0.0089 2:-1.0358 3:-0.0804 4:-1.0443 5:27.6656 6:2.7267 
0.2618101675673054 1:-0.0179 2:-1.0293 3:-0.0831 4:-0.9053 5:30.2901 6:3.0427 
0.1171911494498651 1:0.0061 2:-1.0263 3:-0.1228 4:-1.3679 5:19.4947 6:1.5298 
0.3533058114077651 1:-0.0017 2:-1.0307 3:-0.1103 4:-1.0946 5:23.9481 6:2.5542 
0.3892024646401386 1:0.0026 2:-1.0254 3:-0.1356 4:-0.7824 5:19.8791 6:0.8664 
-0.5648090606274616 1:-0.030157143 2:-0.99392857 3:-0.32907143 4:-1.8353286 5:-46.378414 6:-8.4754571 
-0.2105399763863068 1:-0.00555 2:-1.0074 3:-0.24738333 4:-1.6603 5:-23.455467 6:-4.9758167 
-0.225602043020429 1:-0.0083 2:-1.0083333 3:-0.26563333 4:-1.7506333 5:-30.016956 6:-6.1391 
-0.1594692306627039 1:0.0055 2:-1.0082 3:-0.23644 4:-1.51908 5:-17.86568 6:-4.13284 
-0.7046337746070673 1:-0.01226 2:-1.00418 3:-0.42248 4:-0.12214 5:-32.88396 6:-6.47788 
-0.1476655937791425 1:-0.05042 2:-0.99346 3:-0.34804 4:-1.99696 5:-48.90384 6:-8.24732 
-0.3610270250038312 1:0.0139 2:-1.0012 3:-0.28686667 4:-1.8282667 5:-22.091617 6:-4.78245 
-0.4700211823889721 1:-0.046825 2:-0.979625 3:-0.5068 4:-1.57445 5:-53.98855 6:-8.847325 
-0.1389937904594394 1:-0.0124125 2:-1.0094 3:-0.27115 4:-1.606875 5:-36.471375 6:-6.645025 
-0.5768307301307328 1:0.00302 2:-0.9985 3:-0.32034 4:-2.53588 5:-26.5954 6:-5.04276 
-0.8247096545597011 1:-0.03318 2:-1.01142 3:-0.30554 4:-3.67176 5:-47.4519 6:-6.29162 
-0.5534572181079682 1:-0.0094166667 2:-0.99163333 3:-0.32795 4:-1.2608 5:-38.683217 6:-6.7621 
-0.1562395552145213 1:-0.039 2:-1.0001 3:-0.2549 4:-2.8431 5:-40.218 6:-7.475 
-0.415153770268892 1:-0.0344 2:-1.001 3:-0.2695 4:-2.4038 5:-37.5 6:-7.2847 
-0.4584300558434863 1:-0.0391 2:-0.989 3:-0.2908 4:-2.6684 5:-44.363 6:-8.1671 
-0.211839369776231 1:-0.0584 2:-0.9957 3:-0.306 4:-2.7752 5:-53.134 6:-9.4707 
-0.5362281146536516 1:-0.0505 2:-0.9963 3:-0.2971 4:-2.7286 5:-49.743 6:-8.6684 
-0.3119102075125039 1:-0.0699 2:-0.9961 3:-0.3339 4:-2.6947 5:-54.1393 6:-9.1526 
-0.2813066278832411 1:-0.0675 2:-0.9988 3:-0.3197 4:-2.9523 5:-57.2433 6:-9.709 
-0.1395843064043879 1:-0.0607 2:-0.9946 3:-0.3313 4:-2.4035 5:-57.5703 6:-9.3359 
-0.7484590465921871 1:-0.077 2:-0.9959 3:-0.2873 4:-2.5182 5:-58.3749 6:-10.0882 
-0.4871125518501498 1:-0.029 2:-1.0002 3:-0.3057 4:-3.1723 5:-41.518 6:-7.3675 
-0.4017021341561809 1:-0.0252 2:-1.0017 3:-0.2663 4:-2.5277 5:-34.8158 6:-6.5725 
-0.2042493396428111 1:-0.0132 2:-1.0039 3:-0.2633 4:-1.8694 5:-31.3401 6:-5.989 
-0.07195340537635611 1:0.0043 2:-1.0078 3:-0.2487 4:-1.313 5:-35.226 6:-6.6305 
-0.374171336589658 1:0.0056 2:-1.0056 3:-0.2665 4:-1.2277 5:-28.042 6:-5.8842 
-0.422896549736748 1:-0.0277 2:-0.9917 3:-0.3309 4:-1.3216 5:-41.9046 6:-7.9065 
-0.4394882631081902 1:-0.0525 2:-0.9974 3:-0.3127 4:-1.603 5:-51.562 6:-9.0162 
-0.1494423423002766 1:-0.0164 2:-0.9962 3:-0.3306 4:-1.4794 5:-42.8229 6:-7.6672 
-0.3961798869038031 1:0.0045 2:-0.9943 3:-0.3222 4:-1.3028 5:-29.902 6:-5.2328 
-0.2974301266265991 1:0.0021 2:-1.0006 3:-0.2826 4:-2.4084 5:-33.8715 6:-6.098 
-0.8850725487008043 1:0.0137 2:-1.0103 3:-0.2313 4:-1.0565 5:-17.2985 6:-3.8573 
-0.6329088207141119 1:0.0178 2:-1.007 3:-0.2481 4:-1.1018 5:-20.9262 6:-4.1349 
-0.5543606498209365 1:0.017 2:-1.0159 3:-0.2615 4:-0.8986 5:-24.9793 6:-4.7492 
