svm_type c_svc
kernel_type rbf
gamma 0.2
nr_class 2
total_sv 1431
rho -0.544742
label 1 0
nr_sv 905 526
SV
0.4553272983128698 1:23.7 2:26.272 3:585.2 4:749.2 5:0.004764163 
0.4552204575737723 1:23.718 2:26.29 3:578.4 4:760.4 5:0.004772661 
0.4553985766044765 1:23.73 2:26.23 3:572.66667 4:769.66667 5:0.004765153 
0.4552589218329353 1:23.7225 2:26.125 3:493.75 4:774.75 5:0.004743773 
0.3930845184404939 1:23.754 2:26.2 3:488.6 4:779 5:0.004766594 
0.455268489148608 1:23.76 2:26.26 3:568.66667 4:790 5:0.004779332 
0.4552789535262018 1:23.73 2:26.29 3:536.33333 4:798 5:0.004776136 
0.4552761368593625 1:23.754 2:26.29 3:509 4:797 5:0.004783094 
0.4547558687638972 1:23.754 2:26.35 3:476 4:803.2 5:0.004794094 
0.4553047746164539 1:23.736 2:26.39 3:510 4:809 5:0.004796189 
0.4552437133035034 1:23.745 2:26.445 3:481.5 4:815.25 5:0.004808886 
0.4552851137873063 1:23.7 2:26.56 3:481.8 4:824 5:0.004816793 
0.455231625128814 1:23.7 2:26.6 3:475.25 4:832 5:0.004824104 
0.4552798156197356 1:23.7 2:26.7 3:469 4:845.33333 5:0.004842381 
0.4552566295418196 1:23.7 2:26.774 3:464 4:852.4 5:0.004855906 
0.4552929156869025 1:23.7 2:26.89 3:464 4:861 5:0.00487711 
0.4439947752182139 1:23.7 2:26.9725 3:455 4:880 5:0.004892191 
0.3464474140335653 1:23.6 2:26.89 3:454 4:891 5:0.004847594 
0.4527727649735735 1:23.64 2:26.976 3:458 4:897.6 5:0.004875045 
0.4552140741465322 1:23.65 2:27.05 3:464 4:900.5 5:0.004891492 
0.4552713394274602 1:23.64 2:27.1 3:473 4:908.8 5:0.00489763 
0.4552419879751043 1:23.6 2:27.16 3:464 4:918 5:0.004896652 
0.4552848469523133 1:23.6 2:27.236 3:498.4 4:925.2 5:0.004910462 
0.4552983610217529 1:23.6 2:27.29 3:530.2 4:929.4 5:0.004920275 
0.4552968548627423 1:23.6 2:27.33 3:533.6 4:936.4 5:0.004927544 
0.4552428848936129 1:23.6 2:27.34 3:524.25 4:950 5:0.004929361 
0.4186940954665737 1:23.625 2:27.3925 3:498.66667 4:961 5:0.004946406 
0.4547218654693234 1:23.6 2:27.39 3:516.33333 4:963 5:0.004938448 
0.4185767803816998 1:23.6 2:27.412 3:501.2 4:958.6 5:0.004942446 
0.4551438872412394 1:23.6 2:27.5 3:522 4:965.33333 5:0.004958439 
0.4552904731918614 1:23.6 2:27.525 3:520.5 4:979.25 5:0.004962982 
0.4551388805530186 1:23.6 2:27.6 3:505.28571 4:978.42857 5:0.004976614 
0.4552834952942804 1:23.6 2:27.6 3:488.33333 4:983 5:0.004976614 
0.4499004857585323 1:23.6 2:27.54 3:512 4:992.6 5:0.004965709 
0.4498967517282789 1:23.6 2:27.6 3:511 4:997.2 5:0.004976614 
0.3644678381080607 1:23.616667 2:27.633333 3:501.5 4:999.5 5:0.004987718 
0.3646607538804262 1:23.666667 2:27.7 3:503.66667 4:1001 5:0.005015051 
0.4552787704596504 1:23.6 2:27.7 3:483.16667 4:1009.5 5:0.00499479 
0.4556798124536092 1:23.6 2:27.7225 3:483.5 4:1019 5:0.004998879 
0.4476987164351293 1:23.6 2:27.79 3:473 4:1021 5:0.005011149 
0.4422344365128435 1:23.6 2:27.856667 3:470.33333 4:1024.6667 5:0.005023268 
0.413040302739102 1:23.6 2:27.804286 3:480.14286 4:1030.4286 5:0.005013746 
0.4473831704776962 1:23.575 2:27.79 3:464 4:1026.25 5:0.005003545 
0.3976020803677473 1:23.54 2:27.81 3:474.4 4:1028 5:0.004996538 
0.4547998618102191 1:23.6 2:27.978 3:470 4:1034.8 5:0.005045325 
0.2223106098124618 1:23.525 2:28 3:454 4:1055.5 5:0.005026367 
0.218101567593352 1:23.5 2:27.978 3:454 4:1055.25 5:0.00501476 
0.2829718104779317 1:23.5 2:28 3:454 4:1050 5:0.005018735 
0.2332197833814047 1:23.5 2:28 3:454 4:1051.25 5:0.005018735 
0.285859044404163 1:23.5 2:28 3:445 4:1053.6 5:0.005018735 
0.4541188967427884 1:23.5 2:28 3:439 4:1055.5 5:0.005018735 
0.2809556478437776 1:23.5 2:28.025 3:444.25 4:1055 5:0.005023252 
0.2332326741400745 1:23.445 2:28.125 3:454.75 4:1059.5 5:0.005024491 
0.2742120557805514 1:23.39 2:28.18 3:455.8 4:1060 5:0.005017582 
0.4525372507316577 1:23.39 2:28.2 3:451.6 4:1073.6 5:0.005021172 
0.4394456133968042 1:23.39 2:28.2 3:451.6 4:1078.6 5:0.005021172 
0.2076690761678089 1:23.39 2:28.2 3:454.75 4:1081 5:0.005021172 
0.279103296008052 1:23.39 2:28.2225 3:454.75 4:1082 5:0.005025211 
0.4553138886021796 1:23.39 2:28.373333 3:457.5 4:1088.8333 5:0.005052286 
0.2973304729623005 1:23.37 2:28.39 3:464 4:1090.6 5:0.00504913 
0.4508516478582315 1:23.39 2:28.323333 3:464 4:1086 5:0.00504331 
0.3108324625052159 1:23.373333 2:28.445 3:464 4:1092.5 5:0.005060017 
0.1721895141108609 1:23.39 2:28.5 3:471.5 4:1103.75 5:0.005075025 
0.4438914042639587 1:23.323333 2:28.5 3:475.66667 4:1104.5 5:0.005054476 
0.272976061537146 1:23.365 2:28.5 3:471.5 4:1103.5 5:0.00506731 
0.413759379182476 1:23.29 2:28.5 3:467.75 4:1112 5:0.005044229 
0.3531029736169489 1:23.306667 2:28.533333 3:466.5 4:1105.6667 5:0.005055304 
0.3813077996833115 1:23.29 2:28.7 3:464 4:1104 5:0.005079916 
0.2550181242706805 1:23.29 2:28.7 3:467 4:1117.2 5:0.005079916 
0.3903698360672614 1:23.29 2:28.675 3:467.75 4:1121.25 5:0.005075455 
0.2274034640989728 1:23.29 2:28.616667 3:466.5 4:1115.6667 5:0.005065046 
0.4551307532094961 1:23.29 2:28.66 3:459 4:1120 5:0.005072779 
0.4023200420393734 1:23.29 2:28.55 3:464 4:1123.75 5:0.005053151 
0.3976782668420558 1:23.29 2:28.6 3:470 4:1116 5:0.005062072 
0.2337250433611323 1:23.272 2:28.6 3:464 4:1126.8 5:0.005056527 
0.416395011287904 1:23.2 2:28.4175 3:464 4:1112.75 5:0.005002016 
0.4552522994777685 1:23.23 2:28.5 3:449 4:1104.5 5:0.005025831 
0.4002303725615832 1:23.29 2:28.5 3:464 4:1108 5:0.005044229 
0.338825880240699 1:23.215 2:28.633333 3:462.33333 4:1127.8333 5:0.005044923 
0.2773247027810053 1:23.2 2:28.6 3:469 4:1128.75 5:0.005034399 
0.4001700055806706 1:23.2 2:28.65 3:469 4:1124.25 5:0.005043272 
0.2940884507761506 1:23.2 2:28.62 3:469 4:1130.4 5:0.005037948 
0.4552937799522443 1:23.2 2:28.7 3:464 4:1138 5:0.005052145 
0.4382160614948852 1:23.2 2:28.7 3:456.5 4:1144 5:0.005052145 
0.4379813567449353 1:23.2 2:28.718 3:457 4:1140 5:0.005055339 
0.4550959655894381 1:23.2 2:28.79 3:450.25 4:1139.25 5:0.005068117 
0.2886883750240057 1:23.2 2:28.79 3:446 4:1167.3333 5:0.005068117 
0.3952380106521878 1:23.14 2:28.79 3:451.6 4:1159.6 5:0.005049618 
0.4279172876566738 1:23.15 2:28.89 3:454.75 4:1157.75 5:0.005070391 
0.4074419548670384 1:23.15 2:28.89 3:448 4:1159.5 5:0.005070391 
0.4224342232975399 1:23.18 2:28.83 3:444 4:1156.4 5:0.005069034 
0.4079411757992411 1:23.116667 2:28.945 3:444 4:1160 5:0.005069809 
0.3790086452867285 1:23.14 2:28.956 3:444 4:1169.8 5:0.005078972 
0.2486246588979125 1:23.1 2:29 3:444 4:1176.1667 5:0.005074362 
0.2443483353889266 1:23.1 2:29.075 3:444 4:1175.25 5:0.005087593 
0.2904525053952215 1:23.1 2:28.918 3:444 4:1166.6 5:0.005059897 
0.4551666009844063 1:23.1 2:27.925 3:444 4:1140.25 5:0.004884784 
0.4548716266820161 1:23.06 2:27.772 3:444 4:1089.2 5:0.004845979 
0.3309054808568363 1:23.02 2:27.556 3:435 4:1042.6 5:0.004796284 
0.4549044996768483 1:23.01 2:27.818833 3:432 4:1051.1 5:0.004839435 
0.2344145292546755 1:23 2:28.081667 3:429 4:1059.6 5:0.004882538 
0.403887223495809 1:23 2:27.956 3:429 4:1064.6 5:0.004860518 
0.273833504809913 1:22.981667 2:27.908333 3:429 4:1061.6667 5:0.004846741 
0.07586309400310556 1:23 2:27.926667 3:429 4:1058.3333 5:0.004855378 
0.4257693653703854 1:22.981667 2:28.066667 3:429 4:1070.3333 5:0.004874454 
0.423528682031825 1:22.945 2:28.1 3:429 4:1074 5:0.004869381 
0.1071203295044933 1:22.956 2:28.2 3:429 4:1089.6 5:0.004890128 
0.2345212463814888 1:22.9725 2:28.1 3:429 4:1085 5:0.00487756 
0.1685977211201872 1:22.945 2:28.133333 3:429 4:1085 5:0.004875203 
0.07918907920829614 1:23 2:28.2 3:429 4:1088 5:0.004903275 
0.3925136742181216 1:22.945 2:28.2 3:429 4:1091.75 5:0.004886846 
0.1741803842389857 1:22.912 2:28.1 3:429 4:1088.2 5:0.004859583 
0.05227284314240815 1:22.89 2:28.1 3:429 4:1087.5 5:0.00485306 
0.3225560940335862 1:22.89 2:27.956 3:432 4:1079.2 5:0.004827998 
0.3177785021794187 1:22.865 2:27.84 3:432.75 4:1077.25 5:0.004800476 
0.4551458275413618 1:22.873333 2:27.683333 3:439 4:1064.1667 5:0.004775684 
0.390001260582047 1:22.873333 2:27.6 3:429 4:1056.4 5:0.004761198 
0.3424814170941883 1:22.89 2:27.6 3:432.75 4:1043.6 5:0.004766045 
0.4260482125229508 1:22.815 2:27.445 3:432.75 4:1039.5 5:0.004717422 
0.455113107536587 1:22.84 2:27.373333 3:436.5 4:1028.6667 5:0.0047122 
0.4545410143286348 1:22.79 2:27.365 3:438 4:1020.4 5:0.00469639 
0.4551648655976452 1:22.79 2:27.2 3:444 4:1018 5:0.004667861 
0.4551242411690928 1:22.79 2:27.171429 3:435.42857 4:1015.1429 5:0.004662921 
0.4432223409853469 1:22.79 2:27.066667 3:434 4:1006.3333 5:0.004644808 
0.4431020521116027 1:22.79 2:27.02 3:432 4:1002.6 5:0.00463674 
0.4552438117665209 1:22.772 2:26.934 3:438 4:993.2 5:0.004616793 
0.4552533656755788 1:22.76 2:26.823333 3:439 4:983.33333 5:0.004594315 
0.4471041253100489 1:22.7 2:26.754 3:432 4:976.2 5:0.004565583 
0.4488431498384244 1:22.7225 2:26.7 3:432.75 4:980.75 5:0.004562569 
0.4534879196319113 1:22.7 2:26.683333 3:434 4:971.33333 5:0.004553435 
0.426417222637822 1:22.7 2:26.533333 3:444 4:966.66667 5:0.004527652 
0.426307927387777 1:22.7 2:26.463333 3:444 4:963 5:0.00451562 
0.452664895132688 1:22.7 2:26.445 3:441.5 4:952.33333 5:0.004512469 
0.389070345549361 1:22.7 2:26.34 3:444 4:948 5:0.004494423 
0.383713675099816 1:22.7 2:26.26 3:444 4:945 5:0.004480674 
0.4489792896777341 1:22.7 2:26.2 3:441 4:941.6 5:0.004470363 
0.3713736052211042 1:22.7 2:26.16 3:438 4:929.8 5:0.004463489 
0.43868040844668 1:22.7 2:26.02 3:441 4:923.8 5:0.004439431 
0.3012351570704654 1:22.7 2:26.1 3:440.25 4:919 5:0.004453178 
0.06636386109158095 1:22.7 2:26 3:439 4:918.25 5:0.004435995 
0.3053125169675998 1:22.7 2:25.934 3:438 4:919.4 5:0.004424654 
0.3500107784566838 1:22.7 2:25.926667 3:439 4:927.33333 5:0.004423394 
0.4542113927696196 1:22.7 2:25.815 3:432.75 4:920.25 5:0.004404207 
0.4237733966360045 1:22.68 2:25.772 3:432 4:902.4 5:0.004391449 
0.4238579247302236 1:22.64 2:25.696 3:429 4:904.4 5:0.004367718 
0.4520179841161923 1:22.6 2:25.575 3:429 4:897 5:0.00433639 
0.4523667462905694 1:22.666667 2:25.6 3:429 4:892 5:0.004358383 
0.4497549138421989 1:22.6 2:25.525 3:433.5 4:882.5 5:0.004327853 
0.4538802717418025 1:22.62 2:25.476 3:436.2 4:887.2 5:0.004324772 
0.2451976325878839 1:22.625 2:25.55 3:442.5 4:889.25 5:0.004338748 
0.2479242880447705 1:22.6 2:25.39 3:443.4 4:889.2 5:0.004304805 
0.4510894946844635 1:22.65 2:25.42 3:438 4:880.75 5:0.00432312 
0.4506728643742487 1:22.6 2:25.2675 3:442.5 4:868.75 5:0.004283893 
0.4158898162761021 1:22.6 2:25.2 3:439.8 4:860.6 5:0.00427237 
0.4395580554889518 1:22.6 2:25.2 3:435.5 4:864 5:0.00427237 
0.4524628869776152 1:22.6 2:25.15 3:430.75 4:859 5:0.004263835 
0.3618584804750512 1:22.6 2:25.14 3:440.6 4:854.4 5:0.004262128 
0.72663870629757 1:22.6 2:25.15 3:428.2 4:847.4 5:0.004263835 
0.2222852758588383 1:22.6 2:25.04 3:432.2 4:837.2 5:0.004245059 
0.161095986180354 1:22.6 2:25.05 3:431.75 4:834.75 5:0.004246766 
0.09729971706601237 1:22.6 2:25 3:433 4:832 5:0.004238231 
0.4064764515628032 1:22.6 2:25 3:428.2 4:832.6 5:0.004238231 
0.4087845491968907 1:22.6 2:25.025 3:428.25 4:821.5 5:0.004242498 
0.8343197900552084 1:22.6 2:25.1 3:425.4 4:832.4 5:0.0042553 
0.107547971717933 1:22.6 2:25.08 3:429.2 4:832.4 5:0.004251886 
0.3610091403935006 1:22.56 2:25.02 3:433 4:830.75 5:0.004231284 
0.1073916274647704 1:22.58 2:25.08 3:433 4:821.5 5:0.00424669 
0.08475302562257767 1:22.575 2:25.075 3:433 4:818.25 5:0.00424454 
0.253214969279849 1:22.56 2:24.912 3:433 4:819.8 5:0.004212896 
0.09611766310995089 1:22.55 2:25.2 3:433 4:822.5 5:0.004259328 
0.267434086421019 1:22.58 2:25.06 3:433 4:812.8 5:0.004243281 
0.061644621218141 1:22.566667 2:24.908333 3:433 4:816.5 5:0.004213989 
0.07005907621149636 1:22.525 2:24.945 3:433 4:822.25 5:0.004209495 
0.3485122078394567 1:22.54 2:24.89 3:433 4:825 5:0.004204006 
0.3008868083017913 1:22.5 2:24.865 3:433 4:816.5 5:0.004189492 
0.3150140671694523 1:22.5 2:24.911667 3:433 4:811 5:0.004197408 
0.455340574188786 1:22.525 2:24.89 3:426 4:814.25 5:0.004200151 
0.312302114550013 1:22.52 2:24.976 3:430.2 4:824 5:0.004213473 
0.1971798904943944 1:22.575 2:25.075 3:433 4:834.5 5:0.00424454 
0.1473369290927187 1:22.6 2:25 3:433 4:837 5:0.004238231 
0.4284409340046015 1:22.6 2:25.021429 3:433 4:841.16667 5:0.004241889 
0.4392962809362652 1:22.6 2:25.042857 3:433 4:845.33333 5:0.004245546 
0.1920572396187497 1:22.6 2:25.1 3:433 4:854.75 5:0.0042553 
1 1:22.6 2:25.1 3:428.33333 4:850.33333 5:0.0042553 
0.6398604463676543 1:22.6 2:25.08 3:424.6 4:845.4 5:0.004251886 
0.2694004964433587 1:22.6 2:25.166667 3:433 4:854.33333 5:0.00426668 
0.1882721600524597 1:22.39 2:24.7225 3:419 4:772.25 5:0.004137377 
0.2977227010750317 1:22.39 2:24.625 3:419 4:773.75 5:0.004120952 
0.3884769411684045 1:22.39 2:24.754 3:416.2 4:771.8 5:0.004142684 
1 1:22.39 2:24.912 3:418.6 4:782.8 5:0.004169303 
0.509897986383741 1:22.39 2:25.245 3:415 4:796.5 5:0.004225413 
0.4551472158578152 1:22.39 2:25.0925 3:310.25 4:809 5:0.004199716 
0.4552622292370505 1:20.29 2:22.79 3:217.2 4:441.6 5:0.003349002 
0.4554214636300781 1:20.29 2:22.856667 3:413.66667 4:442.66667 5:0.003358851 
0.4551256990167143 1:20.29 2:22.956 3:433 4:445.6 5:0.003373528 
0.4538650783595838 1:20.31 2:23.2 3:415 4:470.8 5:0.003413822 
0.4261323442550017 1:20.33 2:23.2 3:412.2 4:476.6 5:0.003418066 
0.3201483069933568 1:20.39 2:23.2 3:412.2 4:473 5:0.003430829 
0.09515477231000569 1:20.365 2:23.245 3:413.5 4:473 5:0.003432187 
0.4552743930858562 1:20.39 2:23.34 3:403.5 4:479.75 5:0.003451647 
0.4527181071069868 1:20.39 2:23.434 3:397.4 4:494.2 5:0.003465625 
0.3930825802297899 1:20.39 2:23.5 3:399.5 4:498.75 5:0.003475441 
0.3958117665215429 1:20.39 2:23.66 3:397.4 4:501 5:0.003499236 
0.4550057232807033 1:20.39 2:23.7 3:398.33333 4:507 5:0.003505185 
0.43840798001033 1:20.39 2:23.7 3:399.5 4:518 5:0.003505185 
0.4438396718147541 1:20.445 2:23.8175 3:403 4:520 5:0.003534713 
1 1:20.5 2:23.89 3:407.66667 4:523.66667 5:0.003557659 
0.4487085463290858 1:20.5 2:23.978 3:412.2 4:525.2 5:0.003570839 
0.4492767618110111 1:20.5 2:24.033333 3:413 4:531.33333 5:0.003579127 
0.1580064097070409 1:20.5 2:24.1 3:414 4:538 5:0.003589112 
0.3446345189908965 1:20.5 2:24.18 3:412.2 4:541 5:0.003601095 
0.4137486058817213 1:20.52 2:24.236 3:407.4 4:549.6 5:0.003613966 
0.3209750210501689 1:20.5 2:24.323333 3:407 4:555.16667 5:0.003622566 
0.434541389759477 1:20.5 2:24.39 3:405 4:561.5 5:0.003632553 
0.3582884875405352 1:20.5 2:24.39 3:405 4:569 5:0.003632553 
0.06076935587002108 1:20.56 2:24.39 3:405 4:568.2 5:0.003646103 
0.4508147036858575 1:20.55 2:24.39 3:412 4:572 5:0.003643841 
0.4507256340177392 1:20.55 2:24.39 3:416.66667 4:573.16667 5:0.003643841 
0.3148657339813633 1:20.58 2:24.39 3:419 4:583 5:0.003650629 
0.311601013203929 1:20.6 2:24.39 3:419 4:585 5:0.003655161 
0.2889404451178619 1:20.7 2:24.39 3:419 4:591.4 5:0.003677892 
0.3872988941559758 1:20.7 2:24.39 3:419 4:594.33333 5:0.003677892 
0.2735911141532946 1:20.736 2:24.39 3:419 4:601.4 5:0.003686106 
0.106167742711786 1:20.73 2:24.39 3:419 4:606 5:0.003684736 
0.2979972367975072 1:20.7 2:24.5 3:419 4:608.75 5:0.003694578 
0.2090164231626487 1:20.754 2:24.5 3:419 4:616.8 5:0.003706961 
0.00852958263035937 1:20.79 2:24.5 3:419 4:624.2 5:0.003715237 
0.2796151904896091 1:20.772 2:24.52 3:419 4:625.6 5:0.003714144 
0.4151929186243339 1:20.7675 2:24.6 3:419 4:628.75 5:0.003725296 
0.4543493879260312 1:20.754 2:24.66 3:419 4:635.2 5:0.003731315 
0.4280407348483602 1:20.772 2:24.7 3:419 4:640.8 5:0.003741574 
0.1447116611862771 1:20.79 2:24.7 3:421.8 4:642.4 5:0.003745748 
0.3268065947037578 1:20.79 2:24.7 3:422.5 4:643.25 5:0.003745748 
0.4521469065601563 1:20.79 2:24.736 3:427.4 4:643.6 5:0.00375124 
0.3100039730817726 1:20.79 2:24.79 3:433 4:645.25 5:0.003759479 
0.3941046713646547 1:20.775 2:24.79 3:433 4:652.66667 5:0.003755987 
0.1423171842340628 1:20.79 2:24.79 3:433 4:658 5:0.003759479 
0.3668288920636307 1:20.79 2:24.79 3:433 4:665.5 5:0.003759479 
0.3628159563952354 1:20.79 2:24.79 3:433 4:668.2 5:0.003759479 
0.4489331478327986 1:20.79 2:24.79 3:433 4:672.75 5:0.003759479 
0.4429759709981247 1:20.79 2:24.79 3:433 4:679.2 5:0.003759479 
0.3595164351871405 1:20.815 2:24.815 3:433 4:683.5 5:0.003769124 
0.4514984087967507 1:20.79 2:24.79 3:440 4:688.5 5:0.003759479 
0.3738941227946594 1:20.84 2:24.84 3:434.5 4:686 5:0.00377879 
0.2006857034123805 1:20.79 2:24.79 3:435.5 4:689.75 5:0.003759479 
0.1847035212367178 1:20.89 2:24.89 3:443.4 4:700 5:0.003798181 
0.3171752285735808 1:20.83 2:24.83 3:439.8 4:697.6 5:0.003774921 
0.06693956996767672 1:20.87 2:24.87 3:439.8 4:695.8 5:0.003790415 
0.1716348403377791 1:20.89 2:24.89 3:442.5 4:701.25 5:0.003798181 
0.2557696810854159 1:20.873333 2:24.84 3:441 4:700.66667 5:0.003786596 
0.3448770132911435 1:20.873333 2:24.775 3:441 4:694.83333 5:0.003776628 
0.2657513214599216 1:20.89 2:24.84 3:442.5 4:709.75 5:0.003790505 
0.244175355498208 1:20.89 2:24.856667 3:435 4:715 5:0.003793064 
0.2422902946000783 1:20.89 2:24.823333 3:435 4:715.83333 5:0.003787946 
0.340838192484154 1:20.89 2:24.79 3:429 4:713.8 5:0.003782829 
0.4519969691356159 1:20.926667 2:24.79 3:429 4:709 5:0.003791422 
0.3473268900768929 1:20.89 2:24.85 3:429 4:716.2 5:0.00379204 
0.4025255445196747 1:20.89 2:24.945 3:432.75 4:725 5:0.003806626 
0.4310560284069666 1:20.89 2:24.9175 3:429 4:725 5:0.003802403 
0.2658938887049517 1:20.89 2:24.978 3:435 4:727.6 5:0.003811692 
0.2815523217735557 1:20.89 2:25 3:435 4:729.4 5:0.00381507 
0.3968215324811259 1:20.89 2:25 3:441 4:730.8 5:0.00381507 
0.3641306376717799 1:20.89 2:25 3:438 4:731.2 5:0.00381507 
0.4494227473034332 1:20.9175 2:25 3:444 4:736.25 5:0.003821569 
0.389304419249722 1:20.978 2:25 3:441 4:741 5:0.003835901 
0.09971394949186151 1:21 2:24.912 3:444 4:742.4 5:0.00382752 
1 1:21.025 2:24.89 3:444 4:746.75 5:0.003830036 
1 1:21.075 2:24.89 3:444 4:745 5:0.003841893 
0.3074633233722645 1:21.1 2:24.89 3:444 4:740.8 5:0.003847834 
0.3995831533986958 1:21.2 2:25.163333 3:444 4:752.66667 5:0.003914464 
0.3140921038109766 1:21.175 2:25.040417 3:446.66667 4:751.5 5:0.003889213 
0.3973745345652647 1:21.15 2:24.9175 3:449.33333 4:750.33333 5:0.003864032 
0.4552163345551605 1:21.183333 2:25.198333 3:454.66667 4:754.33333 5:0.00391591 
0.4552502279475884 1:21.2 2:25.34 3:448 4:765.75 5:0.003942121 
0.4518741832560145 1:21.2 2:25.3925 3:454.75 4:782 5:0.00395034 
0.4511772849729387 1:21.23 2:25.445 3:453 4:786.66667 5:0.003965901 
0.4543348616629544 1:21.254 2:25.578 3:451.6 4:792 5:0.003992676 
0.4454912361871937 1:21.2 2:25.763333 3:453 4:800.33333 5:0.004008403 
0.4452331190129272 1:21.2 2:25.89 3:454.75 4:804.33333 5:0.004028238 
0.4552542185613851 1:21.2 2:26.05 3:449.5 4:815.2 5:0.004053295 
0.4552963118052288 1:21.2 2:26.1 3:460 4:829.75 5:0.004061126 
0.4549002024147261 1:21.2 2:26.157143 3:442 4:837.16667 5:0.004070075 
0.448869633743499 1:21.2 2:26.245 3:439 4:849 5:0.004083836 
0.3516499160421955 1:21.2 2:26.29 3:439 4:853.5 5:0.004090884 
0.3420625986718895 1:21.218 2:26.31 3:439 4:863.4 5:0.004098571 
0.3989237543643999 1:21.236 2:26.412 3:442 4:864.4 5:0.004119143 
0.4523574922173735 1:21.23 2:26.498333 3:449 4:871.83333 5:0.004131165 
0.4437628797662439 1:21.2225 2:26.525 3:454 4:872.25 5:0.004133435 
0.4349458174959205 1:21.245 2:26.583333 3:454 4:876.66667 5:0.004148347 
0.3473869659899863 1:21.26 2:26.566667 3:454 4:890.33333 5:0.004149571 
0.4460535968505898 1:21.29 2:26.683333 3:454 4:895.16667 5:0.004175644 
0.454200222542658 1:21.29 2:26.76 3:454 4:901 5:0.004187722 
0.4552670072930515 1:21.29 2:26.79 3:454 4:910.25 5:0.004192449 
0.4499634408949489 1:21.315 2:26.7675 3:454 4:918.5 5:0.004195374 
0.4131247789114889 1:21.306667 2:26.79 3:454 4:923.16667 5:0.004196765 
0.4133036453035862 1:21.31 2:26.79 3:454 4:926.75 5:0.004197629 
0.01408172431054932 1:21.356667 2:26.79 3:454 4:925.5 5:0.004209738 
0.4464677845729388 1:21.31 2:26.83 3:463 4:927.6 5:0.004203939 
0.4548101314883155 1:21.29 2:26.89 3:457.75 4:935 5:0.004208204 
0.424144663821773 1:21.35 2:26.934 3:463 4:932 5:0.004230778 
0.4342018365279197 1:21.34 2:26.945 3:464 4:935.75 5:0.004229906 
0.4552540877090085 1:21.315 2:27 3:469 4:946.75 5:0.004232063 
0.455241402437722 1:21.39 2:27 3:461 4:952 5:0.004251699 
0.4550983415271252 1:21.39 2:27.1 3:462.33333 4:959.33333 5:0.004267554 
0.4238561406250526 1:21.39 2:27.08 3:461 4:967 5:0.004264383 
0.4237477413294581 1:21.39 2:27.1 3:464 4:969 5:0.004267554 
0.2942825193983303 1:21.4175 2:27.22 3:464 4:982.5 5:0.00429386 
0.2949800821123627 1:21.426667 2:27.23 3:462.33333 4:983 5:0.004297878 
0.4553679638211775 1:21.412 2:27.272 3:453 4:985.4 5:0.00430066 
0.4553233619718266 1:21.456 2:27.33 3:453 4:996.2 5:0.004321584 
0.455249737588118 1:21.481667 2:27.356667 3:449 4:1004.5 5:0.004332683 
0.4537503450217887 1:21.5 2:27.312 3:458 4:1004.4 5:0.004330452 
0.453797729372464 1:21.5 2:27.315 3:460.25 4:1009.25 5:0.004330931 
0.4553023498553784 1:21.54 2:27.718 3:461 4:1019 5:0.004406134 
0.137981571971861 1:21.55 2:27.5 3:464 4:1034.25 5:0.004373932 
0.3360797171326871 1:21.6 2:27.463333 3:464 4:1035.3333 5:0.004381539 
0.4228337567636667 1:21.6 2:27.463333 3:464 4:1031 5:0.004381539 
0.4394922444353172 1:21.6 2:27.4725 3:467.75 4:1028.25 5:0.004383012 
0.398791888254278 1:21.6 2:27.456 3:473 4:1030 5:0.004380361 
0.1423915613980192 1:21.6 2:27.5 3:479 4:1032.25 5:0.00438743 
0.3293135113239591 1:21.6 2:27.6 3:479 4:1033.5 5:0.004403497 
0.382170365375689 1:21.6 2:27.54 3:479 4:1045 5:0.004393857 
0.4198584476973046 1:21.6 2:27.525 3:474 4:1040.25 5:0.004391447 
0.4270336265471968 1:21.6 2:27.566667 3:472.33333 4:1044 5:0.004398142 
0.4147661416119883 1:21.625 2:27.625 3:477.75 4:1041.25 5:0.004414309 
0.3809976612182845 1:21.64 2:27.716 3:476 4:1045.8 5:0.004433048 
0.4524923945837279 1:21.66 2:27.83 3:479 4:1054.2 5:0.0044569 
0.4525370666137157 1:21.683333 2:27.84 3:474 4:1054.8 5:0.004464925 
0.4266075010318913 1:21.65 2:27.84 3:474 4:1069.8 5:0.004455767 
0.3796018477358917 1:21.7 2:27.912 3:474 4:1073.4 5:0.004481152 
0.4140197070220152 1:21.7 2:28.0725 3:474 4:1076.75 5:0.004507106 
0.4554266563988408 1:21.7 2:27.9675 3:474 4:1086.75 5:0.004490127 
0.4496023670894139 1:21.7 2:27.893333 3:484 4:1086.6667 5:0.004478133 
0.3161836743214474 1:21.7 2:27.945 3:479 4:1078.8333 5:0.004486488 
0.254953055780769 1:21.7 2:27.912 3:483 4:1077.6 5:0.004481152 
0.4017115920798533 1:21.7 2:27.9725 3:489 4:1080.5 5:0.004490935 
0.4508430076714948 1:21.7 2:27.9175 3:489 4:1088.75 5:0.004482041 
0.3983828221730408 1:21.7 2:27.89 3:489 4:1083.6667 5:0.004477594 
0.2871851358115224 1:21.7 2:27.856667 3:482 4:1076.1667 5:0.004472204 
0.2114047125126507 1:21.7 2:27.934 3:480.6 4:1079.4 5:0.004484709 
0.4549637729883026 1:21.7 2:28.1 3:495.25 4:1088 5:0.004511553 
0.08837778974734448 1:21.7 2:27.908333 3:484.83333 4:1092.5 5:0.004480559 
0.3845779131612342 1:21.7 2:27.961667 3:484 4:1094.6667 5:0.004489183 
0.343996529491698 1:21.718 2:27.974 3:484 4:1091.4 5:0.004496158 
0.4553626105328741 1:21.7 2:28.1 3:484 4:1101.6667 5:0.004511553 
0.4541675585378617 1:21.79 2:28.066667 3:484 4:1111 5:0.004531198 
0.2876839205485111 1:21.718 2:28.1 3:484 4:1119.4 5:0.004516557 
0.3500462070415135 1:21.76 2:28.083333 3:484 4:1122.5 5:0.004525545 
0.424947008409554 1:21.7675 2:28.125 3:495.25 4:1127.5 5:0.004534401 
0.4039881109498349 1:21.73 2:28.133333 3:499 4:1131 5:0.004525296 
0.365945380913769 1:21.775 2:28.05 3:499 4:1127.8333 5:0.00452431 
0.4455561602317367 1:21.79 2:28.125 3:499 4:1123.5 5:0.004540685 
0.4493666914049341 1:21.79 2:28.158 3:490.6 4:1127.8 5:0.004546051 
0.4554824636646727 1:21.79 2:28.26 3:502 4:1148.6667 5:0.00456264 
0.4550341692033781 1:21.84 2:28.1 3:493 4:1151.5 5:0.004550598 
0.163504398663061 1:21.823333 2:28.133333 3:493 4:1142.3333 5:0.004551366 
0.2913831669411411 1:21.87 2:28.252 3:493 4:1142 5:0.004583846 
0.4481702596380678 1:21.89 2:28.183333 3:495.66667 4:1146 5:0.004578251 
0.453600383846639 1:21.89 2:28.254 3:499.4 4:1142.2 5:0.004589815 
0.4553124147030304 1:21.89 2:28.29 3:509 4:1159.8 5:0.004595706 
0.4554041370113259 1:21.89 2:28.31 3:500.6 4:1168 5:0.004598979 
0.4210679072058268 1:21.89 2:28.375714 3:506.42857 4:1181.1429 5:0.004609734 
0.3806414409635832 1:21.89 2:28.39 3:510 4:1180 5:0.004612072 
0.4443485946816376 1:21.89 2:28.375714 3:503 4:1183.7143 5:0.004609734 
0.224725346751826 1:21.89 2:28.306667 3:503 4:1189.6667 5:0.004598434 
0.2353014858991809 1:21.89 2:28.315 3:503 4:1190 5:0.004599797 
0.0807809527762044 1:21.89 2:28.31 3:512 4:1178.8 5:0.004598979 
0.3422285019295626 1:21.89 2:28.365 3:518 4:1173 5:0.00460798 
0.3456689843709707 1:21.912 2:28.37 3:518 4:1170.6 5:0.004615038 
0.4522396541138334 1:21.89 2:28.39 3:518 4:1178.6 5:0.004612072 
0.4415817849029551 1:21.89 2:28.445 3:513 4:1193.5 5:0.004621073 
0.4553955201571116 1:21.89 2:28.445 3:513 4:1201.5 5:0.004621073 
0.441938368486155 1:21.89 2:28.5 3:511.33333 4:1189.6667 5:0.004630075 
0.4540179860323789 1:21.89 2:28.33 3:518.2 4:1190.4 5:0.004602252 
0.4499839102577844 1:21.908333 2:28.308333 3:513 4:1172.6667 5:0.004603894 
0.3742737561165664 1:21.945 2:28.29 3:513 4:1177.75 5:0.004611274 
0.4544692807227006 1:21.934 2:28.29 3:519 4:1184.8 5:0.004608157 
0.4120677245241688 1:22 2:28.29 3:528 4:1188.25 5:0.004626889 
0.357449557375417 1:21.945 2:28.29 3:528 4:1191.5 5:0.004611274 
0.2876104402715502 1:21.978 2:28.29 3:532.8 4:1193 5:0.004620638 
0.3735369686900941 1:22 2:28.29 3:534.25 4:1190 5:0.004626889 
0.4478124019439055 1:22 2:28.29 3:528 4:1198.5 5:0.004626889 
0.4487389142599263 1:22 2:28.2 3:523 4:1198 5:0.00461206 
0.4085689294407835 1:22 2:28.218 3:526 4:1194.2 5:0.004615026 
0.4526568602831243 1:22 2:28.2225 3:534.25 4:1185 5:0.004615767 
0.3621574370669498 1:22 2:28.2675 3:538 4:1194 5:0.004623182 
0.04302716546478881 1:22.025 2:28.2575 3:538 4:1193.125 5:0.004628639 
0.3961924476272308 1:22.06 2:28.274 3:538 4:1190.4 5:0.00464133 
0.1427011374245556 1:22.05 2:28.34 3:532.25 4:1192.25 5:0.004649389 
0.4190823150193106 1:22.1 2:28.39 3:547.5 4:1200.5 5:0.004671979 
0.3772308891835771 1:22.08 2:28.37 3:544.2 4:1198.6 5:0.004662932 
0.2168348148150812 1:22.1 2:28.39 3:536.33333 4:1197 5:0.004671979 
0.3028814956533271 1:22.1 2:28.365 3:535 4:1197.5 5:0.004667834 
0.4368856608456406 1:22.06 2:28.35 3:534.2 4:1203 5:0.004653899 
0.09283018454358746 1:22.1 2:28.39 3:533.66667 4:1206.5 5:0.004671979 
0.3573657534236159 1:22.083333 2:28.358333 3:533.66667 4:1207.1667 5:0.004661954 
0.4549586950788479 1:22.1 2:28.39 3:535 4:1213 5:0.004671979 
0.4437115810429014 1:22.1 2:28.356667 3:547 4:1211.5 5:0.004666452 
0.3985850449255094 1:22.1 2:28.372 3:553.4 4:1208.2 5:0.004668994 
0.3821251651907695 1:22.1 2:28.2 3:550.5 4:1209.25 5:0.004640478 
0.3841474119945876 1:22.1 2:28.2 3:543.66667 4:1201.6667 5:0.004640478 
0.4481805166920151 1:22.15 2:28.1 3:550.75 4:1189.75 5:0.004638116 
0.2443719221680208 1:22.1 2:28.2 3:555 4:1191 5:0.004640478 
0.266059603431414 1:22.116667 2:28.066667 3:555 4:1192.1667 5:0.004623103 
0.4552490910517559 1:22.166667 2:28 3:557.66667 4:1184.3333 5:0.004626217 
0.3480033416325445 1:22.18 2:28.06 3:555 4:1176.4 5:0.00464 
0.287296446450899 1:22.133333 2:28 3:557.66667 4:1175.6667 5:0.004616762 
0.2538869689444805 1:22.16 2:27.956 3:556.4 4:1173.8 5:0.004617004 
0.3445374710226828 1:22.2 2:27.9175 3:555 4:1170.75 5:0.00462193 
0.3788897311772274 1:22.183333 2:27.806667 3:555 4:1168 5:0.004598739 
0.45404965094163 1:22.2 2:27.823333 3:555 4:1160.8333 5:0.004606224 
0.4492171043662648 1:22.2 2:27.79 3:546.5 4:1161 5:0.004600665 
0.453570638440759 1:22.2 2:27.79 3:538 4:1166 5:0.004600665 
0.4497126264976192 1:22.2 2:27.772 3:543 4:1164.4 5:0.004597663 
0.450464360631798 1:22.2 2:27.7225 3:550.5 4:1157.75 5:0.004589408 
0.2079814187412018 1:22.2 2:27.772 3:543 4:1148.6 5:0.004597663 
0.3976197271152999 1:22.2 2:27.7225 3:547 4:1153.75 5:0.004589408 
0.3866916684499666 1:22.2 2:27.7 3:544.2 4:1152.4 5:0.004585655 
0.1477565139576937 1:22.175 2:27.7 3:543 4:1147.25 5:0.004578627 
0.2240330191529534 1:22.2 2:27.7 3:544.25 4:1147.5 5:0.004585655 
0.4539460590009682 1:22.2 2:27.7 3:548 4:1144 5:0.004585655 
0.45543553885283 1:22.2 2:27.7 3:543 4:1133 5:0.004585655 
0.4549271361331326 1:22.2 2:27.6 3:538 4:1121.2 5:0.004568979 
0.4552041527481633 1:22.2 2:27.516667 3:549.33333 4:1110.8333 5:0.004555083 
0.4545661488663949 1:22.2 2:27.5 3:547 4:1093.25 5:0.004552304 
0.4552824890631918 1:22.2 2:27.54 3:538.6 4:1093.2 5:0.004558974 
0.288784985310568 1:22.2 2:27.566667 3:549.33333 4:1102.5 5:0.004563421 
0.328308754102812 1:22.2 2:27.52 3:548.6 4:1104.4 5:0.004555639 
0.4547208308031077 1:22.2 2:27.58 3:543 4:1101.75 5:0.004565644 
0.4388369051423822 1:22.2 2:27.6 3:548.5 4:1098.75 5:0.004568979 
0.1004716422684047 1:22.2 2:27.56 3:555 4:1092.4 5:0.004562309 
0.2844330369788162 1:22.2 2:27.5 3:555 4:1094 5:0.004552304 
0.272409622123262 1:22.254 2:27.56 3:556.4 4:1092.4 5:0.004577446 
0.4552788909427434 1:22.2225 2:27.575 3:556.66667 4:1081.6667 5:0.004571115 
0.4374166549444044 1:22.245 2:27.583333 3:562 4:1077 5:0.004578822 
0.3770379727683581 1:22.254 2:27.54 3:555.6 4:1074.4 5:0.004574099 
0.4042531562380407 1:22.29 2:27.55 3:558 4:1072.25 5:0.004585884 
0.3876083916762 1:22.29 2:27.5 3:563.4 4:1070.4 5:0.0045775 
0.4552620467637138 1:22.272 2:27.5 3:570 4:1071 5:0.004572451 
0.4379637472764084 1:22.29 2:27.481667 3:565.83333 4:1078.1667 5:0.004574426 
0.428909476120775 1:22.29 2:27.5 3:553 4:1071.75 5:0.0045775 
0.2833517058986103 1:22.29 2:27.445 3:561.83333 4:1066.8333 5:0.004568278 
0.1441608617030671 1:22.29 2:27.456 3:562.4 4:1068.4 5:0.004570123 
0.3824529551546685 1:22.29 2:27.37 3:560.6 4:1064.2 5:0.004555703 
0.4387679985732122 1:22.29 2:27.356667 3:559.66667 4:1060.3333 5:0.004553467 
0.4553591861711573 1:22.306667 2:27.39 3:569.83333 4:1061.5 5:0.004563717 
0.4552966960350295 1:22.33 2:27.37 3:581 4:1057 5:0.004566887 
0.4556590411892136 1:22.35 2:27.33 3:593 4:1057.8 5:0.004565756 
0.5747547810113985 1:22.39 2:27.29 3:601 4:1065 5:0.004570212 
0.1126549666626436 1:22.39 2:27.29 3:600.4 4:1064.2 5:0.004570212 
0.4552939414352105 1:22.39 2:27.254 3:616 4:1061.8 5:0.004564139 
0.4553766018343601 1:22.39 2:27.14 3:579.2 4:1045.2 5:0.004544908 
0.4551297970851934 1:22.434 2:27.04 3:584.8 4:1049.6 5:0.004540259 
0.4553699857627698 1:22.426667 2:27.033333 3:609.66667 4:1041.3333 5:0.004537094 
0.3071014504923533 1:22.426667 2:27.033333 3:625.66667 4:1038 5:0.004537094 
0.4506220286724137 1:22.426667 2:26.981667 3:629.66667 4:1035.1667 5:0.004528359 
0.4552593979121674 1:22.5 2:27 3:617 4:1040 5:0.00455185 
0.3091039415592413 1:22.5 2:27 3:624.8 4:1036.25 5:0.00455185 
0.4333066764122809 1:22.5 2:26.963333 3:641.33333 4:1033.25 5:0.004545623 
0.4518107829378281 1:22.5 2:26.89 3:659.4 4:1037 5:0.00453317 
0.4331757103799528 1:22.58 2:26.81 3:644.6 4:1031.2 5:0.004541763 
0.3976411238407882 1:22.575 2:26.79 3:653 4:1033 5:0.004536962 
0.3329008239801729 1:22.6 2:26.79 3:659 4:1032.25 5:0.004543905 
0.340553887657169 1:22.6 2:26.79 3:660 4:1030.1667 5:0.004543905 
0.4552861459239188 1:22.6 2:26.7225 3:668.5 4:1033 5:0.004532373 
0.235245311454314 1:22.666667 2:26.713333 3:652.5 4:1030.3333 5:0.004549314 
0.1892876224918535 1:22.675 2:26.675 3:652.75 4:1028.5 5:0.004545053 
0.3731814453655084 1:22.7 2:26.7 3:654.2 4:1020.4 5:0.0045563 
0.4301942431609052 1:22.7 2:26.683333 3:656.16667 4:1023.6667 5:0.004553435 
0.216370743929902 1:22.7225 2:26.6 3:650.75 4:1021.25 5:0.004545356 
0.2160979521629322 1:22.745 2:26.6 3:663.75 4:1014.75 5:0.004551609 
0.4231126580464653 1:22.745 2:26.55 3:651 4:1017 5:0.004542991 
0.4340925223184036 1:22.79 2:26.516667 3:648.33333 4:1014.1667 5:0.004549734 
0.2726501348628492 1:22.79 2:26.6 3:651 4:1022.5 5:0.004564138 
0.3549812240448028 1:22.79 2:26.525 3:651 4:1027.25 5:0.004551175 
0.433598289434121 1:22.87 2:26.456 3:657.8 4:1019 5:0.004561474 
0.3480540988412516 1:22.89 2:26.445 3:668 4:1020.75 5:0.004565133 
0.4076598829039607 1:22.89 2:26.39 3:668 4:1015.5 5:0.004555569 
0.2862426444459292 1:22.908333 2:26.39 3:663.66667 4:1016 5:0.004560668 
0.4394918222069485 1:22.956 2:26.39 3:664.6 4:1011 5:0.00457395 
0.2534785309343322 1:22.963333 2:26.29 3:668 4:1018.6667 5:0.004558529 
0.4532705290214624 1:23 2:26.29 3:662.33333 4:1006.3333 5:0.004568734 
0.4257034517716934 1:22.956 2:26.236 3:647.8 4:1008.2 5:0.004547063 
0.3988037452887381 1:23 2:26.2 3:651.66667 4:1009.3333 5:0.004552979 
0.282169252035367 1:23 2:26.2 3:651.66667 4:1006.1667 5:0.004552979 
0.3567158401168207 1:23.02 2:26.16 3:650 4:1004.4 5:0.004551524 
0.3858999195992334 1:23.025 2:26.125 3:653.75 4:999.75 5:0.004546776 
0.3027940437849012 1:23.1 2:26 3:656 4:992.5 5:0.004545592 
0.335059017930798 1:23.1 2:26 3:660 4:995.66667 5:0.004545592 
0.114586408161011 1:23.1 2:26 3:655 4:994 5:0.004545592 
0.4302363029573741 1:23.14 2:26 3:660 4:990.2 5:0.004556682 
0.3736598402480126 1:23.2 2:26 3:650 4:998.5 5:0.004573361 
0.133236861461302 1:23.2 2:26 3:651.66667 4:997.25 5:0.004573361 
0.3450726324280468 1:23.2 2:25.945 3:653.16667 4:992.5 5:0.004563616 
0.3075542307816755 1:23.2225 2:25.9175 3:653.75 4:996.5 5:0.004564992 
0.2497609943793371 1:23.2225 2:25.815 3:659.75 4:993.75 5:0.004546806 
0.4551462045466115 1:23.2 2:25.7 3:538.75 4:917.25 5:0.004520208 
0.4548785681170923 1:23.2 2:25.7225 3:547 4:899.75 5:0.004524195 
0.2974026814723803 1:23.2 2:25.54 3:543 4:894.4 5:0.004491864 
0.4552343806782561 1:23.183333 2:25.516667 3:561.83333 4:880.33333 5:0.004483179 
0.4229254846344188 1:23.15 2:25.5 3:597.75 4:879.75 5:0.004471146 
0.4552618515692491 1:23.2 2:25.5 3:561.5 4:870.5 5:0.004484778 
0.4552221788229665 1:23.2 2:25.5 3:598.4 4:866.2 5:0.004484778 
0.454836507624062 1:23.18 2:25.5 3:609.6 4:866.4 5:0.004479321 
0.4552539664913955 1:23.2 2:25.525 3:587 4:869.75 5:0.004489207 
0.4311230263821377 1:23.2 2:25.58 3:596.8 4:874.2 5:0.00449895 
0.3955938494221357 1:23.175 2:25.6 3:595 4:877.5 5:0.004495645 
0.3914057117154993 1:23.183333 2:25.7 3:608.33333 4:879 5:0.004515624 
0.4510617424948239 1:23.2 2:25.68 3:611.6 4:875.5 5:0.004516665 
0.3110958464758818 1:23.2 2:25.7 3:610.2 4:881.33333 5:0.004520208 
0.4551883656806279 1:23.218 2:25.7 3:616.6 4:882.4 5:0.004525164 
0.1576162707789464 1:23.23 2:25.715 3:608.33333 4:883 5:0.004531133 
0.3311318988573444 1:23.254 2:25.68 3:609 4:884.5 5:0.004531535 
0.4452474206544526 1:23.2675 2:25.7225 3:599 4:888.25 5:0.004542819 
0.4454288357859923 1:23.272 2:25.772 3:594.8 4:889.4 5:0.004552872 
0.1578493892479663 1:23.29 2:25.79 3:585.75 4:895 5:0.004561068 
0.3159506416055562 1:23.29 2:25.79 3:584.8 4:894.4 5:0.004561068 
0.4551898311104153 1:23.29 2:25.79 3:592.75 4:898.25 5:0.004561068 
0.2499043511895051 1:23.29 2:25.79 3:586.5 4:898 5:0.004561068 
0.3005550306387898 1:23.29 2:25.79 3:585 4:898.8 5:0.004561068 
0.4552818502351859 1:23.29 2:25.79 3:576.75 4:901 5:0.004561068 
0.4479492576669247 1:23.29 2:25.79 3:566 4:900.14286 5:0.004561068 
0.5159797592681423 1:23.29 2:25.7675 3:560 4:898.25 5:0.004557059 
0.442131310418881 1:23.29 2:25.754 3:566 4:895.6 5:0.004554654 
0.4495835904860507 1:23.29 2:25.793333 3:569.33333 4:892.33333 5:0.004561662 
0.1897207111503184 1:23.29 2:26.16 3:561 4:911.16667 5:0.004626991 
0.3030376454405854 1:23.29 2:25.89 3:561 4:913 5:0.004578883 
0.452214900984556 1:23.29 2:26.059167 3:558.3 4:921.4 5:0.004609024 
0.4551350619269047 1:23.29 2:26.228333 3:555.6 4:929.8 5:0.004639167 
0.4552880682803396 1:23.29 2:26.456 3:558.8 4:951.8 5:0.004679739 
0.4557282613688293 1:23.29 2:26.575 3:546 4:956.75 5:0.004700948 
0.4121683842353128 1:23.29 2:26.62 3:546 4:968 5:0.004708968 
0.4312129968478584 1:23.29 2:26.754 3:542.8 4:966 5:0.004732852 
0.4379541208099308 1:23.29 2:26.79 3:544.8 4:971.8 5:0.004739269 
0.4552935809516988 1:23.29 2:26.87 3:541.4 4:983 5:0.00475353 
0.4549998967868914 1:23.33 2:26.956 3:538 4:993.6 5:0.004780483 
0.4544090758827659 1:23.29 2:27 3:538.4 4:999.6 5:0.004776705 
0.4547071285692194 1:23.35 2:27.08 3:538.4 4:1005.4 5:0.00480849 
0.4552417743846925 1:23.315 2:27.1 3:534.5 4:1013.75 5:0.004801833 
0.4552822889224615 1:23.29 2:27.14 3:538.8 4:1019.8 5:0.004801664 
0.4547736556525549 1:23.29 2:27.26 3:531 4:1023 5:0.004823059 
0.4550249530694524 1:23.29 2:27.408333 3:526.83333 4:1027.5 5:0.004849508 
0.4552642480676738 1:23.29 2:27.4175 3:526.75 4:1038.5 5:0.004851143 
0.4552906158740493 1:23.29 2:27.5 3:519.66667 4:1049 5:0.004865854 
0.4214380823596083 1:23.29 2:27.5 3:505.8 4:1051.8 5:0.004865854 
0.4552781614855356 1:23.318571 2:27.585714 3:493 4:1056 5:0.004889635 
0.4209899405238303 1:23.29 2:27.65 3:503.5 4:1054.5 5:0.004892604 
0.4552778470041503 1:23.29 2:27.772 3:496.2 4:1066.6 5:0.004914362 
0.4549885784786522 1:23.29 2:27.7 3:513 4:1074 5:0.004901521 
0.4549239359858461 1:23.29 2:27.79 3:520.5 4:1068.25 5:0.004917572 
0.4552768790467327 1:23.33 2:27.874 3:528 4:1075.6 5:0.004944578 
0.4552817149969589 1:23.29 2:27.9175 3:516.75 4:1085.25 5:0.004940313 
0.455320100855061 1:23.29 2:27.963333 3:513 4:1096.3333 5:0.004948489 
0.4552388833397466 1:23.304286 2:28.014286 3:503.71429 4:1099.1429 5:0.00496189 
0.4552776297529101 1:23.323333 2:28.1 3:503 4:1108.8333 5:0.004982968 
0.4552254001566563 1:23.29 2:28.1 3:498 4:1117 5:0.004972867 
0.4473287685323306 1:23.29 2:28.236 3:481.6 4:1116 5:0.004997128 
0.06640901314414244 1:23.29 2:28.35 3:484 4:1120.2 5:0.005017466 
0.1745259640999874 1:23.29 2:28.39 3:483.4 4:1120.6 5:0.005024603 
0.4548626361842958 1:23.29 2:28.533333 3:485 4:1129.3333 5:0.005050177 
0.2425705830369027 1:23.29 2:28.575 3:478 4:1132.25 5:0.005057611 
0.2410406024977014 1:23.29 2:28.6 3:478.75 4:1132.5 5:0.005062072 
0.4552370832867988 1:23.29 2:28.683333 3:474 4:1142.8333 5:0.005076942 
0.4514327816096496 1:23.29 2:28.772 3:473 4:1152 5:0.005092765 
0.443666237668857 1:23.29 2:28.79 3:474 4:1156.75 5:0.005095977 
0.4111292452888877 1:23.29 2:28.89 3:479 4:1159.3333 5:0.005113823 
0.4037247038076295 1:23.254 2:28.912 3:476 4:1160.8 5:0.005106541 
0.4557214645300763 1:23.245 2:28.92 3:467.75 4:1160 5:0.005105166 
0.4378050192753184 1:23.236 2:28.978 3:464 4:1167 5:0.005112685 
0.4295806045877559 1:23.2 2:29.05 3:464 4:1171 5:0.005114263 
0.4478188236551225 1:23.2225 2:29.15 3:464 4:1175.5 5:0.005139054 
0.4552865158642909 1:23.2 2:29.2 3:453 4:1181 5:0.005140889 
0.4501904211846969 1:23.2 2:29.2 3:464 4:1192 5:0.005140889 
0.1932747894670385 1:23.2 2:29.2 3:464 4:1197.75 5:0.005140889 
0.3994361332469124 1:23.2 2:29.254 3:461 4:1198.2 5:0.005150475 
0.2695100302888629 1:23.2 2:29.33 3:464 4:1196.5 5:0.005163966 
0.4543620559120326 1:23.2 2:29.356667 3:464 4:1203.25 5:0.0051687 
0.4064106185409009 1:23.14 2:29.456 3:469 4:1209 5:0.005167402 
0.4061043881388193 1:23.125 2:29.4725 3:469 4:1212.25 5:0.005165594 
0.3470539719988307 1:23.1 2:29.5 3:463 4:1219.6 5:0.005162577 
0.2754301106009898 1:23.1 2:29.55 3:465.25 4:1218.75 5:0.0051714 
0.2851625090661575 1:23.1 2:29.6 3:466 4:1221.6 5:0.005180223 
0.4157160985497304 1:23.1 2:29.62 3:469 4:1219.8 5:0.005183753 
0.4127297035972708 1:23.1 2:29.7 3:466.5 4:1224.6667 5:0.00519787 
0.3279850060189355 1:23.1 2:29.745 3:469 4:1233.75 5:0.005205812 
0.2818829283381715 1:23.1 2:29.84 3:469 4:1235.75 5:0.005222578 
0.4375652954721372 1:23.1 2:29.84 3:469 4:1239.5 5:0.005222578 
0.3163684938613208 1:23.085714 2:29.89 3:465.66667 4:1245 5:0.005226846 
0.3036853113916445 1:23.066667 2:29.856667 3:464 4:1247.25 5:0.005214905 
0.4256523868527683 1:23.025 2:29.9175 3:469 4:1246 5:0.005212351 
0.3478336123391353 1:23.016667 2:29.963333 3:462.33333 4:1245.1667 5:0.005217749 
0.4551959840773266 1:23 2:30 3:465 4:1254.6 5:0.005218876 
0.3269597111219134 1:23 2:30 3:461 4:1261.2 5:0.005218876 
0.3547246384862748 1:23 2:30 3:464 4:1261 5:0.005218876 
0.3385753998772796 1:23 2:30.016667 3:462.33333 4:1263.6667 5:0.005221799 
0.4441201724844994 1:23 2:30.06 3:461 4:1270.2 5:0.005229401 
0.4438256259279507 1:23 2:30.075 3:464 4:1273.25 5:0.005232033 
0.4530013637970554 1:23 2:30.12 3:461 4:1280.2 5:0.005239927 
0.4551941599641129 1:23 2:30.15 3:469 4:1284.5 5:0.00524519 
0.4520630900182471 1:23 2:30.23 3:462.33333 4:1285.1667 5:0.005259225 
0.419916959037773 1:23 2:30.29 3:462.33333 4:1290.6667 5:0.005269752 
0.4164665399239481 1:22.968571 2:30.304286 3:460.42857 4:1294.5714 5:0.005262152 
0.3986986338276954 1:22.9175 2:30.29 3:464 4:1294 5:0.005243272 
0.4551906306164981 1:22.912 2:30.29 3:461 4:1301 5:0.005241511 
0.2940358275664976 1:22.908333 2:30.306667 3:462.33333 4:1313.1667 5:0.005243245 
0.2900461252413364 1:22.89 2:30.34 3:464 4:1312.75 5:0.005243185 
0.4536906293458742 1:22.945 2:30.39 3:469 4:1311.5 5:0.005269572 
0.4551128506625082 1:22.926667 2:30.373333 3:469 4:1317.6 5:0.005260764 
0.3616616284990422 1:22.963333 2:30.39 3:469 4:1327.5 5:0.005275475 
0.3376290396173948 1:22.937143 2:30.391429 3:469 4:1330.2857 5:0.005267293 
0.1816769258690484 1:22.934 2:30.456 3:466 4:1330 5:0.005277566 
0.3081518635283352 1:22.9175 2:30.5 3:465.25 4:1328.75 5:0.005279932 
0.3683075389912396 1:22.937143 2:30.405714 3:456.14286 4:1330 5:0.00526979 
0.2320061721338904 1:22.956 2:30.412 3:454 4:1321.8 5:0.005276962 
0.2273205882878133 1:22.89 2:30.445 3:454 4:1321.5 5:0.005261484 
0.3662751501190934 1:22.934 2:30.6 3:454 4:1331.6 5:0.005302732 
0.3996920277618533 1:22.908333 2:30.6 3:454 4:1336.8333 5:0.005294425 
0.401575924135929 1:22.89 2:30.68 3:454 4:1340 5:0.005302442 
0.2728105500359571 1:22.945 2:30.7 3:454 4:1350.75 5:0.005323785 
0.4362961250121041 1:22.89 2:30.675 3:454 4:1356 5:0.005301571 
0.2202840892414908 1:22.89 2:30.675 3:454 4:1351.75 5:0.005301571 
0.3898195828590885 1:22.89 2:30.745 3:454 4:1360.1667 5:0.005313772 
0.01762785510416521 1:22.89 2:30.79 3:454 4:1364.2 5:0.005321616 
0.3058671778714391 1:22.89 2:30.79 3:454 4:1363.1667 5:0.005321616 
0.3871296258144244 1:22.89 2:30.79 3:454 4:1368.5 5:0.005321616 
0.2774772186240951 1:22.912 2:30.79 3:454 4:1365.8 5:0.005328774 
0.4547623730426 1:22.89 2:30.865 3:465.25 4:1372 5:0.00533469 
0.4352773262002116 1:22.89 2:30.89 3:465.25 4:1385.25 5:0.005339048 
0.4351909059643371 1:22.89 2:30.89 3:469 4:1386.4 5:0.005339048 
0.2289947786524806 1:22.89 2:30.89 3:469 4:1393.1667 5:0.005339048 
0.2275859605382978 1:22.89 2:30.85 3:469 4:1393 5:0.005332075 
0.4551299688082818 1:22.89 2:30.79 3:460 4:1389 5:0.005321616 
0.2690702646876671 1:22.89 2:30.79 3:454 4:1385.2 5:0.005321616 
0.3733295994575097 1:22.89 2:30.856667 3:454 4:1377.3333 5:0.005333238 
0.2701344179791967 1:22.89 2:30.856667 3:454 4:1383.8333 5:0.005333238 
0.3645041924324056 1:22.89 2:30.83 3:442 4:1388.6 5:0.005328589 
0.2604130112108269 1:22.89 2:30.865 3:449.5 4:1377.5 5:0.00533469 
0.4159999056743307 1:22.89 2:30.89 3:451.6 4:1374 5:0.005339048 
0.1955598665066294 1:22.89 2:30.89 3:451.6 4:1377.6 5:0.005339048 
0.4504803500116211 1:22.89 2:30.89 3:456.8 4:1373 5:0.005339048 
0.2115897710140675 1:22.865 2:30.84 3:444 4:1372.25 5:0.005322195 
0.3155617379083691 1:22.89 2:30.89 3:444 4:1376 5:0.005339048 
0.3145372167300323 1:22.79 2:30.81 3:444 4:1356.6 5:0.005292653 
0.1710843536838984 1:22.79 2:30.84 3:444 4:1363 5:0.005297851 
0.08141649956857923 1:22.79 2:30.83 3:444 4:1363.8 5:0.005296118 
0.2784650114687108 1:22.79 2:30.89 3:444 4:1369.3333 5:0.005306513 
0.140698776826901 1:22.79 2:30.9175 3:444 4:1366.25 5:0.005311278 
0.08119968889320506 1:22.79 2:30.89 3:444 4:1367.25 5:0.005306513 
0.1242925305578266 1:22.79 2:30.89 3:444 4:1359 5:0.005306513 
0.3927697661476272 1:22.79 2:30.89 3:444 4:1353.75 5:0.005306513 
0.07648437632839569 1:22.772 2:31.02 3:444 4:1364 5:0.005323174 
0.1565068887900797 1:22.79 2:31.05 3:444 4:1373.3333 5:0.005334235 
0.2977301530042983 1:22.7675 2:31.125 3:440.25 4:1374.25 5:0.005339878 
0.2852719034599339 1:22.79 2:31.075 3:444.75 4:1360.75 5:0.005338567 
0.3919147764522336 1:22.79 2:31.114286 3:441.28571 4:1359.5 5:0.005345374 
0.4022535348829319 1:22.745 2:31.15 3:447 4:1366.3333 5:0.005336854 
0.1485777045233424 1:22.772 2:31.2 3:439.8 4:1377 5:0.005354329 
0.0718454633946362 1:22.79 2:31.2 3:441 4:1379.5 5:0.005360226 
0.197736577271513 1:22.745 2:31.2 3:442.5 4:1379.25 5:0.005345494 
0.3525781979634595 1:22.7225 2:31.2 3:442.5 4:1381.5 5:0.005338141 
0.3575733479108479 1:22.745 2:31.29 3:438 4:1381 5:0.005361046 
0.1335653709659185 1:22.73 2:31.213333 3:441 4:1372.5 5:0.005342893 
0.2454869687544749 1:22.715 2:31.2 3:441 4:1368.3333 5:0.005335692 
0.3588633026665513 1:22.7 2:31.166667 3:441 4:1365.3333 5:0.005325053 
0.2215203656253793 1:22.715 2:31.2 3:441 4:1370.5 5:0.005335692 
0.2709177749359941 1:22.745 2:31.2225 3:438 4:1378.5 5:0.005349382 
0.1375069193916444 1:22.7 2:31.272 3:441 4:1377.1667 5:0.005343205 
0.3954833902274344 1:22.7 2:31.245 3:447 4:1401.1667 5:0.005338552 
0.3234253597908193 1:22.7 2:31.2675 3:442.5 4:1395.3333 5:0.005342429 
0.3939767843375295 1:22.7 2:31.29 3:444 4:1400.5 5:0.005346307 
0.2726489279212965 1:22.7 2:31.29 3:447 4:1394.6 5:0.005346307 
0.3344823243694281 1:22.7 2:31.29 3:447 4:1389.6667 5:0.005346307 
0.3407922910496278 1:22.7 2:31.29 3:447 4:1377.2 5:0.005346307 
0.3711440392376749 1:22.7 2:31.29 3:447 4:1387 5:0.005346307 
0.1951803813630263 1:22.7 2:31.375714 3:439 4:1393.4286 5:0.005361078 
0.2010415278078917 1:22.7 2:31.39 3:447 4:1393.75 5:0.00536354 
0.2535109952861904 1:22.7 2:31.39 3:441.4 4:1392.6 5:0.00536354 
0.1479416299895121 1:22.7 2:31.37 3:438.6 4:1394.2 5:0.005360094 
0.2643492657086133 1:22.7 2:31.4175 3:440 4:1396.25 5:0.00536828 
0.2727415780881811 1:22.7 2:31.39 3:443.5 4:1390.5 5:0.00536354 
0.3954418248138747 1:22.7225 2:31.365 3:436.5 4:1397.5 5:0.005366615 
0.05702868911429287 1:22.7 2:31.4175 3:433 4:1398.25 5:0.00536828 
0.4430053262486191 1:22.7 2:31.4725 3:433 4:1402.25 5:0.005377759 
0.3538761754804424 1:22.7 2:31.378571 3:433 4:1398 5:0.005361571 
0.4281771225730339 1:22.7 2:31.29 3:433 4:1384.25 5:0.005346307 
0.02000916058864426 1:22.7 2:31.29 3:433 4:1387.3333 5:0.005346307 
0.4466242300633437 1:22.7 2:31.29 3:433 4:1392.5 5:0.005346307 
0.4034911581240869 1:22.7225 2:31.315 3:433 4:1388 5:0.005357986 
0.4479918138116758 1:22.7 2:31.275 3:433 4:1373.3333 5:0.005343722 
0.4444774270579031 1:22.7 2:31.18 3:433 4:1368.8 5:0.005327351 
0.3357067718840062 1:22.7 2:31.2 3:433 4:1364 5:0.005330797 
0.3515086305278919 1:22.7 2:31.2 3:433 4:1352 5:0.005330797 
0.317459474334867 1:22.7 2:31.1 3:433 4:1361.75 5:0.005313565 
0.3304764648401353 1:22.7 2:31.1 3:433 4:1344.25 5:0.005313565 
0.3818090924180391 1:22.7 2:31.05 3:433 4:1357.75 5:0.00530495 
0.0399410770333555 1:22.7 2:31.1 3:433 4:1355.75 5:0.005313565 
0.281395087570681 1:22.7 2:31.1 3:433 4:1354.6667 5:0.005313565 
0.3934221724593899 1:22.7 2:31.05 3:433 4:1334.1667 5:0.00530495 
0.2732224935875042 1:22.7225 2:30.9725 3:433 4:1340.25 5:0.005298886 
0.2233530852916649 1:22.736 2:30.934 3:433 4:1336.8 5:0.005296615 
0.1753168449639268 1:22.73 2:31 3:433 4:1342.3333 5:0.005306064 
0.2186527909044271 1:22.718 2:31 3:433 4:1348.8 5:0.005302171 
0.165419018166499 1:22.7 2:30.945 3:433 4:1338.25 5:0.005286858 
0.2483141885536752 1:22.7 2:30.956 3:433 4:1347.6 5:0.005288753 
0.2688588176931193 1:22.7 2:30.89 3:433 4:1318 5:0.005277382 
0.4497456216491379 1:22.7 2:30.873333 3:433 4:1311.1667 5:0.00527451 
0.1113365186979747 1:22.66 2:30.83 3:433 4:1306.5 5:0.005254168 
0.2654484978730138 1:22.68 2:30.87 3:433 4:1316.6667 5:0.005267485 
0.3401499696265337 1:22.7 2:30.89 3:433 4:1306.3333 5:0.005277382 
0.4268008971619222 1:22.7 2:30.79 3:429.5 4:1300.5 5:0.005260153 
0.272658074127309 1:22.675 2:30.7225 3:433 4:1298.6667 5:0.005240501 
0.453550350041337 1:22.675 2:30.745 3:424.6 4:1298.2 5:0.005244371 
0.440539667690365 1:22.7 2:30.7675 3:426 4:1292.5 5:0.005256276 
0.3510334237462424 1:22.675 2:30.7225 3:426 4:1288.5 5:0.005240501 
0.1995247964402726 1:22.7 2:30.7 3:433 4:1299.6667 5:0.005244647 
0.3591440513384506 1:22.65 2:30.65 3:423.66667 4:1285.3333 5:0.005220038 
0.2443787298923865 1:22.7 2:30.675 3:426 4:1286 5:0.005240341 
0.451501517254161 1:22.6 2:30.583333 3:419 4:1284.3333 5:0.005192672 
0.4365070269903539 1:22.6 2:30.575 3:422.5 4:1275.25 5:0.005191245 
0.2853398303061024 1:22.6 2:30.6 3:419 4:1273.8 5:0.005195525 
0.3231087438260174 1:22.6 2:30.6 3:419 4:1271.8 5:0.005195525 
0.4061152318358781 1:22.6 2:30.58 3:419 4:1261.75 5:0.005192101 
0.4056853460073285 1:22.6 2:30.566667 3:419 4:1258.5 5:0.005189818 
0.4499521587994202 1:22.6 2:30.4725 3:419 4:1251.5 5:0.005173697 
0.3602266972024048 1:22.6 2:30.445 3:419 4:1241.3333 5:0.005168989 
0.3566983586040615 1:22.6 2:30.4725 3:419 4:1238.75 5:0.005173697 
0.4486028978000408 1:22.6 2:30.37 3:419 4:1246.8 5:0.00515615 
0.4529495940049184 1:22.6 2:30.275 3:426 4:1239 5:0.005139888 
0.4499064757951388 1:22.6 2:30.245 3:422.5 4:1235.25 5:0.005134752 
0.4546537857832754 1:22.6 2:30.254 3:424.6 4:1229.8 5:0.005136293 
0.4135705189113589 1:22.6 2:30.18 3:419 4:1220.6 5:0.005123626 
0.2876829454958846 1:22.6 2:30.166667 3:419 4:1214.1667 5:0.005121344 
0.04535083199217557 1:22.6 2:30.14 3:419 4:1217.8 5:0.00511678 
0.3186951335832434 1:22.6 2:30.1 3:419 4:1211.8 5:0.005109933 
0.3251910698075124 1:22.6 2:30.1 3:419 4:1217.2 5:0.005109933 
0.4210575073485949 1:22.6 2:30.1 3:415.5 4:1211.5 5:0.005109933 
0.3526933425798522 1:22.6 2:30.181667 3:419 4:1207.3333 5:0.005123912 
0.3625592259410034 1:22.6 2:30.1 3:419 4:1204.75 5:0.005109933 
0.4552593509098091 1:20.39 2:23.7 3:311.75 4:474.75 5:0.003505185 
0.4552708077592839 1:20.4175 2:23.7225 3:426 4:473.5 5:0.003514529 
0.4554733767763012 1:20.4725 2:23.7675 3:433 4:473.75 5:0.003533277 
0.4539977600404412 1:20.481667 2:23.89 3:423.66667 4:484.5 5:0.003553613 
0.2565558103986567 1:20.5 2:23.89 3:419 4:492.4 5:0.003557659 
0.24405425176384 1:20.5 2:23.89 3:419 4:491 5:0.003557659 
0.4391607021098574 1:20.5 2:23.89 3:419 4:487.2 5:0.003557659 
0.4280313947197878 1:20.55 2:23.945 3:415.5 4:493.25 5:0.003576976 
0.4553367401702266 1:20.52 2:24 3:409.8 4:499.6 5:0.003578573 
0.9176069705241756 1:20.525 2:24 3:414.6 4:506.2 5:0.003579683 
0.455565247814423 1:20.633333 2:24.23 3:398.33333 4:537.33333 5:0.003638556 
0.4521674116682144 1:20.66 2:24.2 3:406.2 4:538.8 5:0.003640037 
0.1676685712340479 1:20.625 2:24.175 3:414 4:538.5 5:0.003628373 
0.3607597125988434 1:20.66 2:24.216 3:412.2 4:535.8 5:0.003642458 
0.2604548011715895 1:20.675 2:24.34 3:411 4:538.75 5:0.003664625 
0.415124489867278 1:20.7 2:24.5 3:408 4:546.25 5:0.003694578 
0.3215446106876909 1:20.7 2:24.65 3:405 4:554.66667 5:0.003717333 
0.3981021250236814 1:20.7 2:24.7 3:405 4:565.33333 5:0.003724918 
0.4403588401833139 1:20.7 2:24.7675 3:405 4:573 5:0.003735159 
0.4549569393343021 1:20.712857 2:24.79 3:405 4:581.14286 5:0.003741553 
0.4550183949921954 1:20.7 2:24.79 3:405 4:587.25 5:0.003738573 
0.4240912078429075 1:20.754 2:24.87 3:413.4 4:588.2 5:0.003763282 
0.3672833757385688 1:20.775 2:24.89 3:416.66667 4:589.5 5:0.00377123 
0.04582704864228618 1:20.772 2:24.956 3:419 4:592 5:0.003780588 
0.3002867198954222 1:20.79 2:24.978 3:419 4:599.8 5:0.003788163 
0.3221930073172006 1:20.79 2:25 3:419 4:605.4 5:0.00379152 
0.3712669497653147 1:20.79 2:24.9975 3:419 4:611.25 5:0.003791139 
0.2560610191292225 1:20.81 2:25.02 3:419 4:616.4 5:0.003799275 
0.3916186917488072 1:20.865 2:25.075 3:419 4:621 5:0.003820668 
0.2258295557034908 1:20.84 2:25.05 3:419 4:623.75 5:0.003810932 
0.4553148315143908 1:20.87 2:25.16 3:433 4:632.4 5:0.003834886 
0.4550288085890281 1:20.89 2:25.2 3:433 4:639 5:0.003845779 
0.1580981555176867 1:20.873333 2:25.275 3:433 4:646 5:0.003853318 
0.3823106305183972 1:20.84 2:25.1975 3:433 4:649.5 5:0.00383351 
0.3272051786881069 1:20.865 2:25.365 3:433 4:656.75 5:0.00386513 
0.4052185787062456 1:20.84 2:25.34 3:433 4:660.75 5:0.003855324 
0.4495064612059008 1:20.873333 2:25.373333 3:437.66667 4:659.33333 5:0.003868403 
0.3679399638332773 1:20.87 2:25.37 3:440.6 4:671.6 5:0.003867094 
0.3683684799013847 1:20.84 2:25.34 3:442.5 4:673.5 5:0.003855324 
0.4368521660491669 1:20.865 2:25.365 3:438 4:678.25 5:0.00386513 
0.4393567987969775 1:20.89 2:25.39 3:441 4:681 5:0.003874956 
0.4408803442826287 1:20.89 2:25.35 3:429 4:683 5:0.003868813 
0.45077003110493 1:20.89 2:25.33 3:429 4:689.4 5:0.003865742 
0.4513230445044431 1:20.89 2:25.34 3:429 4:694.25 5:0.003867278 
0.2834849800951282 1:20.912 2:25.39 3:435 4:690.4 5:0.003880236 
0.3818491051559381 1:20.945 2:25.39 3:444 4:697.33333 5:0.003888169 
0.3362388581933838 1:20.9725 2:25.39 3:444 4:710.25 5:0.00389479 
0.5796876421573108 1:21 2:25.245 3:460 4:714.5 5:0.003879002 
0.2284198153785755 1:21 2:25.2 3:454.75 4:711 5:0.003872044 
0.4550059169252533 1:21 2:25.2 3:453 4:705 5:0.003872044 
0.4064078802071205 1:21 2:25.2 3:451.6 4:711 5:0.003872044 
0.6792753118097947 1:21.025 2:25.2225 3:454.75 4:713.5 5:0.00388152 
0.4556841746889312 1:21.083333 2:25.2 3:453 4:719.5 5:0.003892047 
0.3804239427339681 1:21.066667 2:25.2 3:458 4:727.66667 5:0.003888039 
0.06269267661342909 1:21.116667 2:25.2 3:458 4:728.66667 5:0.003900074 
0.4217588702921507 1:21.15 2:25.2225 3:459.25 4:731.25 5:0.003911626 
0.2271847988156241 1:21.2 2:25.228333 3:454 4:738.5 5:0.00392464 
0.3249867272780227 1:21.2 2:25.18 3:454 4:740.2 5:0.003917073 
0.05654518569825033 1:21.2 2:25.1 3:454 4:735.75 5:0.00390455 
0.3835916074947874 1:21.2 2:25.14 3:454 4:735 5:0.003910812 
0.4552860713397538 1:21.215 2:25.215 3:456.5 4:746.16667 5:0.003926188 
0.4337637288013759 1:21.2 2:25.2 3:465.25 4:762.75 5:0.003920204 
0.3794514454479619 1:21.2 2:25.2 3:469 4:766.2 5:0.003920204 
0.3521024871365776 1:21.2 2:25.218 3:469 4:763.4 5:0.003923022 
1 1:21.2 2:25.356667 3:462.33333 4:778 5:0.00394473 
0.4476071141090417 1:21.2 2:25.37 3:470.2 4:778.4 5:0.003946818 
0.4500465687959198 1:21.2225 2:25.34 3:475.75 4:774.75 5:0.003947603 
0.4425348014328787 1:21.236 2:25.33 3:471 4:774 5:0.003949326 
0.4542675995267688 1:21.29 2:25.4725 3:480.25 4:778 5:0.003984948 
0.3931497958324483 1:21.29 2:25.426667 3:487 4:779 5:0.003977732 
0.4553714644480396 1:21.272 2:25.412 3:503.6 4:780.6 5:0.003971009 
0.4552790081739961 1:21.29 2:25.575 3:509.5 4:786.25 5:0.004001087 
0.4555159957569537 1:21.29 2:25.6725 3:527.25 4:800.75 5:0.004016439 
0.4552537634360202 1:21.34 2:25.79 3:524.5 4:814 5:0.004047411 
0.4551663033974313 1:21.412 2:25.872 3:529.8 4:832 5:0.004078439 
0.4552328814389333 1:21.5 2:26 3:534 4:849.25 5:0.00412105 
0.4553013791284241 1:21.5 2:26.08 3:544 4:860.6 5:0.004133814 
0.4553067051059357 1:21.6 2:26.15 3:538 4:871 5:0.004170603 
0.4553296129538902 1:21.66 2:26.216 3:553 4:879.5 5:0.004196678 
0.2981326899649212 1:21.7 2:26.2675 3:542.5 4:894 5:0.004215345 
0.4549204684571874 1:21.7225 2:26.2225 3:547 4:905.5 5:0.004213906 
0.3424652589586245 1:21.79 2:26.39 3:559.2 4:911.2 5:0.004258657 
0.455277981078637 1:21.81 2:26.274 3:567.8 4:919.2 5:0.004245029 
0.4520478986275246 1:21.865 2:26.315 3:554 4:923.5 5:0.004266102 
0.4119904172876276 1:21.89 2:26.315 3:563 4:931.75 5:0.004272664 
0.4121477065029955 1:21.89 2:26.315 3:564.5 4:934.75 5:0.004272664 
0.4262928705592135 1:21.945 2:26.2225 3:577.5 4:934.75 5:0.004271957 
0.4038582674604045 1:22 2:26.12 3:578.8 4:939 5:0.004269545 
0.3675583581380382 1:22 2:26.066667 3:581.66667 4:936.66667 5:0.004260767 
0.09745731991357023 1:22.085714 2:26.128571 3:580 4:936.42857 5:0.004293491 
0.2861058783658418 1:22.1 2:26.1 3:596 4:936.5 5:0.004292526 
0.2872202609014647 1:22.1 2:26.1 3:594.8 4:937.6 5:0.004292526 
0.4552187244137909 1:22.14 2:25.998 3:603.4 4:937.8 5:0.004286142 
0.4551474432510796 1:22.29 2:25.89 3:612 4:937.33333 5:0.004307653 
0.5288628578476999 1:22.29 2:25.856667 3:611 4:943.66667 5:0.004302068 
0.4551803834692565 1:22.323333 2:25.806667 3:617 4:946.16667 5:0.00430247 
0.4545034719446925 1:22.39 2:25.7 3:624.75 4:944.5 5:0.004302096 
0.4408441416266429 1:22.39 2:25.68 3:630.4 4:944.4 5:0.004298725 
0.4416889126328127 1:22.445 2:25.65 3:632.5 4:948 5:0.00430815 
0.4314916217354669 1:22.5 2:25.666667 3:652 4:940.33333 5:0.004325504 
0.4544959878017729 1:22.5 2:25.6 3:643.5 4:944.33333 5:0.004314191 
0.4308682158100103 1:22.566667 2:25.6 3:648.66667 4:942.16667 5:0.00433182 
0.4552560079234152 1:22.6 2:25.6 3:767 4:948.66667 5:0.004340659 
0.4552906158740546 1:22.6 2:25.4725 3:1419.5 4:945 5:0.00431889 
0.4552887321311544 1:22.7 2:25.5 3:1697.25 4:951.75 5:0.00435009 
0.4552663080491517 1:22.7 2:25.456 3:1209.8 4:958.6 5:0.004342532 
0.3915353766656491 1:22.7225 2:25.4175 3:685.75 4:956.25 5:0.004341882 
0.4416891171100075 1:22.7675 2:25.315 3:684.75 4:952.25 5:0.004336152 
0.4547205932895492 1:22.79 2:25.456 3:679.4 4:954.6 5:0.004366467 
0.455008080154371 1:22.823333 2:25.393333 3:683 4:961.66667 5:0.004364515 
0.4547392526195051 1:22.89 2:25.39 3:692 4:961.75 5:0.004381728 
0.4541826833412794 1:22.89 2:25.39 3:693.8 4:953.8 5:0.004381728 
0.4067768138434852 1:22.908333 2:25.39 3:689 4:956.33333 5:0.004386631 
0.455266761627413 1:22.9725 2:25.39 3:693.75 4:970 5:0.004403831 
0.4552795285890927 1:23 2:25.39 3:686.5 4:971.25 5:0.004411221 
0.4252223630960171 1:23.025 2:25.4175 3:698.25 4:986.25 5:0.004422767 
0.4254601212890101 1:23.1 2:25.5 3:694.83333 4:985 5:0.00445755 
0.4552522720634087 1:23.1 2:25.5 3:690 4:997 5:0.00445755 
0.4553941759018621 1:23.2 2:25.5 3:696.8 4:1003.8 5:0.004484778 
0.4553997371098763 1:23.2 2:25.5 3:710 4:1004.8333 5:0.004484778 
0.4553046351938217 1:23.2 2:25.5 3:722 4:1011.4 5:0.004484778 
0.455265221192485 1:23.29 2:25.6 3:732 4:1022.5 5:0.004527221 
0.4552734127131721 1:23.29 2:25.6 3:735 4:1029.8333 5:0.004527221 
0.4552668346532339 1:23.31 2:25.6 3:719.2 4:1031 5:0.004532732 
0.4545478707948018 1:23.39 2:25.6 3:723.33333 4:1040 5:0.004554837 
0.4546745317449672 1:23.365 2:25.6 3:729 4:1040.5 5:0.004547919 
0.4553249837187882 1:23.39 2:25.6 3:738 4:1042 5:0.004554837 
0.4553074744001379 1:23.456 2:25.66 3:738 4:1052.4 5:0.004583942 
0.45499530181241 1:23.5 2:25.718 3:734.4 4:1062.8 5:0.004606679 
0.4550212033679945 1:23.58 2:25.736 3:738 4:1067.75 5:0.004632378 
0.4549593607593788 1:23.6 2:25.89 3:747 4:1072.25 5:0.004665967 
0.4552499528773493 1:23.64 2:25.954 3:745.2 4:1095.2 5:0.004688959 
0.4553861471473793 1:23.666667 2:26.066667 3:746.33333 4:1109 5:0.004717095 
0.4464786308803249 1:23.7 2:26.12 3:737.8 4:1119 5:0.004736389 
0.4487386688051249 1:23.718 2:26.1 3:745 4:1123.4 5:0.004737906 
0.4400378597911636 1:23.79 2:26.125 3:740.5 4:1122.5 5:0.004763231 
0.4553710120243147 1:23.745 2:26.2 3:754 4:1123 5:0.004763993 
0.4533089025750152 1:23.79 2:26.31 3:763 4:1158.2 5:0.004797221 
0.4464678834880667 1:23.79 2:26.315 3:758.25 4:1160.25 5:0.00479814 
0.3929964539893691 1:23.89 2:26.39 3:755.5 4:1166 5:0.004841175 
0.3841020762453862 1:23.89 2:26.365 3:758.25 4:1164.75 5:0.004836553 
0.4552712458665641 1:23.89 2:26.29 3:772.75 4:1163.25 5:0.004822688 
0.4553228196939043 1:23.984286 2:26.375714 3:767 4:1172.7143 5:0.004866244 
0.2273508581197959 1:24 2:26.365 3:774.5 4:1182 5:0.004868882 
0.2280763591833395 1:24.05 2:26.34 3:774.5 4:1182 5:0.004878973 
0.4553785514747276 1:24.08 2:26.37 3:769.8 4:1187.6 5:0.004893449 
0.4551024570127909 1:24.1 2:26.566667 3:758.33333 4:1191.3333 5:0.004936203 
0.4552220902801457 1:24.1 2:26.4725 3:775.75 4:1213.75 5:0.004918568 
0.4550122759208513 1:24.1 2:26.154 3:775 4:1194 5:0.004858929 
0.4554627576147987 1:24.1 2:25.958 3:783.4 4:1173.4 5:0.004822233 
0.4551950563352062 1:24.1 2:25.918 3:789.6 4:1160.2 5:0.004814745 
0.4299305002365676 1:24.1 2:25.8925 3:797.5 4:1156.25 5:0.004809971 
0.3909074537329296 1:24.1 2:25.832 3:799 4:1139 5:0.004798646 
0.4550097029309438 1:24.175 2:25.84 3:782.5 4:1140.5 5:0.004821963 
0.4549698136497354 1:24.2 2:25.891667 3:786.16667 4:1145.3333 5:0.004838987 
0.4286600886369932 1:24.2 2:25.89 3:794.25 4:1149.25 5:0.004838673 
0.4230945832169907 1:24.2 2:25.89 3:797.5 4:1152.5 5:0.004838673 
0.4552559086983765 1:24.2 2:25.89 3:787 4:1153.25 5:0.004838673 
0.4276011620592493 1:24.218 2:25.912 3:805 4:1152.4 5:0.004848089 
0.4485259044971721 1:24.26 2:25.891667 3:798 4:1146.1667 5:0.004856565 
0.436262388142442 1:24.29 2:25.978 3:793 4:1145.4 5:0.004881725 
0.39093158832056 1:24.29 2:25.852 3:801.4 4:1140.8 5:0.004857863 
0.4272304113623406 1:24.29 2:25.7 3:808 4:1150.25 5:0.004829079 
0.4550279593291787 1:24.33 2:25.736 3:809.8 4:1129.2 5:0.004847592 
0.4513927817206543 1:24.33 2:25.7 3:817 4:1125.8 5:0.004840759 
0.4515532068038863 1:24.356667 2:25.7 3:813 4:1123 5:0.004848559 
0.4552513844484328 1:24.408333 2:25.681667 3:798 4:1124 5:0.004860208 
-1 1:22.6 2:25.066667 3:428.33333 4:849.33333 5:0.00424961 
-1 1:22.6 2:25.2 3:422.5 4:853 5:0.00427237 
-0.04091523735849634 1:22.6 2:25.2 3:423.66667 4:853 5:0.00427237 
-1 1:22.54 2:25.16 3:424.6 4:852 5:0.004249921 
-1 1:22.54 2:25.16 3:427.4 4:853.6 5:0.004249921 
-1 1:22.54 2:25.14 3:421.8 4:845.6 5:0.00424652 
-1 1:22.525 2:25.1 3:426 4:834.25 5:0.004235829 
-1 1:22.5 2:25.04 3:421.8 4:826.4 5:0.004219178 
-1 1:22.5 2:25 3:419 4:819.6 5:0.004212392 
-1 1:22.5 2:25 3:419 4:829.6 5:0.004212392 
-1 1:22.5 2:25 3:419 4:824 5:0.004212392 
-1 1:22.5 2:24.912 3:419 4:814.2 5:0.004197464 
-0.3658579939564451 1:22.5 2:24.89 3:419 4:813.8 5:0.004193733 
-1 1:22.5 2:24.89 3:419 4:811 5:0.004193733 
-1 1:22.478 2:24.87 3:419 4:804.6 5:0.004184704 
-1 1:22.456 2:24.83 3:419 4:807.8 5:0.004172308 
-1 1:22.5 2:24.856667 3:419 4:802.33333 5:0.004188079 
-1 1:22.4175 2:24.7475 3:419 4:796.75 5:0.004148566 
-1 1:22.456 2:24.81 3:419 4:794.4 5:0.004168925 
-0.6520790379133965 1:22.39 2:24.7 3:419 4:790.6 5:0.004133586 
-0.9672344555502665 1:22.4175 2:24.7225 3:419 4:789.75 5:0.004144348 
-1 1:22.39 2:24.7 3:419 4:782.2 5:0.004133586 
-1 1:22.39 2:25 4:805.5 5:0.00418413 
-1 1:22.35 2:24.978 4:791.4 5:0.004170196 
-0.1280395856075895 1:22.323333 2:25 4:779.33333 5:0.004167082 
-1 1:22.315 2:24.89 4:781.75 5:0.004146508 
-0.10778639878817 1:22.29 2:24.9175 4:781 5:0.004144767 
-1 1:22.29 2:24.912 4:778.4 5:0.004143846 
-1 1:22.26 2:24.856667 4:769.33333 5:0.004126988 
-1 1:22.254 2:24.85 4:766.5 5:0.004124357 
-0.9004266729702529 1:22.23 2:24.793333 4:763.25 5:0.004108841 
-0.008476859322280317 1:22.2 2:24.79 4:761.5 5:0.004100737 
-1 1:22.2 2:24.79 4:761 5:0.004100737 
-1 1:22.2 2:24.736 4:757 5:0.004091746 
-1 1:22.2 2:24.79 4:752.33333 5:0.004100737 
-1 1:22.133333 2:24.7 4:748.66667 5:0.004069084 
-0.1811436168291335 1:22.1 2:24.7 4:746.25 5:0.004060772 
-1 1:22.15 2:24.7225 4:745.25 5:0.00407698 
-1 1:22.1 2:24.7 4:740.66667 5:0.004060772 
-1 1:22.1 2:24.7 4:738 5:0.004060772 
-1 1:22.133333 2:24.7 4:732.66667 5:0.004069084 
-1 1:22.1 2:24.7 4:727 5:0.004060772 
-0.1060851123426947 1:22.1 2:24.675 4:716 5:0.004056635 
-1 1:22.066667 2:24.666667 4:723.25 5:0.004046971 
-0.9841314119956512 1:22.066667 2:24.666667 4:718.33333 5:0.004046971 
-0.3464236047213163 1:22 2:24.58 4:716.6 5:0.004016193 
-1 1:21.978 2:24.6 4:714 5:0.004014056 
-0.07635321096046678 1:21.978 2:24.56 4:714.2 5:0.004007487 
-0.651259497742241 1:21.926667 2:24.5 4:706.66667 5:0.003985052 
-0.6666761786267024 1:21.89 2:24.5 4:706 5:0.003976085 
-0.9491558180057824 1:21.89 2:24.525 4:698.75 5:0.003980169 
-0.537257950208929 1:21.89 2:24.5 4:692.5 5:0.003976085 
-0.8511455349010472 1:21.89 2:24.5 4:694.75 5:0.003976085 
-0.3834921348258022 1:21.815 2:24.4175 4:697.25 5:0.003944389 
-0.3447123358063782 1:21.79 2:24.39 4:691 5:0.003933868 
-0.6183834247968716 1:21.79 2:24.39 4:689.75 5:0.003933868 
-1 1:21.7675 2:24.39 4:687 5:0.00392843 
-1 1:21.7675 2:24.365 4:679.75 5:0.003924377 
-1 1:21.754 2:24.35 4:668.4 5:0.003918692 
-0.3157656306681613 1:21.7 2:24.29 4:665.66667 5:0.003896013 
-0.7403321984387047 1:21.7 2:24.29 4:664.75 5:0.003896013 
-0.05334448373300171 1:21.7 2:24.29 4:668 5:0.003896013 
-0.9787367602498802 1:21.7 2:24.29 4:661.25 5:0.003896013 
-0.8284984942097534 1:21.64 2:24.236 4:658.2 5:0.003872972 
-0.5131598852086346 1:21.6 2:24.2 4:656 5:0.003857673 
-0.1713476252820085 1:21.6 2:24.2 4:654.8 5:0.003857673 
-0.7317870117696744 1:21.6 2:24.2225 4:653.75 5:0.003861282 
-0.7864734017516393 1:21.5 2:24.2 4:650.75 5:0.003833988 
-0.9166972288963697 1:21.55 2:24.2 4:648.25 5:0.003845814 
-0.9364063793972184 1:21.5 2:24.2 4:640.33333 5:0.003833988 
-0.617828392410896 1:21.5 2:24.2 4:638 5:0.003833988 
-0.942167651749178 1:21.5 2:24.175 4:635.5 5:0.003830003 
-0.692224488809978 1:21.5 2:24.125 4:627.5 5:0.003822033 
-0.5981641271319436 1:21.5 2:24.15 4:626.25 5:0.003826018 
-0.7661138233330125 1:21.5 2:24.1 4:621.75 5:0.003818048 
-0.413115308650638 1:21.5 2:24.1 4:620.66667 5:0.003818048 
-0.05285717207146472 1:21.5 2:24.1 4:612.75 5:0.003818048 
-0.9345855651216208 1:21.39 2:24 4:617.33333 5:0.003776419 
-0.8796130235632782 1:21.426667 2:23.926667 4:614.25 5:0.00377333 
-1 1:21.39 2:23.9725 4:610.75 5:0.003772066 
-0.4267280770998952 1:21.39 2:23.9175 4:603 5:0.003763359 
-0.4773847063677272 1:21.365 2:23.89 4:602 5:0.003753216 
-0.9441998683951787 1:21.323333 2:24 4:605.66667 5:0.003760925 
-0.3628324417746608 1:21.315 2:23.9725 4:599 5:0.003754659 
-0.3428436396783973 1:21.356667 2:24 4:600 5:0.003768665 
-0.3213290592658873 1:21.39 2:23.9725 4:596.5 5:0.003772066 
-0.415344651550924 1:21.315 2:23.89 4:597.5 5:0.00374166 
-0.8472347993012767 1:21.29 2:23.945 4:594 5:0.003744546 
-0.8248495855208064 1:21.29 2:23.9725 4:590.5 5:0.003748872 
-0.09632627758315036 1:21.29 2:23.926667 4:588 5:0.003741662 
-0.6187967715438837 1:21.29 2:23.89 4:584.5 5:0.003735893 
-0.7405891499269871 1:21.254 2:23.85 4:587.2 5:0.003721325 
-0.09882590954895763 1:21.23 2:23.823333 4:585 5:0.003711637 
-0.5165466724857675 1:21.2 2:23.79 4:579.33333 5:0.003699555 
-0.7315218425832832 1:21.2 2:23.79 4:581.66667 5:0.003699555 
-0.6409582483260089 1:21.2 2:23.79 4:577.33333 5:0.003699555 
-0.9498255274152082 1:21.2 2:23.7675 4:574.25 5:0.003696035 
-0.8418635159767028 1:21.2 2:23.745 4:569 5:0.003692515 
-0.4853442472108382 1:21.2 2:23.7 4:561.4 5:0.003685476 
-0.1969211259394381 1:21.2 2:23.79 4:567.33333 5:0.003699555 
-0.5683996238398623 1:21.175 2:23.7 4:565.33333 5:0.003679792 
-0.4656994463064704 1:21.166667 2:23.7 4:563.5 5:0.003677899 
-0.7984968905244724 1:21.125 2:23.675 4:559 5:0.003664554 
-0.6112620220662003 1:21.125 2:23.65 4:550.5 5:0.003660661 
-0.8157685194813897 1:21.1 2:23.6 4:553.25 5:0.003647239 
-0.1806076212868686 1:21.1 2:23.6 4:548 5:0.003647239 
-0.613994354648239 1:21.1 2:23.533333 4:544 5:0.003636876 
-0.1205326047296759 1:21.1 2:23.4725 4:545.5 5:0.00362742 
-0.5990918448807975 1:21.1 2:23.4725 4:547 5:0.00362742 
-0.5619917295485477 1:21.1 2:23.5 4:541.25 5:0.003631695 
-0.06030413192436327 1:21.125 2:23.5 4:540.75 5:0.003637308 
-0.7514285513612183 1:21.1 2:23.5 4:533.33333 5:0.003631695 
-0.8788040874208705 1:21.133333 2:23.5 4:528 5:0.00363918 
-0.6760531262799923 1:21.1 2:23.3925 4:537.75 5:0.003614985 
-0.2140387232608211 1:21.1 2:23.4725 4:539.5 5:0.00362742 
-0.3772861414825561 1:21.1 2:23.5 4:535.25 5:0.003631695 
-0.6495999730839955 1:21.1 2:23.33 4:524.6 5:0.003605271 
-0.3207054230521464 1:21.1 2:23.29 4:523.2 5:0.003599053 
-0.424401170541401 1:21.02 2:23.29 4:514.2 5:0.003581305 
-0.5696952412047309 1:21 2:23.29 4:521 5:0.00357688 
-0.1541351904369834 1:21 2:23.29 4:520 5:0.00357688 
-0.528462096730993 1:21 2:23.254 4:517.8 5:0.00357132 
-0.4334311070750693 1:21 2:23.26 4:514.33333 5:0.003572246 
-0.282418042884274 1:21 2:23.2675 4:516.75 5:0.003573405 
-0.09683933751976655 1:21 2:23.29 4:519.33333 5:0.00357688 
-0.003247437522349166 1:20.9725 2:23.29 4:504.5 5:0.003570804 
-0.6343804196935694 1:21 2:23.29 4:506.5 5:0.00357688 
-0.2977756768414355 1:20.89 2:23.245 4:508.25 5:0.003545725 
-0.8343622439535697 1:20.89 2:23.2225 4:510.25 5:0.003542274 
-0.6211792054744609 1:20.89 2:23.254 4:504 5:0.003547106 
-0.05624703389387722 1:20.89 2:23.1 4:495.66667 5:0.003523482 
-0.7150976027743928 1:20.89 2:23.1 4:501.5 5:0.003523482 
-0.2557259504329176 1:20.89 2:23.1 4:499.66667 5:0.003523482 
-0.74040632467714 1:20.89 2:23.05 4:498 5:0.003515813 
-0.7254981252564759 1:20.89 2:23.05 4:495 5:0.003515813 
-0.2384896341139976 1:20.912 2:23 4:490.2 5:0.003512921 
-0.7222836978581237 1:20.926667 2:23 4:492.33333 5:0.003516109 
-0.4983568984427501 1:20.934 2:22.934 4:488 5:0.003507553 
-0.3957669238434632 1:20.9175 2:22.9725 4:489.5 5:0.003509891 
-0.7122859935723447 1:20.89 2:22.89 4:485.66667 5:0.003491271 
-0.6910421299968887 1:20.89 2:22.84 4:481.5 5:0.003483602 
-0.4902448489904629 1:20.89 2:22.84 4:483.5 5:0.003483602 
-0.3817631306498358 1:20.89 2:22.76 4:475.33333 5:0.003471332 
-0.5197165276307132 1:20.89 2:22.79 4:479.16667 5:0.003475933 
-0.4620726211774057 1:20.865 2:22.7675 4:474 5:0.003467115 
-0.615776861836401 1:20.89 2:22.79 4:477.33333 5:0.003475933 
-0.5354277434498206 1:20.79 2:22.6 4:469 5:0.003425529 
-0.114111463495139 1:20.79 2:22.6 4:469.75 5:0.003425529 
-0.2083390520849618 1:20.79 2:22.6 4:467.66667 5:0.003425529 
-0.697823568100061 1:20.76 2:22.6 4:471.66667 5:0.003419173 
-0.6493624420881776 1:20.7 2:22.5 4:466 5:0.003391335 
-0.007904504233113422 1:20.73 2:22.5 4:464.33333 5:0.003397643 
-0.5705164160398795 1:20.7 2:22.5 4:463.75 5:0.003391335 
-0.5165515708652433 1:20.7 2:22.39 4:461.66667 5:0.003374666 
-0.3906071406324555 1:20.745 2:22.39 4:460.25 5:0.003384084 
-0.5358416996489109 1:20.7675 2:22.365 4:451.25 5:0.003384998 
-0.3487770570128414 1:20.7 2:22.365 4:449.25 5:0.003370877 
-0.2625681836661721 1:20.7 2:22.34 4:458.75 5:0.003367089 
-0.6011755960007278 1:20.7 2:22.29 4:457.5 5:0.003359512 
-0.0007018129259168671 1:20.6 2:22.2 4:455.25 5:0.003325206 
-0.5775965571368937 1:20.6 2:22.2 4:455.25 5:0.003325206 
-0.7971936245758694 1:20.6 2:22.2 4:453 5:0.003325206 
-0.2291063146581045 1:20.525 2:22.2225 4:450.5 5:0.003313151 
-0.2023477627760748 1:20.5 2:22.2 4:449.5 5:0.00330465 
-0.3908698165752761 1:20.6 2:22.14 4:448.2 5:0.003316171 
-0.3725938128068473 1:20.6 2:22.1 4:444.5 5:0.003310148 
-0.5486395020346119 1:20.6 2:22.1 4:447 5:0.003310148 
-0.4057018778034231 1:20.6 2:22.1 4:443 5:0.003310148 
-0.4649768747587225 1:20.6 2:22.1 4:441.25 5:0.003310148 
-0.1380142948427435 1:20.5 2:22.29 4:439 5:0.003318119 
-0.1466240445059759 1:20.5 2:22.29 4:438.25 5:0.003318119 
-0.05499079361075285 1:20.5 2:22.29 4:436.5 5:0.003318119 
-0.008789874049104985 1:20.5 2:22.29 4:438.5 5:0.003318119 
-0.09571731464423572 1:20.5 2:22.29 4:438.2 5:0.003318119 
-0.04541892571751667 1:20.5 2:22.29 4:438.66667 5:0.003318119 
-0.006374194089860443 1:20.5 2:22.39 4:447.75 5:0.003333084 
-0.4791716717697803 1:20.5 2:22.29 4:436.5 5:0.003318119 
-0.405761383953317 1:20.5 2:22.323333 4:432.5 5:0.003323107 
-0.9829274547584412 1:20.5 2:22.315 4:427.5 5:0.00332186 
-0.00242829062392894 1:20.5 2:22.37 4:435.2 5:0.003330091 
-0.3107494137115736 1:20.5 2:22.34 4:433.8 5:0.003325601 
-0.4845597895621558 1:20.39 2:22.39 4:430 5:0.003310408 
-0.3835232971146589 1:20.29 2:22.7 4:427.6 5:0.003335705 
-0.01601587091514153 1:20.29 2:22.89 4:435.33333 5:0.003363776 
-0.6419346457941028 1:20.245 2:22.84 4:431 5:0.003347015 
-0.2746536913519314 1:20.2675 2:22.865 4:436.75 5:0.003355388 
-0.3564967616614986 1:20.2225 2:22.8675 4:435.25 5:0.003346383 
-0.4169490833196365 1:20.2 2:22.89 4:433.75 5:0.00334501 
-0.6434225272994182 1:20.2 2:22.89 4:439.25 5:0.00334501 
-0.5182293088807103 1:20.2 2:22.89 4:442 5:0.00334501 
-0.7214520911401617 1:20.2 2:22.89 4:445.33333 5:0.00334501 
-0.04617850763424079 1:20.2 2:22.89 4:440.6 5:0.00334501 
-1 1:20.29 2:23 3:419 4:453 5:0.003380029 
-1 1:20.315 2:23.1 3:419 4:459.25 5:0.003400083 
-1 1:20.29 2:23.2 3:419 4:470.4 5:0.003409582 
-1 1:20.31 2:23.2 3:416.2 4:466 5:0.003413822 
-1 1:21.133333 2:24.823333 3:444 4:747.33333 5:0.003845377 
-1 1:21.166667 2:24.858333 3:444 4:745.5 5:0.00385877 
-1 1:22.2 2:27.642857 3:535.71429 4:1137.8571 5:0.004576126 
-1 1:22.39 2:27.29 3:603.6 4:1064 5:0.004570212 
-1 1:22.39 2:27.2675 3:587.5 4:1065.25 5:0.004566416 
-1 1:22.39 2:27.2 3:575 4:1050.5 5:0.00455503 
-1 1:23.26 2:25.856667 3:338.33333 4:997.33333 5:0.004564605 
-1 1:23.29 2:25.978333 3:197.16667 4:996.5 5:0.004594621 
-1 1:23.272 2:25.87 3:184 4:998.6 5:0.004570312 
-1 1:23.29 2:25.89 3:173.2 4:993.4 5:0.004578883 
-1 1:23.2675 2:25.865 3:193 4:994.25 5:0.004568171 
-1 1:23.29 2:25.89 3:193 4:990.16667 5:0.004578883 
-1 1:23.245 2:25.825 3:178 4:984 5:0.004554814 
-1 1:23.254 2:25.85 3:184 4:983.6 5:0.004561753 
-1 1:23.26 2:25.793333 3:186 4:983.33333 5:0.004553342 
-1 1:23.272 2:25.772 3:178 4:974.6 5:0.004552872 
-1 1:23.245 2:25.715 3:178 4:961 5:0.004535271 
-1 1:23.29 2:25.7225 3:173.5 4:954.25 5:0.004549043 
-1 1:23.245 2:25.7 3:174.5 4:951.5 5:0.004532606 
-1 1:23.215 2:25.683333 3:169.66667 4:952.5 5:0.004521382 
-1 1:23.215 2:25.683333 3:168.5 4:946.33333 5:0.004521382 
-1 1:23.2 2:25.6 3:171 4:942 5:0.004502493 
-1 1:23.2 2:25.6 3:176 4:933.2 5:0.004502493 
-1 1:23.2 2:25.58 3:176 4:928.8 5:0.00449895 
-1 1:23.2 2:25.55 3:177.25 4:924 5:0.004493635 
-1 1:23.2 2:25.55 3:171 4:918 5:0.004493635 
-1 1:23.2 2:25.5 3:171 4:912.75 5:0.004484778 
-1 1:23.2 2:25.5 3:171 4:907 5:0.004484778 
-1 1:23.185714 2:25.528571 3:268.71429 4:899.28571 5:0.004485936 
-1 1:23.2 2:25.792 3:627.6 4:919.8 5:0.004536508 
-1 1:23.2 2:25.65 3:638 4:938.25 5:0.00451135 
-1 1:23.2 2:25.533333 3:634 4:922.16667 5:0.004490683 
-1 1:23.2 2:25.5 3:629 4:899 5:0.004484778 
-1 1:23.2 2:25.516667 3:557.66667 4:895.33333 5:0.00448773 
-0.7924632737261743 1:22.6 2:30.1225 4:1205.25 5:0.005113784 
-0.7917800553393377 1:22.575 2:30.05 4:1204.75 5:0.005093574 
-1 1:22.5 2:30.1 4:1196.6667 5:0.005078737 
-1 1:22.5 2:30.1 4:1191.5 5:0.005078737 
-1 1:22.5 2:30.1 4:1184 5:0.005078737 
-0.9574955167531862 1:22.445 2:30.1 4:1189.25 5:0.00506165 
-1 1:22.39 2:30.075 4:1186.5 5:0.005040391 
-1 1:22.39 2:30.1 4:1180.75 5:0.005044615 
-1 1:22.39 2:30.05 4:1172.5 5:0.005036167 
-1 1:22.365 2:30.075 4:1164 5:0.005032671 
-1 1:22.356667 2:30.1 4:1160.6667 5:0.005034315 
-1 1:22.29 2:30 4:1143.25 5:0.00499698 
-1 1:22.2675 2:29.945 4:1139.5 5:0.004980865 
-0.5873768324429569 1:22.245 2:29.9725 4:1138.25 5:0.004978597 
-1 1:22.2 2:29.815 4:1135.5 5:0.004938568 
-1 1:22.2 2:29.84 4:1124.75 5:0.004942742 
-1 1:22.2 2:29.856667 4:1119.3333 5:0.004945524 
-1 1:22.125 2:29.79 4:1110.25 5:0.004911722 
-1 1:22.1 2:29.79 4:1105.5 5:0.004904185 
-1 1:22.1 2:29.745 4:1096.75 5:0.004896719 
-1 1:22.1 2:29.7 4:1092.25 5:0.004889252 
-0.5325750170209516 1:22.1 2:29.6 4:1092.5 5:0.004872661 
-1 1:22.025 2:29.525 4:1085.75 5:0.004837873 
-1 1:22 2:29.463333 4:1074.3333 5:0.004820277 
-1 1:22 2:29.39 4:1066 5:0.004808187 
-1 1:22 2:29.39 4:1058.5 5:0.004808187 
-1 1:21.9175 2:29.29 4:1050.75 5:0.004767456 
-1 1:21.89 2:29.2675 4:1044 5:0.004755715 
-1 1:21.963333 2:29.2 4:1039 5:0.004766109 
-1 1:21.89 2:29.2 4:1030.5 5:0.004744663 
-1 1:21.89 2:29.2 4:1032.3333 5:0.004744663 
-1 1:21.89 2:29.16 4:1021.2 5:0.004738114 
-1 1:21.89 2:29.2 4:1018.6667 5:0.004744663 
-1 1:21.89 2:29.2 4:1008.75 5:0.004744663 
-1 1:21.79 2:29 4:1003.25 5:0.004683014 
-0.2495448750074417 1:21.81 2:29 4:989.8 5:0.004688783 
-1 1:21.815 2:29 4:992 5:0.004690226 
-1 1:21.79 2:28.9725 4:985.75 5:0.00467854 
-1 1:21.79 2:28.89 4:989 5:0.004665118 
-1 1:21.7225 2:28.89 4:983 5:0.00464577 
-1 1:21.7 2:28.89 4:976.75 5:0.004639337 
-1 1:21.7 2:28.89 4:970.33333 5:0.004639337 
-1 1:21.7 2:28.865 4:961.75 5:0.004635292 
-1 1:21.7 2:28.865 4:958.75 5:0.004635292 
-1 1:21.7 2:28.89 4:954.66667 5:0.004639337 
-1 1:21.7 2:28.79 4:950.5 5:0.004623159 
-0.3824220768183758 1:21.7 2:28.815 4:942.75 5:0.004627203 
-0.9046580053394693 1:21.675 2:28.79 4:938.25 5:0.004616045 
-1 1:21.675 2:28.7675 4:941 5:0.00461241 
-1 1:21.633333 2:28.73 4:944.33333 5:0.004594543 
-1 1:21.6 2:28.675 4:934.5 5:0.004576272 
-0.5858657195299596 1:21.6 2:28.633333 4:936.66667 5:0.004569574 
-1 1:21.6 2:28.6 4:926 5:0.004564215 
-0.7701597640637392 1:21.6 2:28.6 4:920.75 5:0.004564215 
-0.818852380719894 1:21.6 2:28.56 4:920.2 5:0.004557785 
-1 1:21.6 2:28.5 4:911.33333 5:0.00454814 
-0.8979419604484248 1:21.6 2:28.5 4:905.33333 5:0.00454814 
-0.8334411569575139 1:21.6 2:28.5 4:904.2 5:0.00454814 
-1 1:21.6 2:28.5 4:899.66667 5:0.00454814 
-0.764739656477875 1:21.6 2:28.478 4:898.2 5:0.004544603 
-1 1:21.6 2:28.39 4:895 5:0.004530458 
-1 1:21.6 2:28.39 4:891.66667 5:0.004530458 
-1 1:21.58 2:28.35 4:887.4 5:0.004518455 
-1 1:21.6 2:28.29 4:885.33333 5:0.004514384 
-1 1:21.56 2:28.29 4:876.4 5:0.004503267 
-1 1:21.533333 2:28.29 4:871.33333 5:0.00449587 
-0.9557831892300179 1:21.5 2:28.29 4:863.5 5:0.004486638 
-1 1:21.5 2:28.2675 4:865.25 5:0.004483043 
-0.7131858140407636 1:21.5 2:28.23 4:859.66667 5:0.004477053 
-0.9516298685085476 1:21.5 2:28.26 4:858.66667 5:0.004481845 
-1 1:21.5 2:28.2 4:852.25 5:0.004472261 
-0.363285319190186 1:21.5 2:28.175 4:849.25 5:0.004468268 
-1 1:21.5 2:28.1 4:849 5:0.004456289 
-1 1:21.5 2:28.1 4:845 5:0.004456289 
-0.2347124280718154 1:21.5 2:28.1 4:844.5 5:0.004456289 
-0.05729618018185334 1:21.5 2:28.05 4:843.75 5:0.004448303 
-1 1:21.5 2:28.075 4:842 5:0.004452296 
-0.7950234154079951 1:21.5 2:28.1 4:833.2 5:0.004456289 
-0.7947874225717002 1:21.5 2:28.033333 4:832.66667 5:0.004445641 
-0.9324369507511896 1:21.4175 2:27.945 4:825.25 5:0.004409037 
-1 1:21.39 2:27.89 4:820.33333 5:0.004392837 
-0.674653471609802 1:21.4175 2:27.9175 4:824.5 5:0.004404668 
-0.2488225634578042 1:21.39 2:27.89 4:820.2 5:0.004392837 
-1 1:21.39 2:27.89 4:817.66667 5:0.004392837 
-1 1:21.365 2:27.89 4:808 5:0.004386064 
-0.09441927478921845 1:21.39 2:27.79 4:806.66667 5:0.004376975 
-0.2079381019034253 1:21.39 2:27.856667 4:804.66667 5:0.00438755 
-0.6809211243541622 1:21.29 2:27.85 4:803.8 5:0.004359494 
-0.4232088992144372 1:21.29 2:27.79 4:806 5:0.004350036 
-0.0505356320173652 1:21.29 2:27.79 4:801.5 5:0.004350036 
-0.6074502201921939 1:21.34 2:27.79 4:802 5:0.004363488 
-1 1:21.29 2:27.79 4:800 5:0.004350036 
-1 1:21.29 2:27.79 4:795 5:0.004350036 
-1 1:21.29 2:27.79 4:785 5:0.004350036 
-0.560143513529932 1:21.29 2:27.79 4:781 5:0.004350036 
-0.7007116056112127 1:21.29 2:27.79 4:782 5:0.004350036 
-1 1:21.29 2:27.7675 4:778 5:0.00434649 
-1 1:21.29 2:27.79 4:772.5 5:0.004350036 
-0.5095896668920161 1:21.245 2:27.745 4:770.75 5:0.004330888 
-0.62963506528083 1:21.218 2:27.718 4:769 5:0.004319433 
-0.7513553712754681 1:21.23 2:27.7 4:767 5:0.00431981 
-1 1:21.2 2:27.7 4:764 5:0.004311809 
-0.1808444778751587 1:21.2 2:27.7 4:765.25 5:0.004311809 
-1 1:21.2 2:27.6 4:758.5 5:0.004296136 
-0.00658705192124944 1:21.2 2:27.575 4:749.75 5:0.004292217 
-0.2427369129109148 1:21.2 2:27.6 4:749 5:0.004296136 
-0.3587017126123969 1:21.2 2:27.54 4:747.8 5:0.004286732 
-0.3821516993868273 1:21.2 2:27.5 4:744 5:0.004280463 
-0.7825915829054936 1:21.2 2:27.5 4:746.4 5:0.004280463 
-1 1:21.2 2:27.4725 4:750.5 5:0.004276153 
-1 1:21.2 2:27.365 4:742.75 5:0.004259306 
-1 1:21.2 2:27.34 4:736.25 5:0.004255388 
-0.7876374352526923 1:21.2 2:27.29 4:738.25 5:0.004247552 
-1 1:21.2 2:27.29 4:732.33333 5:0.004247552 
-1 1:21.2 2:27.29 4:725.4 5:0.004247552 
-1 1:21.2 2:27.2675 4:729.25 5:0.004244027 
-0.3321527109681726 1:21.2 2:27.245 4:727 5:0.004240501 
-0.3811960239288061 1:21.2 2:27.245 4:716.75 5:0.004240501 
-0.4674596197272047 1:21.2 2:27.2 4:715.66667 5:0.004233449 
-0.2658666502062422 1:21.2 2:27.2 4:712.25 5:0.004233449 
-1 1:21.2 2:27.2 4:719 5:0.004233449 
-0.4890698040838261 1:21.2 2:27.15 4:714.25 5:0.004225614 
-1 1:21.2 2:27.14 4:711.4 5:0.004224047 
-0.8773355483549672 1:21.2 2:27.1 4:701 5:0.004217779 
-1 1:21.2 2:27.1 4:703.66667 5:0.004217779 
-1 1:21.2 2:27.025 4:707.25 5:0.004206028 
-0.162921719081628 1:21.2 2:27 4:703.75 5:0.00420211 
-0.3943966748167035 1:21.2 2:27 4:699.5 5:0.00420211 
-0.4880242790520633 1:21.2 2:27 4:697.5 5:0.00420211 
-0.284126576279762 1:21.2 2:27 4:696.66667 5:0.00420211 
-0.8530978990416099 1:21.2 2:27 4:692.75 5:0.00420211 
-0.5611744004699876 1:21.2 2:26.856667 4:695.33333 5:0.004179653 
-0.4818577133444352 1:21.2 2:26.89 4:690.5 5:0.004184876 
-0.3166336022704888 1:21.2 2:26.89 4:689.5 5:0.004184876 
-0.8250592686533561 1:21.2 2:26.79 4:687.6 5:0.004169208 
-1 1:21.166667 2:26.79 4:682.33333 5:0.00416063 
-0.1710344237907739 1:21.2 2:26.79 4:677.66667 5:0.004169208 
-1 1:21.16 2:26.79 4:677.8 5:0.004158916 
-0.920033522870167 1:21.2 2:26.79 4:684.33333 5:0.004169208 
-0.9756823492435626 1:21.175 2:26.79 4:675 5:0.004162773 
-0.9172067442799257 1:21.2 2:26.745 4:668.5 5:0.004162158 
-0.9038688624766255 1:21.15 2:26.7 4:671.25 5:0.00414229 
-0.5852337071931093 1:21.125 2:26.675 4:673 5:0.004131996 
-0.2386421345082395 1:21.1 2:26.6 4:663.5 5:0.004113938 
-0.8500593955742582 1:21.1 2:26.6 4:665 5:0.004113938 
-0.9491600737671968 1:21.1 2:26.6 4:661.5 5:0.004113938 
-0.6363138766562191 1:21.1 2:26.6 4:657.75 5:0.004113938 
-0.8933708804499223 1:21.1 2:26.6 4:653.25 5:0.004113938 
-0.5627991852136436 1:21.1 2:26.6 4:656.75 5:0.004113938 
-0.6124857935112501 1:21.1 2:26.6 4:651 5:0.004113938 
-0.3727802743370551 1:21.1 2:26.575 4:648.5 5:0.004110046 
-0.2370958245534539 1:21.1 2:26.5 4:642.25 5:0.00409837 
-1 1:21.1 2:26.5 4:643.75 5:0.00409837 
-0.2025973754917107 1:21.1 2:26.5 4:649.5 5:0.00409837 
-0.9068201068618941 1:21.06 2:26.412 4:646.6 5:0.004074581 
-0.07038617819714948 1:21.066667 2:26.463333 4:643 5:0.004084235 
-0.8479304669999722 1:21.08 2:26.478 4:640.4 5:0.004089885 
-0.9069466268714911 1:21.075 2:26.4175 4:636.75 5:0.004079217 
-0.8525324366156954 1:21.075 2:26.4175 4:633.75 5:0.004079217 
-0.3626427649087259 1:21 2:26.29 4:632 5:0.004040614 
-0.4185104542488264 1:21 2:26.29 4:626.5 5:0.004040614 
-0.678733396905842 1:21.033333 2:26.323333 4:628.66667 5:0.004054121 
-0.03676705566968324 1:21.025 2:26.315 4:629.5 5:0.004050741 
-0.5711000931340738 1:21.05 2:26.34 4:630.5 5:0.004060889 
-0.2385285411052034 1:21.025 2:26.315 4:631.5 5:0.004050741 
-0.8124005068281778 1:21 2:26.29 4:624.5 5:0.004040614 
-0.4304265677131006 1:21 2:26.236 4:622 5:0.00403226 
-0.2948241198311758 1:21 2:26.2675 4:622.75 5:0.004037133 
-0.8975664893769189 1:21 2:26.2 4:619.25 5:0.004026692 
-0.6955164021206841 1:21 2:26.2 4:616 5:0.004026692 
-0.168469861233544 1:21 2:26.2 4:617.25 5:0.004026692 
-0.5222327771159493 1:21 2:26.125 4:611.33333 5:0.00401509 
-0.6121642033305675 1:21 2:26.1 4:613.6 5:0.004011223 
-0.8472338007416368 1:21 2:26.15 4:608.75 5:0.004018957 
-0.1368099884934451 1:21 2:26.1 4:612 5:0.004011223 
-0.6819780748525316 1:21 2:26.1 4:604.5 5:0.004011223 
-0.544659151512996 1:21 2:26 4:607 5:0.003995756 
-0.4015280421899888 1:21 2:26 4:602.66667 5:0.003995756 
-0.8159642797965574 1:21 2:26 4:600.5 5:0.003995756 
-0.638340477277785 1:21 2:25.89 4:594 5:0.003978743 
-0.2307355165091363 1:20.945 2:25.89 4:596.5 5:0.003965226 
-0.2305854277044551 1:20.963333 2:25.89 4:596 5:0.003969727 
-0.4917637570740349 1:20.9725 2:25.815 4:597.5 5:0.0039604 
-0.7228205488803975 1:21 2:25.815 4:591.5 5:0.003967143 
-0.8175016949541043 1:20.963333 2:25.79 4:588.66667 5:0.003954296 
-0.799987610611821 1:20.926667 2:25.79 4:585.33333 5:0.003945334 
-0.5764486218138848 1:20.945 2:25.79 4:582.25 5:0.003949813 
-0.3038226992149251 1:20.89 2:25.79 4:580.75 5:0.003936389 
-0.1347769160399314 1:20.963333 2:25.7 4:583.33333 5:0.00394041 
-0.4360299806585424 1:20.89 2:25.7 4:576.66667 5:0.003922566 
-0.355545552827583 1:20.89 2:25.7 4:579.33333 5:0.003922566 
-0.2750513997590301 1:20.89 2:25.7 4:578.5 5:0.003922566 
-0.4392770074537002 1:20.89 2:25.6 4:575.66667 5:0.003907207 
-0.7543663611117362 1:20.89 2:25.6 4:572.75 5:0.003907207 
-0.7827313291234792 1:20.89 2:25.4725 4:570.75 5:0.003887626 
-0.4972639271243988 1:20.89 2:25.39 4:568 5:0.003874956 
-0.3461819545923103 1:20.856667 2:25.356667 4:566.33333 5:0.003861859 
-0.3266013729577917 1:20.89 2:25.356667 4:565.33333 5:0.003869837 
-0.640682470420347 1:20.89 2:25.29 4:561 5:0.003859599 
-0.2908677224525066 1:20.9175 2:25.245 4:563.75 5:0.003859253 
-0.2463419132807092 1:20.89 2:25.2225 4:562.75 5:0.003849234 
-0.1662859138752405 1:20.89 2:25.2 4:558.5 5:0.003845779 
-0.03576568106009511 1:20.89 2:25.2 4:558.33333 5:0.003845779 
-0.2153626442577385 1:20.89 2:25.2 4:558.25 5:0.003845779 
-0.2371865632768693 1:20.89 2:25.2 4:557.2 5:0.003845779 
-0.801214050386975 1:20.89 2:25.125 4:556 5:0.003834263 
-0.6459272087612428 1:20.89 2:25.025 4:548.5 5:0.003818909 
-0.1714725289689854 1:20.89 2:25.05 4:550 5:0.003822747 
-0.4816442754207856 1:20.89 2:25 4:554 5:0.00381507 
-0.006283277004421827 1:20.89 2:24.9725 4:547.25 5:0.003810848 
-0.03838676986637749 1:20.89 2:24.934 4:552.4 5:0.003804937 
-0.4760441028699214 1:20.89 2:24.9725 4:551.25 5:0.003810848 
-0.6254233770708544 1:20.89 2:24.978 4:545.6 5:0.003811692 
-0.4913546525007386 1:20.89 2:25 4:542.75 5:0.00381507 
-0.06520825729667958 1:20.89 2:25 4:536.5 5:0.00381507 
-0.1274327477811245 1:20.87 2:24.978 4:543.8 5:0.003806976 
-0.5116745576482824 1:20.856667 2:24.93 4:539 5:0.003796481 
-0.2619520040116875 1:20.79 2:24.978 4:537.2 5:0.003788163 
-0.4007235646321046 1:20.79 2:24.963333 4:541 5:0.003785925 
-0.2253958870416547 1:20.79 2:25 4:534 5:0.00379152 
-0.06506082180510245 1:20.79 2:25 4:532 5:0.00379152 
-0.1607284407591295 1:20.79 2:25 4:532.8 5:0.00379152 
-0.02436865982854581 1:20.79 2:25 4:534.4 5:0.00379152 
-0.5094633768783126 1:20.79 2:25 4:535.66667 5:0.00379152 
-0.08244265959900177 1:20.79 2:25 4:529.75 5:0.00379152 
-0.6408361007393473 1:20.79 2:25 4:531.33333 5:0.00379152 
-0.5007834659884486 1:20.79 2:25 4:529.75 5:0.00379152 
-0.2073918262637942 1:20.79 2:25 4:528.25 5:0.00379152 
-0.6238011628197833 1:20.79 2:25 4:526 5:0.00379152 
-0.09747055518833071 1:20.79 2:25 4:526.5 5:0.00379152 
-0.1607270692369273 1:20.79 2:24.963333 4:524.66667 5:0.003785925 
-0.1539256605066644 1:20.79 2:24.9725 4:523.25 5:0.003787324 
-0.6704240722084384 1:20.745 2:25 4:519.5 5:0.003780964 
-0.6343593993322496 1:20.7675 2:25 4:522.25 5:0.003786239 
-0.4055914177283481 1:20.79 2:25 4:517.33333 5:0.00379152 
-0.284299200690331 1:20.718 2:25.1 4:512.4 5:0.003789834 
-0.5957821120158941 1:20.7 2:25.075 4:515.5 5:0.003781815 
-0.3368021159236257 1:20.7 2:25.1 4:510 5:0.003785608 
-0.07114674385949696 1:20.7 2:25.1 4:511.25 5:0.003785608 
-0.2794294957431012 1:20.7 2:25.1 4:513.33333 5:0.003785608 
-0.03584202901605453 1:20.7 2:25.1 4:510.5 5:0.003785608 
-0.3673938324026246 1:20.7 2:25.1 4:512 5:0.003785608 
-0.6688947759902638 1:20.68 2:25.12 4:508 5:0.003783949 
-0.2371675487848606 1:20.7 2:25.125 4:502.25 5:0.003789402 
-0.01911269025367788 1:20.7 2:25.1 4:505.5 5:0.003785608 
-0.5787521355470796 1:20.7 2:25.1 4:505.5 5:0.003785608 
-0.001308961898015131 1:20.7 2:25.1 4:501.25 5:0.003785608 
-0.0562209257392448 1:20.7 2:25.1 4:495.8 5:0.003785608 
-0.05861165114932367 1:20.66 2:25.1 4:497.8 5:0.003776232 
-0.5988450718720751 1:20.625 2:25.1 4:497.25 5:0.003768045 
-0.5591043365075143 1:20.675 2:25.175 4:503.25 5:0.003791109 
-0.7646594126591804 1:20.675 2:25.125 4:500 5:0.003783533 
-0.03257553790194106 1:20.7 2:25.1 4:492.75 5:0.003785608 
-0.4119226005613064 1:20.7 2:25.1 4:495.33333 5:0.003785608 
-0.7878447691523596 1:20.675 2:25.075 4:490.75 5:0.003775958 
-0.7565407859929815 1:20.7 2:25.1 4:487.75 5:0.003785608 
-0.1436903965014989 1:20.7 2:25.1 4:493.5 5:0.003785608 
-0.4756836966454428 1:20.7 2:25.1 4:493.33333 5:0.003785608 
-0.1962597215517584 1:20.7 2:25 4:486.5 5:0.003770435 
-0.4044556511855337 1:20.7 2:24.981667 4:484.83333 5:0.003767653 
-0.6250451470305053 1:20.7 2:24.9725 4:478.75 5:0.003766262 
-0.6354543043227231 1:20.7 2:25 4:483.33333 5:0.003770435 
-0.5006624178602891 1:20.7 2:25 4:480.2 5:0.003770435 
-0.1680140130462169 1:20.7 2:24.79 4:481.66667 5:0.003738573 
-0.8159887298087665 1:20.7 2:24.76 4:475.66667 5:0.003734021 
-0.2475611349716463 1:20.7 2:24.6 4:467 5:0.003709748 
-0.6371992511648832 1:20.7 2:24.6 4:465.25 5:0.003709748 
-0.1482364518570951 1:20.7 2:24.6 4:472.75 5:0.003709748 
-0.5278007888955772 1:20.7 2:24.6 4:470.75 5:0.003709748 
-0.2703894442456637 1:20.7 2:24.6 4:469.25 5:0.003709748 
-0.4141691335091776 1:20.7 2:24.6 4:468 5:0.003709748 
-0.490336844146802 1:20.7 2:24.6 4:473 5:0.003709748 
-0.4056621623433258 1:20.7 2:24.5 4:462.66667 5:0.003694578 
-0.02636981424167925 1:20.7 2:24.5 4:461.33333 5:0.003694578 
-0.2007968507775413 1:20.7 2:24.5 4:463.33333 5:0.003694578 
-0.6306031407365751 1:20.7 2:24.5 4:459 5:0.003694578 
-0.4376675744171308 1:20.7 2:24.5 4:461 5:0.003694578 
-0.9753132641112151 1:20.65 2:24.445 4:455.25 5:0.003674828 
-0.2957308950246423 1:20.625 2:24.4175 4:457.5 5:0.003664984 
-1 1:20.426667 2:23.73 3:56.333333 4:471.66667 5:0.003517648 
-1 1:20.6 2:24.083333 3:413 4:507.33333 5:0.003608936 
-1 1:20.6 2:24.1 3:414.6 4:514.6 5:0.003611448 
-1 1:20.6 2:24.175 3:407.5 4:522.25 5:0.003622752 
-1 1:20.6 2:24.2 3:406.6 4:525.6 5:0.003626521 
-1 1:20.6 2:24.2 3:399.5 4:528 5:0.003626521 
-0.06105543618030507 1:20.956 2:25.39 3:444 4:717.8 5:0.003890816 
-0.3906322837472069 1:21 2:25.39 3:444 4:720.75 5:0.003901421 
-1 1:21 2:25.412 3:444 4:721.4 5:0.003904823 
-1 1:21 2:25.39 3:444 4:718 5:0.003901421 
-1 1:21 2:25.356667 3:444 4:715.5 5:0.003896267 
-1 1:21 2:25.29 3:447.2 4:713 5:0.003885959 
-1 1:21 2:25.29 3:456.8 4:714.8 5:0.003885959 
-1 1:21.215 2:25.291667 3:462.33333 4:773.83333 5:0.003938201 
-1 1:21.2 2:25.29 3:464 4:777.75 5:0.003934293 
-1 1:22.2 2:26 3:608.25 4:946 5:0.004302279 
-1 1:22.29 2:25.963333 3:606.66667 4:950.33333 5:0.004319939 
