svm_type c_svc
kernel_type polynomial
degree 3
gamma 0.2
coef0 0
nr_class 2
total_sv 90
rho -9.09934e+08
label 1 0
nr_sv 49 41
SV
0.1041883626592115 1:23.754 2:26.2 3:488.6 4:779 5:0.004766594 
1 1:23.7 2:26.9725 3:455 4:880 5:0.004892191 
0.904177216848902 1:23.64 2:26.976 3:458 4:897.6 5:0.004875045 
1 1:23.6 2:27.236 3:498.4 4:925.2 5:0.004910462 
1 1:23.6 2:27.7 3:483.16667 4:1009.5 5:0.00499479 
1 1:22.6 2:25.575 3:429 4:897 5:0.00433639 
1 1:22.6 2:25.2 3:435.5 4:864 5:0.00427237 
0.1281840652927133 1:22.6 2:25.04 3:432.2 4:837.2 5:0.004245059 
1 1:22.6 2:25.05 3:431.75 4:834.75 5:0.004246766 
1 1:22.575 2:25.075 3:433 4:818.25 5:0.00424454 
1 1:22.6 2:24.9175 3:433 4:818 5:0.00422415 
1 1:22.525 2:24.945 3:433 4:822.25 5:0.004209495 
0.1346785664846851 1:22.5 2:24.865 3:433 4:816.5 5:0.004189492 
1 1:22.52 2:24.976 3:430.2 4:824 5:0.004213473 
1 1:22.39 2:24.7225 3:419 4:772.25 5:0.004137377 
1 1:22.39 2:24.625 3:419 4:773.75 5:0.004120952 
1 1:22.39 2:24.754 3:416.2 4:771.8 5:0.004142684 
0.5712210703581552 1:22.39 2:24.912 3:418.6 4:782.8 5:0.004169303 
1 1:20.29 2:22.79 3:217.2 4:441.6 5:0.003349002 
1 1:20.39 2:23.34 3:403.5 4:479.75 5:0.003451647 
1 1:20.39 2:23.7 3:398.33333 4:507 5:0.003505185 
0.03672897903110096 1:20.5 2:24.39 3:405 4:569 5:0.003632553 
1 1:20.58 2:24.39 3:419 4:583 5:0.003650629 
1 1:20.7 2:24.39 3:419 4:594.33333 5:0.003677892 
0.003702687389687818 1:20.772 2:24.7 3:419 4:640.8 5:0.003741574 
0.1070540558156416 1:20.79 2:24.79 3:433 4:679.2 5:0.003759479 
1 1:20.83 2:24.83 3:439.8 4:697.6 5:0.003774921 
0.121442587140652 1:20.89 2:24.823333 3:435 4:715.83333 5:0.003787946 
0.1237118409202041 1:20.89 2:24.85 3:429 4:716.2 5:0.00379204 
0.07069654074530088 1:21.2 2:25.163333 3:444 4:752.66667 5:0.003914464 
0.03894551800262878 1:21.29 2:26.683333 3:454 4:895.16667 5:0.004175644 
0.147881644570432 1:21.306667 2:26.79 3:454 4:923.16667 5:0.004196765 
1 1:22.1 2:28.2 3:555 4:1191 5:0.004640478 
1 1:22.29 2:27.55 3:558 4:1072.25 5:0.004585884 
1 1:22.6 2:26.79 3:659 4:1032.25 5:0.004543905 
0.9504007887154691 1:22.963333 2:26.29 3:668 4:1018.6667 5:0.004558529 
1 1:23.15 2:25.5 3:597.75 4:879.75 5:0.004471146 
1 1:23.29 2:25.79 3:586.5 4:898 5:0.004561068 
1 1:23.29 2:26.16 3:561 4:911.16667 5:0.004626991 
1 1:20.5 2:23.89 3:419 4:491 5:0.003557659 
0.2864426632388771 1:20.525 2:24 3:414.6 4:506.2 5:0.003579683 
1 1:20.66 2:24.2 3:406.2 4:538.8 5:0.003640037 
0.5190875015176021 1:20.7 2:24.5 3:408 4:546.25 5:0.003694578 
1 1:20.87 2:25.16 3:433 4:632.4 5:0.003834886 
1 1:20.84 2:25.1975 3:433 4:649.5 5:0.00383351 
1 1:20.84 2:25.34 3:433 4:660.75 5:0.003855324 
1 1:21.2 2:25.356667 3:462.33333 4:778 5:0.00394473 
1 1:21.34 2:25.79 3:524.5 4:814 5:0.004047411 
0.4600709232816366 1:23.79 2:26.31 3:763 4:1158.2 5:0.004797221 
-1 1:22.6 2:25.2 3:422.5 4:853 5:0.00427237 
-1 1:22.6 2:25.2 3:423.66667 4:853 5:0.00427237 
-1 1:22.54 2:25.16 3:424.6 4:852 5:0.004249921 
-0.5413982567422746 1:22.54 2:25.16 3:427.4 4:853.6 5:0.004249921 
-1 1:22.54 2:25.14 3:421.8 4:845.6 5:0.00424652 
-0.1519488468525303 1:22.525 2:25.1 3:426 4:834.25 5:0.004235829 
-1 1:22.5 2:25.04 3:421.8 4:826.4 5:0.004219178 
-1 1:22.5 2:25 3:419 4:819.6 5:0.004212392 
-1 1:22.5 2:25 3:419 4:829.6 5:0.004212392 
-0.8461478978845025 1:22.5 2:25 3:419 4:824 5:0.004212392 
-1 1:22.5 2:24.912 3:419 4:814.2 5:0.004197464 
-0.7907646743484854 1:22.5 2:24.89 3:419 4:813.8 5:0.004193733 
-0.04024770006764594 1:22.456 2:24.83 3:419 4:807.8 5:0.004172308 
-0.5088893351480522 1:22.4175 2:24.7475 3:419 4:796.75 5:0.004148566 
-1 1:22.4175 2:24.7225 3:419 4:789.75 5:0.004144348 
-1 1:22.39 2:24.7 3:419 4:782.2 5:0.004133586 
-1 1:20.31 2:23.2 3:416.2 4:466 5:0.003413822 
-1 1:21.166667 2:24.858333 3:444 4:745.5 5:0.00385877 
-1 1:22.2 2:27.642857 3:535.71429 4:1137.8571 5:0.004576126 
-1 1:22.39 2:27.29 3:603.6 4:1064 5:0.004570212 
-1 1:22.39 2:27.2675 3:587.5 4:1065.25 5:0.004566416 
-1 1:22.39 2:27.2 3:575 4:1050.5 5:0.00455503 
-0.185752108672847 1:23.26 2:25.856667 3:338.33333 4:997.33333 5:0.004564605 
-1 1:23.2 2:25.792 3:627.6 4:919.8 5:0.004536508 
-1 1:23.2 2:25.65 3:638 4:938.25 5:0.00451135 
-1 1:23.2 2:25.533333 3:634 4:922.16667 5:0.004490683 
-1 1:23.2 2:25.516667 3:557.66667 4:895.33333 5:0.00448773 
-1 1:20.6 2:24.083333 3:413 4:507.33333 5:0.003608936 
-1 1:20.6 2:24.1 3:414.6 4:514.6 5:0.003611448 
-1 1:20.6 2:24.175 3:407.5 4:522.25 5:0.003622752 
-1 1:20.6 2:24.2 3:406.6 4:525.6 5:0.003626521 
-1 1:20.6 2:24.2 3:399.5 4:528 5:0.003626521 
-0.6434661922965516 1:20.956 2:25.39 3:444 4:717.8 5:0.003890816 
-1 1:21 2:25.412 3:444 4:721.4 5:0.003904823 
-1 1:21 2:25.39 3:444 4:718 5:0.003901421 
-1 1:21 2:25.356667 3:444 4:715.5 5:0.003896267 
-1 1:21 2:25.29 3:447.2 4:713 5:0.003885959 
-1 1:21 2:25.29 3:456.8 4:714.8 5:0.003885959 
-1 1:21.215 2:25.291667 3:462.33333 4:773.83333 5:0.003938201 
-1 1:21.2 2:25.29 3:464 4:777.75 5:0.003934293 
-1 1:22.2 2:26 3:608.25 4:946 5:0.004302279 
