svm_type c_svc
kernel_type linear
nr_class 2
total_sv 332
rho -12.0242
label 1 0
probA -0.262197
probB 1.58735
nr_sv 167 165
SV
4 1:23.7 2:26.272 3:585.2 4:749.2 5:0.004764163 
4 1:23.745 2:26.445 3:481.5 4:815.25 5:0.004808886 
4 1:23.7 2:26.6 3:475.25 4:832 5:0.004824104 
4 1:23.7 2:26.7 3:469 4:845.33333 5:0.004842381 
4 1:23.65 2:27.05 3:464 4:900.5 5:0.004891492 
4 1:23.6 2:27.412 3:501.2 4:958.6 5:0.004942446 
4 1:23.5 2:28 3:454 4:1051.25 5:0.005018735 
4 1:23.5 2:28.025 3:444.25 4:1055 5:0.005023252 
4 1:23.215 2:28.633333 3:462.33333 4:1127.8333 5:0.005044923 
4 1:23.116667 2:28.945 3:444 4:1160 5:0.005069809 
4 1:23.1 2:29.075 3:444 4:1175.25 5:0.005087593 
4 1:23.06 2:27.772 3:444 4:1089.2 5:0.004845979 
4 1:23 2:28.018 3:429 4:1061.6 5:0.004871382 
4 1:23 2:28.133333 3:429 4:1091.3333 5:0.004891592 
4 1:22.79 2:27.2 3:444 4:1018 5:0.004667861 
4 1:22.7 2:26.683333 3:434 4:971.33333 5:0.004553435 
4 1:22.625 2:25.55 3:442.5 4:889.25 5:0.004338748 
4 1:22.65 2:25.42 3:438 4:880.75 5:0.00432312 
4 1:22.6 2:25.15 3:428.2 4:847.4 5:0.004263835 
4 1:22.6 2:25.08 3:429.2 4:832.4 5:0.004251886 
4 1:22.6 2:24.9175 3:433 4:818 5:0.00422415 
4 1:22.54 2:24.89 3:433 4:825 5:0.004204006 
4 1:22.5 2:24.911667 3:433 4:811 5:0.004197408 
3.060294232332303 1:22.6 2:25.1 3:433 4:854.75 5:0.0042553 
4 1:22.6 2:25.1 3:428.33333 4:850.33333 5:0.0042553 
4 1:22.6 2:25.08 3:424.6 4:845.4 5:0.004251886 
4 1:22.6 2:25.166667 3:433 4:854.33333 5:0.00426668 
4 1:22.39 2:24.754 3:416.2 4:771.8 5:0.004142684 
4 1:20.29 2:22.79 3:217.2 4:441.6 5:0.003349002 
4 1:20.29 2:22.856667 3:413.66667 4:442.66667 5:0.003358851 
4 1:20.29 2:22.956 3:433 4:445.6 5:0.003373528 
4 1:20.39 2:23.434 3:397.4 4:494.2 5:0.003465625 
4 1:20.39 2:23.66 3:397.4 4:501 5:0.003499236 
4 1:20.5 2:23.89 3:407.66667 4:523.66667 5:0.003557659 
4 1:20.5 2:24.1 3:413 4:538.33333 5:0.003589112 
4 1:20.52 2:24.236 3:407.4 4:549.6 5:0.003613966 
4 1:20.89 2:24.89 3:443.4 4:700 5:0.003798181 
4 1:23.2 2:25.945 3:653.16667 4:992.5 5:0.004563616 
4 1:23.2225 2:25.9175 3:653.75 4:996.5 5:0.004564992 
4 1:23.175 2:25.6 3:595 4:877.5 5:0.004495645 
4 1:23.29 2:27.4175 3:526.75 4:1038.5 5:0.004851143 
4 1:23.254 2:28.912 3:476 4:1160.8 5:0.005106541 
4 1:23.245 2:28.92 3:467.75 4:1160 5:0.005105166 
4 1:23.2 2:29.2 3:453 4:1181 5:0.005140889 
4 1:23.2 2:29.2 3:464 4:1192 5:0.005140889 
4 1:23.2 2:29.2 3:464 4:1197.75 5:0.005140889 
4 1:23.2 2:29.33 3:464 4:1196.5 5:0.005163966 
4 1:23.2 2:29.356667 3:464 4:1203.25 5:0.0051687 
4 1:23.1 2:29.5 3:463 4:1219.6 5:0.005162577 
4 1:23.1 2:29.84 3:469 4:1235.75 5:0.005222578 
4 1:23.1 2:29.84 3:469 4:1239.5 5:0.005222578 
4 1:23 2:30.29 3:462.33333 4:1290.6667 5:0.005269752 
4 1:22.89 2:30.89 3:444 4:1376 5:0.005339048 
4 1:22.7 2:31.4175 3:440 4:1396.25 5:0.00536828 
4 1:22.6 2:30.315 3:419 4:1240.75 5:0.005146735 
4 1:22.6 2:30.1 3:419 4:1217.2 5:0.005109933 
4 1:20.39 2:23.7 3:311.75 4:474.75 5:0.003505185 
4 1:20.4725 2:23.7675 3:433 4:473.75 5:0.003533277 
4 1:20.481667 2:23.89 3:423.66667 4:484.5 5:0.003553613 
4 1:20.52 2:24 3:409.8 4:499.6 5:0.003578573 
4 1:20.625 2:24.175 3:414 4:538.5 5:0.003628373 
4 1:20.675 2:24.34 3:411 4:538.75 5:0.003664625 
4 1:20.7 2:24.65 3:405 4:554.66667 5:0.003717333 
4 1:20.79 2:24.9975 3:419 4:611.25 5:0.003791139 
4 1:21.865 2:26.315 3:554 4:923.5 5:0.004266102 
4 1:22.7 2:25.5 3:1697.25 4:951.75 5:0.00435009 
4 1:23.39 2:25.6 3:738 4:1042 5:0.004554837 
4 1:23.58 2:25.736 3:738 4:1067.75 5:0.004632378 
4 1:24 2:26.365 3:774.5 4:1182 5:0.004868882 
4 1:24.175 2:25.84 3:782.5 4:1140.5 5:0.004821963 
4 1:24.2 2:25.89 3:797.5 4:1152.5 5:0.004838673 
4 1:23.18 2:27.272 3:426 4:721.25 5:0.004792988 
1.637163060026187 1:23.15 2:27.2675 3:429.5 4:714 5:0.004783441 
4 1:23.1 2:27.2 3:419 4:701.66667 5:0.004756993 
4 1:23.1 2:27.1 3:419 4:691 5:0.004739371 
4 1:23.1 2:27.166667 3:419 4:683.5 5:0.004751119 
4 1:23.05 2:27.15 3:419 4:687.5 5:0.004733732 
4 1:23 2:27.125 3:419 4:686 5:0.004714942 
4 1:23 2:27.125 3:418.5 4:680.5 5:0.004714942 
4 1:20.7 2:22.39 3:356 4:457 5:0.003374666 
4 1:20.73 2:22.5 3:419 4:472 5:0.003397643 
4 1:20.7225 2:22.525 3:419 4:470.5 5:0.003399859 
4 1:20.79 2:22.79 3:411 4:492 5:0.003454488 
4 1:20.815 2:22.8675 3:411 4:497.75 5:0.00347167 
4 1:20.815 2:23.025 3:400 4:507 5:0.003495715 
4 1:20.89 2:23.29 3:396 4:515 5:0.003552629 
4 1:20.89 2:23.29 3:396 4:520.75 5:0.003552629 
4 1:20.89 2:23.29 3:396 4:526 5:0.003552629 
4 1:21 2:23.566667 3:411 4:548.5 5:0.003619618 
4 1:21 2:23.6 3:405 4:567.33333 5:0.003624768 
4 1:21.075 2:23.72 3:419 4:594 5:0.003660236 
4 1:21.1 2:23.79 3:419 4:613 5:0.003676776 
4 1:21.2 2:23.745 3:419 4:620.5 5:0.003692515 
3.056806241058638 1:21.39 2:24.29 3:429 4:742 5:0.003822332 
4 1:22.1 2:26.47 3:449.5 4:1031.5 5:0.004353804 
4 1:22.025 2:26.4425 3:469 4:1034.25 5:0.004329269 
4 1:22.2 2:26.9175 3:444 4:1104 5:0.004455187 
4 1:22.823333 2:25.856667 3:340.66667 4:983 5:0.00444472 
4 1:22.29 2:28.39 3:515 4:1020 5:0.004726771 
4 1:22.5 2:26.733333 3:452.33333 4:1064 5:0.004506567 
4 1:22.426667 2:26.696667 3:429 4:1088 5:0.004480183 
4 1:22.34 2:26.39 3:438 4:1068.75 5:0.004404907 
4 1:22.34 2:26.39 3:447 4:1074.75 5:0.004404907 
4 1:22.245 2:25.7225 3:433 4:1030.5 5:0.004267805 
4 1:22.2 2:24.34 3:433 4:903 5:0.004025817 
4 1:22.2 2:24.34 3:433 4:907 5:0.004025817 
4 1:22 2:23.926667 3:433 4:858 5:0.003908772 
4 1:22.075 2:23.9725 3:426 4:839 5:0.003934372 
4 1:22.025 2:24.0475 3:213 4:845.5 5:0.003934669 
4 1:20.2 2:18.6 3:401.33333 4:439 5:0.002715358 
4 1:20.125 2:18.865 3:411 4:458 5:0.00274141 
4 1:20.15 2:18.89 3:411 4:460 5:0.002749327 
4 1:20.2 2:18.89 3:411 4:459.75 5:0.002757882 
4 1:20.2225 2:19.05 3:407.5 4:463.5 5:0.002785236 
4 1:20.29 2:19.2225 3:400 4:483.5 5:0.002822377 
4 1:20.315 2:19.245 3:413 4:488.66667 5:0.002830085 
4 1:20.39 2:19.22 3:412.2 4:496.25 5:0.002839577 
4 1:20.426667 2:19.163333 3:413 4:504 5:0.002837614 
4 1:20.5 2:19.2425 3:405 4:515 5:0.002862376 
4 1:20.566667 2:19.2 3:409 4:515.33333 5:0.002867849 
4 1:20.79 2:19.533333 3:419 4:560 5:0.002958497 
1.262937314712193 1:20.89 2:19.625 3:419 4:597.5 5:0.002990886 
4 1:20.89 2:19.79 3:433 4:621 5:0.003016154 
4 1:20.89 2:19.79 3:433 4:635.75 5:0.003016154 
4 1:20.89 2:19.79 3:433 4:654 5:0.003016154 
4 1:21.7 2:20.4175 3:464 4:794 5:0.003271613 
4 1:21.745 2:20.34 3:484 4:816.5 5:0.003268155 
4 1:21.73 2:20.29 3:489 4:799 5:0.003257076 
4 1:21.7 2:20.1 3:489 4:752 5:0.003220475 
4 1:21.29 2:19.745 3:293.5 4:662.25 5:0.003084488 
4 1:21.5 2:19.365 3:536.5 4:656.25 5:0.003064209 
4 1:21.633333 2:19.03 3:549.25 4:623.25 5:0.003035734 
4 1:21.7675 2:19 3:525.25 4:625 5:0.003056012 
4 1:21.7675 2:19 3:543.75 4:626 5:0.003056012 
4 1:21.76 2:19.033333 3:553.33333 4:642.33333 5:0.00305999 
4 1:22 2:19.7675 3:570 4:724.75 5:0.003225787 
4 1:22.066667 2:20.066667 3:562 4:766 5:0.003288276 
4 1:22.1 2:20.1 3:562 4:767.5 5:0.003300502 
4 1:22.2 2:20.945 3:523.5 4:863.5 5:0.003461162 
4 1:21.73 2:21.566667 3:460 4:907 5:0.003463155 
4 1:21.79 2:21.6 3:460 4:926.5 5:0.00348135 
4 1:21.7 2:21.36 3:447 4:868.5 5:0.003423467 
4 1:21.6 2:21.2 3:433 4:817.5 5:0.003376853 
4 1:21.7 2:21.05 3:433 4:801 5:0.003373512 
4 1:21.7 2:20.89 3:433 4:802.25 5:0.003347732 
4 1:21.7 2:20.89 3:433 4:777 5:0.003347732 
4 1:21.7 2:20.89 3:426 4:780.5 5:0.003347732 
4 1:19.525 2:27.025 3:289.75 4:473.75 5:0.003790078 
4 1:19.525 2:27.125 3:412 4:479 5:0.003804188 
4 1:19.7675 2:28.175 3:392.5 4:546 5:0.004012754 
2.511036379101366 1:20.7 2:31.7225 3:438 4:1102.5 5:0.004792116 
4 1:21.5 2:33.2225 3:31 4:1246 5:0.00527554 
4 1:21.89 2:37.4725 3:444 4:1774.5 5:0.006102036 
4 1:22 2:37.79 3:444 4:1847 5:0.006196112 
4 1:22 2:38.59 3:438 4:1940 5:0.006328616 
4 1:22.1 2:38.73 3:447 4:1981.6667 5:0.006391057 
4 1:22.2675 2:38.62 3:433 4:1978.75 5:0.006438747 
4 1:20.323333 2:33.23 3:419 4:456.66667 5:0.004905413 
4 1:20.39 2:33.5 3:409.66667 4:489.66667 5:0.004966159 
4 1:20.426667 2:33.56 3:405 4:494.33333 5:0.004986493 
4 1:20.463333 2:33.663333 3:413 4:499 5:0.005013396 
4 1:20.5 2:33.6725 3:404.5 4:494.5 5:0.005026224 
4 1:20.55 2:33.79 3:405 4:508 5:0.005059615 
4 1:20.65 2:33.975 3:419 4:524.5 5:0.005119268 
4 1:20.65 2:33.975 3:419 4:534.5 5:0.005119268 
0.316924380504978 1:20.7 2:34.296667 3:419 4:548 5:0.00518422 
0.8792125091672588 1:20.7675 2:34.7175 3:422.5 4:600.75 5:0.00527042 
-4 1:22.6 2:25.066667 3:428.33333 4:849.33333 5:0.00424961 
-4 1:22.6 2:25.2 3:422.5 4:853 5:0.00427237 
-4 1:22.6 2:25.2 3:423.66667 4:853 5:0.00427237 
-4 1:22.54 2:25.16 3:424.6 4:852 5:0.004249921 
-4 1:22.54 2:25.16 3:427.4 4:853.6 5:0.004249921 
-4 1:22.54 2:25.14 3:421.8 4:845.6 5:0.00424652 
-4 1:22.525 2:25.1 3:426 4:834.25 5:0.004235829 
-4 1:22.5 2:25.04 3:421.8 4:826.4 5:0.004219178 
-4 1:22.5 2:25 3:419 4:819.6 5:0.004212392 
-4 1:22.5 2:25 3:419 4:829.6 5:0.004212392 
-4 1:22.5 2:25 3:419 4:824 5:0.004212392 
-4 1:22.5 2:24.912 3:419 4:814.2 5:0.004197464 
-4 1:22.5 2:24.89 3:419 4:813.5 5:0.004193733 
-4 1:22.5 2:24.89 3:419 4:813.8 5:0.004193733 
-4 1:22.5 2:24.89 3:419 4:811 5:0.004193733 
-4 1:22.478 2:24.87 3:419 4:804.6 5:0.004184704 
-4 1:22.456 2:24.83 3:419 4:807.8 5:0.004172308 
-4 1:22.5 2:24.856667 3:419 4:802.33333 5:0.004188079 
-4 1:22.4175 2:24.7475 3:419 4:796.75 5:0.004148566 
-4 1:22.456 2:24.81 3:419 4:794.4 5:0.004168925 
-4 1:22.39 2:24.7 3:419 4:790.6 5:0.004133586 
-4 1:22.4175 2:24.7225 3:419 4:789.75 5:0.004144348 
-4 1:22.39 2:24.7 3:419 4:782.2 5:0.004133586 
-4 1:20.29 2:23 3:419 4:453 5:0.003380029 
-4 1:20.29 2:23.2 3:419 4:470.4 5:0.003409582 
-4 1:20.31 2:23.2 3:416.2 4:466 5:0.003413822 
-4 1:21.133333 2:24.823333 3:444 4:747.33333 5:0.003845377 
-4 1:21.166667 2:24.858333 3:444 4:745.5 5:0.00385877 
-4 1:22.2 2:27.642857 3:535.71429 4:1137.8571 5:0.004576126 
-4 1:22.39 2:27.29 3:603.6 4:1064 5:0.004570212 
-4 1:22.39 2:27.2675 3:587.5 4:1065.25 5:0.004566416 
-4 1:22.39 2:27.2 3:575 4:1050.5 5:0.00455503 
-4 1:23.26 2:25.856667 3:338.33333 4:997.33333 5:0.004564605 
-4 1:23.2675 2:25.865 3:193 4:994.25 5:0.004568171 
-1.344974556924104 1:23.185714 2:25.528571 3:268.71429 4:899.28571 5:0.004485936 
-4 1:23.2 2:25.792 3:627.6 4:919.8 5:0.004536508 
-4 1:23.2 2:25.65 3:638 4:938.25 5:0.00451135 
-4 1:23.2 2:25.533333 3:634 4:922.16667 5:0.004490683 
-4 1:23.2 2:25.5 3:629 4:899 5:0.004484778 
-4 1:23.2 2:25.516667 3:557.66667 4:895.33333 5:0.00448773 
-4 1:20.6 2:24.083333 3:413 4:507.33333 5:0.003608936 
-4 1:20.6 2:24.1 3:414.6 4:514.6 5:0.003611448 
-4 1:20.6 2:24.175 3:407.5 4:522.25 5:0.003622752 
-4 1:20.6 2:24.2 3:406.6 4:525.6 5:0.003626521 
-4 1:20.6 2:24.2 3:399.5 4:528 5:0.003626521 
-4 1:20.956 2:25.39 3:444 4:717.8 5:0.003890816 
-4 1:21 2:25.39 3:444 4:720.75 5:0.003901421 
-4 1:21 2:25.412 3:444 4:721.4 5:0.003904823 
-4 1:21 2:25.39 3:444 4:718 5:0.003901421 
-4 1:21 2:25.356667 3:444 4:715.5 5:0.003896267 
-4 1:21 2:25.29 3:447.2 4:713 5:0.003885959 
-4 1:21 2:25.29 3:456.8 4:714.8 5:0.003885959 
-4 1:21.215 2:25.291667 3:462.33333 4:773.83333 5:0.003938201 
-4 1:21.2 2:25.29 3:464 4:777.75 5:0.003934293 
-4 1:22.2 2:26 3:608.25 4:946 5:0.004302279 
-4 1:22.29 2:25.963333 3:606.66667 4:950.33333 5:0.004319939 
-4 1:20.7 2:22.4175 3:426 4:460.25 5:0.003378833 
-4 1:20.7 2:22.5 3:423.66667 4:465.33333 5:0.003391335 
-4 1:20.7 2:22.463333 3:423.66667 4:472.66667 5:0.003385779 
-4 1:21.29 2:23.89 3:422.5 4:650.5 5:0.003735893 
-4 1:22.1 2:26.633333 3:459 4:1044 5:0.004380858 
-4 1:22.1 2:26.6 3:459 4:1036.5 5:0.004375336 
-4 1:22.05 2:26.575 3:469 4:1039 5:0.004357799 
-4 1:22.05 2:26.55 3:469 4:1039 5:0.00435367 
-4 1:22.7 2:26.89 3:531.25 4:1120 5:0.004588962 
-4 1:22.7 2:26.89 3:539 4:1113.6667 5:0.004588962 
-4 1:22.7 2:26.89 3:545.75 4:1104.75 5:0.004588962 
-4 1:22.675 2:26.865 3:604.75 4:1103.25 5:0.004577664 
-4 1:22.7 2:26.815 3:597.25 4:1102.75 5:0.004576069 
-4 1:22.7 2:26.7 3:528 4:1090 5:0.0045563 
-4 1:22.7 2:26.7 3:521 4:1086.25 5:0.0045563 
-4 1:22.7 2:26.666667 3:535.66667 4:1083.6667 5:0.00455057 
-4 1:22.675 2:26.575 3:533.25 4:1078.5 5:0.00452789 
-4 1:22.65 2:26.55 3:523.75 4:1064.75 5:0.004516692 
-4 1:22.666667 2:26.566667 3:524 4:1053 5:0.004524155 
-4 1:22.76 2:26.39 3:635.5 4:1022 5:0.004519554 
-4 1:22.856667 2:26.323333 3:676 4:1024.75 5:0.004534741 
-4 1:22.89 2:26.245 3:567.25 4:1020 5:0.004530356 
-4 1:22.89 2:26.2 3:582.5 4:1015.5 5:0.004522532 
-4 1:22.89 2:26.1 3:618.75 4:1007 5:0.004505145 
-4 1:22.89 2:26.175 3:579.25 4:997.5 5:0.004518185 
-4 1:22.89 2:26.133333 3:590.33333 4:1002 5:0.00451094 
-4 1:22.89 2:26.1 3:584.5 4:1000 5:0.004505145 
-4 1:22.89 2:26 3:564 4:997.75 5:0.004487759 
-4 1:22.29 2:26.1 3:112.75 4:898.5 5:0.004342837 
-4 1:22.29 2:26.1 3:503.5 4:892.5 5:0.004342837 
-4 1:22.2675 2:26.1725 3:567.5 4:883.5 5:0.004348983 
-4 1:22.29 2:26.29 3:569.25 4:879.25 5:0.004374674 
-4 1:22.29 2:26.26 3:490.66667 4:887.33333 5:0.004369647 
-4 1:22.29 2:26.2 3:487.33333 4:890 5:0.004359593 
-4 1:22.29 2:26.2 3:500 4:891.25 5:0.004359593 
-4 1:22.29 2:26.2 3:524 4:891 5:0.004359593 
-4 1:22.29 2:26.175 3:545.33333 4:881 5:0.004355404 
-4 1:22.315 2:26.1 3:520.6 4:866.25 5:0.004349495 
-4 1:22.29 2:26.1 3:509 4:864.66667 5:0.004342837 
-4 1:22.34 2:26.1 3:476.5 4:870 5:0.004356163 
-4 1:22.315 2:26.1 3:471.5 4:862 5:0.004349495 
-4 1:22.29 2:26.1 3:464 4:857.5 5:0.004342837 
-4 1:22.29 2:26.1 3:464 4:851.33333 5:0.004342837 
-4 1:22.29 2:26.1 3:459 4:846.75 5:0.004342837 
-4 1:22.29 2:26.1 3:459 4:844.66667 5:0.004342837 
-4 1:22.29 2:26.1 3:454.75 4:843 5:0.004342837 
-4 1:22.29 2:26.1 3:444 4:840.5 5:0.004342837 
-4 1:22.29 2:26.025 3:456 4:831.25 5:0.004330271 
-4 1:22.29 2:26 3:461 4:829 5:0.004326082 
-4 1:22.29 2:26 3:461.5 4:825.5 5:0.004326082 
-4 1:22.29 2:26 3:464 4:813.66667 5:0.004326082 
-4 1:22.29 2:26 3:476.5 4:819 5:0.004326082 
-4 1:22.29 2:26 3:489 4:819.5 5:0.004326082 
-4 1:22.29 2:25.945 3:489 4:810 5:0.004316867 
-4 1:22.2675 2:25.89 3:451 4:795 5:0.004301716 
-4 1:22.2675 2:25.89 3:449.5 4:785 5:0.004301716 
-4 1:22.2675 2:25.9175 3:449.5 4:795 5:0.004306317 
-4 1:22.29 2:25.926667 3:453 4:795.25 5:0.004313796 
-4 1:22.245 2:25.89 3:451.75 4:797.5 5:0.004295788 
-4 1:22.29 2:25.89 3:459 4:797 5:0.004307653 
-4 1:22.2675 2:25.89 3:459 4:795.5 5:0.004301716 
-4 1:22.2675 2:25.865 3:464 4:784.5 5:0.004297534 
-4 1:22.29 2:25.89 3:454 4:775.5 5:0.004307653 
-4 1:22.23 2:25.823333 3:454 4:777.33333 5:0.004280711 
-4 1:22.2225 2:25.8925 3:448 4:775.5 5:0.004290283 
-4 1:20.175 2:18.6 3:433 4:437.5 5:0.002711144 
-4 1:20.175 2:18.675 3:422.5 4:440.75 5:0.002722124 
-4 1:20.2 2:18.7 3:419 4:442 5:0.002730021 
-4 1:20.175 2:18.7 3:419 4:448.5 5:0.002725784 
-4 1:20.1 2:18.745 3:419 4:451 5:0.002719666 
-4 1:20.133333 2:18.7 3:409 4:458.66667 5:0.002718736 
-4 1:21.7225 2:20.5 3:490.25 4:816 5:0.003289448 
-4 1:21.7 2:20.5 3:479 4:813.25 5:0.003284903 
-4 1:21.7 2:20.39 3:474 4:806 5:0.003267184 
-4 1:21.7 2:20.525 3:492.75 4:804.5 5:0.00328893 
-4 1:21.5 2:19.315 3:546 4:647 5:0.003056258 
-4 1:21.5 2:19.39 3:573 4:652.66667 5:0.003068184 
-4 1:21.55 2:19.34 3:560.75 4:663.75 5:0.003069662 
-4 1:21.6 2:19.356667 3:524 4:652 5:0.003081782 
-4 1:21.6 2:19.29 3:537 4:653 5:0.003071115 
-4 1:21.625 2:19.2225 3:548.75 4:649.5 5:0.003065023 
-4 1:20.7 2:18.89 3:611.5 4:452.25 5:0.002844726 
-4 1:20.7 2:18.89 3:1546.3333 4:455.33333 5:0.002844726 
-4 1:20.745 2:18.89 3:1451.75 4:453 5:0.002852659 
-4 1:20.76 2:18.856667 3:829 4:452.66667 5:0.002850246 
-4 1:21.745 2:18.2 3:324.75 4:458.25 5:0.002922692 
-4 1:21.89 2:18.1 3:329.33333 4:460 5:0.002932538 
-4 1:22.245 2:17.89 3:347.5 4:456.75 5:0.00296207 
-4 1:22.29 2:17.815 3:357.5 4:455.4 5:0.002957722 
-4 1:22.4175 2:17.7 3:355.75 4:452.25 5:0.002961528 
-4 1:19.4175 2:30.4175 3:255 4:425.66667 5:0.004240476 
-4 1:19.5 2:30.426667 3:317.25 4:428.75 5:0.004263736 
-4 1:19.525 2:27.2925 3:397 4:484.75 5:0.003827824 
-4 1:19.525 2:27.365 3:392.5 4:486.75 5:0.003838055 
-4 1:19.566667 2:27.566667 3:393.66667 4:492.33333 5:0.003876606 
-4 1:21.5 2:33.163333 3:31 4:1243.3333 5:0.005266065 
-4 1:21.2 2:32.9 3:13 4:1138.4 5:0.00512792 
-4 1:21.166667 2:32.79 3:167 4:1117.3333 5:0.005100102 
-4 1:21.7 2:37 4:1573 5:0.005954158 
-4 1:21.633333 2:36.933333 4:1544.3333 5:0.005918916 
-4 1:21.533333 2:36.79 4:1508.3333 5:0.005859422 
-4 1:21.5 2:36.7 4:1474.5 5:0.005832925 
-4 1:21.5 2:36.7 4:1461.5 5:0.005832925 
-0.527380533621299 1:21.5 2:36.7 4:1462.5 5:0.005832925 
-2.852019026358094 1:21.29 2:36.5 4:1390 5:0.005725985 
-4 1:21.1 2:36.2 4:1298 5:0.005612064 
-4 1:21.1 2:36.2 4:1303 5:0.005612064 
-4 1:20.315 2:33.345 3:426 4:474.25 5:0.004919969 
-4 1:20.356667 2:33.4 3:419 4:482.33333 5:0.004940953 
