svm_type c_svc
kernel_type linear
nr_class 2
total_sv 116
rho 24.4537
label 1 0
probA -0.333266
probB 0.729791
nr_sv 59 57
SV
2.162497425076173 1:23.525 2:28 3:454 4:1055.5 5:0.005026367 
4 1:22.865 2:27.84 3:432.75 4:1077.25 5:0.004800476 
4 1:22.6 2:25.575 3:429 4:897 5:0.00433639 
4 1:22.6 2:25.15 3:428.2 4:847.4 5:0.004263835 
4 1:22.6 2:25.04 3:432.2 4:837.2 5:0.004245059 
4 1:22.6 2:25.05 3:431.75 4:834.75 5:0.004246766 
0.686589395774392 1:22.6 2:25.06 3:429.2 4:832.4 5:0.004248472 
4 1:22.6 2:25 3:433 4:832 5:0.004238231 
4 1:22.6 2:25 3:433 4:836.25 5:0.004238231 
4 1:22.6 2:25 3:428.2 4:832.6 5:0.004238231 
4 1:22.56 2:24.912 3:433 4:819.8 5:0.004212896 
4 1:22.6 2:24.9175 3:433 4:818 5:0.00422415 
4 1:22.58 2:25.06 3:433 4:812.8 5:0.004243281 
4 1:22.5 2:24.865 3:433 4:816.5 5:0.004189492 
4 1:22.5 2:24.9175 3:433 4:811.5 5:0.004198397 
4 1:22.525 2:24.89 3:426 4:814.25 5:0.004200151 
4 1:22.52 2:24.976 3:430.2 4:824 5:0.004213473 
4 1:22.6 2:25 3:433 4:837 5:0.004238231 
4 1:22.6 2:25.1 3:433 4:854.75 5:0.0042553 
4 1:22.6 2:25.1 3:428.33333 4:850.33333 5:0.0042553 
4 1:22.6 2:25.08 3:424.6 4:845.4 5:0.004251886 
4 1:22.6 2:25.166667 3:433 4:854.33333 5:0.00426668 
4 1:22.39 2:24.625 3:419 4:773.75 5:0.004120952 
4 1:22.39 2:24.912 3:418.6 4:782.8 5:0.004169303 
4 1:22.39 2:25.245 3:415 4:796.5 5:0.004225413 
4 1:22.39 2:25.0925 3:310.25 4:809 5:0.004199716 
4 1:20.29 2:22.79 3:217.2 4:441.6 5:0.003349002 
4 1:20.29 2:22.856667 3:413.66667 4:442.66667 5:0.003358851 
4 1:20.29 2:22.956 3:433 4:445.6 5:0.003373528 
4 1:20.31 2:23.2 3:415 4:470.8 5:0.003413822 
4 1:20.39 2:23.2 3:412.2 4:473 5:0.003430829 
4 1:20.39 2:23.34 3:403.5 4:479.75 5:0.003451647 
4 1:20.39 2:23.434 3:397.4 4:494.2 5:0.003465625 
4 1:20.39 2:23.5 3:399.5 4:498.75 5:0.003475441 
4 1:20.39 2:23.66 3:397.4 4:501 5:0.003499236 
4 1:20.5 2:23.89 3:407.66667 4:523.66667 5:0.003557659 
4 1:20.5 2:23.978 3:412.2 4:525.2 5:0.003570839 
4 1:20.5 2:24.1 3:413 4:538.33333 5:0.003589112 
0.4005412553841916 1:20.52 2:24.236 3:407.4 4:549.6 5:0.003613966 
1.895694750644788 1:20.7 2:24.5 3:419 4:608.75 5:0.003694578 
4 1:20.79 2:24.79 3:433 4:668.2 5:0.003759479 
4 1:20.815 2:24.815 3:433 4:683.5 5:0.003769124 
3.026214796243699 1:21.2 2:25.763333 3:453 4:800.33333 5:0.004008403 
4 1:21.7 2:28.1 3:484 4:1101.6667 5:0.004511553 
4 1:21.87 2:28.252 3:493 4:1142 5:0.004583846 
4 1:22 2:28.2675 3:538 4:1194 5:0.004623182 
4 1:23.29 2:27.4175 3:526.75 4:1038.5 5:0.004851143 
4 1:23.29 2:27.963333 3:513 4:1096.3333 5:0.004948489 
4 1:23.29 2:28.575 3:478 4:1132.25 5:0.005057611 
4 1:22.7 2:31.2 3:433 4:1364 5:0.005330797 
4 1:20.39 2:23.7 3:311.75 4:474.75 5:0.003505185 
4 1:20.4175 2:23.7225 3:426 4:473.5 5:0.003514529 
4 1:20.4725 2:23.7675 3:433 4:473.75 5:0.003533277 
4 1:20.5 2:23.89 3:419 4:491 5:0.003557659 
4 1:20.55 2:23.945 3:415.5 4:493.25 5:0.003576976 
4 1:24.05 2:26.34 3:774.5 4:1182 5:0.004878973 
4 1:24.1 2:26.4725 3:775.75 4:1213.75 5:0.004918568 
4 1:24.1 2:25.958 3:783.4 4:1173.4 5:0.004822233 
4 1:24.2 2:25.89 3:797.5 4:1152.5 5:0.004838673 
-4 1:22.6 2:25.066667 3:428.33333 4:849.33333 5:0.00424961 
-4 1:22.6 2:25.2 3:422.5 4:853 5:0.00427237 
-4 1:22.6 2:25.2 3:423.66667 4:853 5:0.00427237 
-4 1:22.54 2:25.16 3:424.6 4:852 5:0.004249921 
-4 1:22.54 2:25.16 3:427.4 4:853.6 5:0.004249921 
-4 1:22.54 2:25.14 3:421.8 4:845.6 5:0.00424652 
-4 1:22.525 2:25.1 3:426 4:834.25 5:0.004235829 
-4 1:22.5 2:25.04 3:421.8 4:826.4 5:0.004219178 
-4 1:22.5 2:25 3:419 4:819.6 5:0.004212392 
-4 1:22.5 2:25 3:419 4:829.6 5:0.004212392 
-4 1:22.5 2:25 3:419 4:824 5:0.004212392 
-4 1:22.5 2:24.912 3:419 4:814.2 5:0.004197464 
-4 1:22.5 2:24.89 3:419 4:813.5 5:0.004193733 
-4 1:22.5 2:24.89 3:419 4:813.8 5:0.004193733 
-4 1:22.5 2:24.89 3:419 4:811 5:0.004193733 
-4 1:22.478 2:24.87 3:419 4:804.6 5:0.004184704 
-4 1:22.456 2:24.83 3:419 4:807.8 5:0.004172308 
-4 1:22.5 2:24.856667 3:419 4:802.33333 5:0.004188079 
-4 1:22.4175 2:24.7475 3:419 4:796.75 5:0.004148566 
-4 1:22.456 2:24.81 3:419 4:794.4 5:0.004168925 
-4 1:22.39 2:24.7 3:419 4:790.6 5:0.004133586 
-4 1:22.4175 2:24.7225 3:419 4:789.75 5:0.004144348 
-4 1:22.39 2:24.7 3:419 4:782.2 5:0.004133586 
-4 1:20.29 2:23 3:419 4:453 5:0.003380029 
-4 1:20.315 2:23.1 3:419 4:459.25 5:0.003400083 
-4 1:20.29 2:23.2 3:419 4:470.4 5:0.003409582 
-4 1:20.31 2:23.2 3:416.2 4:466 5:0.003413822 
-4 1:21.133333 2:24.823333 3:444 4:747.33333 5:0.003845377 
-4 1:21.166667 2:24.858333 3:444 4:745.5 5:0.00385877 
-4 1:22.2 2:27.642857 3:535.71429 4:1137.8571 5:0.004576126 
-4 1:22.39 2:27.29 3:603.6 4:1064 5:0.004570212 
-4 1:22.39 2:27.2675 3:587.5 4:1065.25 5:0.004566416 
-4 1:22.39 2:27.2 3:575 4:1050.5 5:0.00455503 
-4 1:23.26 2:25.856667 3:338.33333 4:997.33333 5:0.004564605 
-4 1:23.2 2:25.792 3:627.6 4:919.8 5:0.004536508 
-4 1:23.2 2:25.65 3:638 4:938.25 5:0.00451135 
-4 1:23.2 2:25.533333 3:634 4:922.16667 5:0.004490683 
-4 1:23.2 2:25.5 3:629 4:899 5:0.004484778 
-4 1:23.2 2:25.516667 3:557.66667 4:895.33333 5:0.00448773 
-0.1715376231227521 1:22.39 2:30.075 4:1186.5 5:0.005040391 
-4 1:21.7 2:28.79 4:950.5 5:0.004623159 
-4 1:20.6 2:24.083333 3:413 4:507.33333 5:0.003608936 
-4 1:20.6 2:24.1 3:414.6 4:514.6 5:0.003611448 
-4 1:20.6 2:24.175 3:407.5 4:522.25 5:0.003622752 
-4 1:20.6 2:24.2 3:406.6 4:525.6 5:0.003626521 
-4 1:20.6 2:24.2 3:399.5 4:528 5:0.003626521 
-4 1:20.956 2:25.39 3:444 4:717.8 5:0.003890816 
-4 1:21 2:25.39 3:444 4:720.75 5:0.003901421 
-4 1:21 2:25.412 3:444 4:721.4 5:0.003904823 
-4 1:21 2:25.39 3:444 4:718 5:0.003901421 
-4 1:21 2:25.356667 3:444 4:715.5 5:0.003896267 
-4 1:21 2:25.29 3:447.2 4:713 5:0.003885959 
-4 1:21 2:25.29 3:456.8 4:714.8 5:0.003885959 
-4 1:21.215 2:25.291667 3:462.33333 4:773.83333 5:0.003938201 
-4 1:21.2 2:25.29 3:464 4:777.75 5:0.003934293 
-4 1:22.2 2:26 3:608.25 4:946 5:0.004302279 
-4 1:22.29 2:25.963333 3:606.66667 4:950.33333 5:0.004319939 
