svm_type c_svc
kernel_type linear
nr_class 2
total_sv 286
rho 3.23228
label 1 0
probA -0.667927
probB 1.86278
nr_sv 144 142
SV
4 1:23.65 2:27.05 3:464 4:900.5 5:0.004891492 
4 1:23.29 2:28.5 3:467.75 4:1112 5:0.005044229 
4 1:23.272 2:28.6 3:464 4:1126.8 5:0.005056527 
4 1:23.2 2:28.65 3:469 4:1124.25 5:0.005043272 
4 1:23.02 2:27.556 3:435 4:1042.6 5:0.004796284 
4 1:23 2:28.081667 3:429 4:1059.6 5:0.004882538 
4 1:22.981667 2:27.908333 3:429 4:1061.6667 5:0.004846741 
4 1:22.981667 2:28.066667 3:429 4:1070.3333 5:0.004874454 
1.175859520025506 1:22.865 2:27.84 3:432.75 4:1077.25 5:0.004800476 
4 1:22.79 2:27.365 3:438 4:1020.4 5:0.00469639 
4 1:22.79 2:27.2 3:444 4:1018 5:0.004667861 
4 1:22.6 2:25.05 3:431.75 4:834.75 5:0.004246766 
4 1:22.6 2:25.06 3:429.2 4:832.4 5:0.004248472 
4 1:22.6 2:25 3:428.2 4:832.6 5:0.004238231 
4 1:22.58 2:25.08 3:433 4:821.5 5:0.00424669 
4 1:22.56 2:24.912 3:433 4:819.8 5:0.004212896 
2.034919676832842 1:22.5 2:24.9175 3:433 4:811.5 5:0.004198397 
4 1:22.525 2:24.89 3:426 4:814.25 5:0.004200151 
4 1:22.6 2:25.021429 3:433 4:841.16667 5:0.004241889 
4 1:22.39 2:24.7225 3:419 4:772.25 5:0.004137377 
4 1:22.39 2:24.717083 3:419 4:772.925 5:0.004136464 
4 1:22.39 2:24.625 3:419 4:773.75 5:0.004120952 
4 1:22.39 2:25.0925 3:310.25 4:809 5:0.004199716 
4 1:20.29 2:22.79 3:217.2 4:441.6 5:0.003349002 
4 1:20.29 2:22.856667 3:413.66667 4:442.66667 5:0.003358851 
4 1:20.29 2:22.956 3:433 4:445.6 5:0.003373528 
4 1:20.31 2:23.2 3:415 4:470.8 5:0.003413822 
4 1:20.33 2:23.2 3:412.2 4:476.6 5:0.003418066 
4 1:20.39 2:23.2 3:412.2 4:473 5:0.003430829 
4 1:20.365 2:23.245 3:413.5 4:473 5:0.003432187 
4 1:20.39 2:23.34 3:403.5 4:479.75 5:0.003451647 
4 1:20.39 2:23.434 3:397.4 4:494.2 5:0.003465625 
4 1:20.39 2:23.5 3:399.5 4:498.75 5:0.003475441 
4 1:20.39 2:23.66 3:397.4 4:501 5:0.003499236 
4 1:20.39 2:23.7 3:398.33333 4:507 5:0.003505185 
4 1:20.39 2:23.7 3:399.5 4:518 5:0.003505185 
4 1:20.445 2:23.8175 3:403 4:520 5:0.003534713 
4 1:20.5 2:23.978 3:412.2 4:525.2 5:0.003570839 
4 1:20.5 2:24.033333 3:413 4:531.33333 5:0.003579127 
4 1:20.5 2:24.1 3:412.2 4:536.4 5:0.003589112 
4 1:20.58 2:24.39 3:419 4:583 5:0.003650629 
4 1:20.6 2:24.39 3:419 4:585 5:0.003655161 
4 1:20.7 2:24.37 3:419 4:584.8 5:0.003674858 
4 1:20.79 2:24.79 3:433 4:668.2 5:0.003759479 
4 1:20.79 2:24.79 3:433 4:679.2 5:0.003759479 
4 1:21.777143 2:28.085714 3:499 4:1128.8571 5:0.00453071 
4 1:21.89 2:28.31 3:500.6 4:1168 5:0.004598979 
4 1:23.2 2:25.68 3:611.6 4:875.5 5:0.004516665 
4 1:23.1 2:29.7 3:466.5 4:1224.6667 5:0.00519787 
4 1:23 2:30.12 3:461 4:1280.2 5:0.005239927 
4 1:22.89 2:30.445 3:454 4:1321.5 5:0.005261484 
4 1:22.745 2:31.29 3:438 4:1381 5:0.005361046 
4 1:22.6 2:30.4725 3:419 4:1251.5 5:0.005173697 
4 1:20.39 2:23.7 3:311.75 4:474.75 5:0.003505185 
4 1:20.4175 2:23.7225 3:426 4:473.5 5:0.003514529 
4 1:20.4725 2:23.7675 3:433 4:473.75 5:0.003533277 
4 1:20.5 2:23.89 3:419 4:492.4 5:0.003557659 
4 1:20.5 2:23.89 3:419 4:491 5:0.003557659 
4 1:20.55 2:23.945 3:415.5 4:493.25 5:0.003576976 
4 1:20.525 2:24 3:414.6 4:506.2 5:0.003579683 
4 1:20.7 2:24.7 3:405 4:565.33333 5:0.003724918 
4 1:20.712857 2:24.79 3:405 4:581.14286 5:0.003741553 
4 1:20.754 2:24.87 3:413.4 4:588.2 5:0.003763282 
4 1:20.84 2:25.1975 3:433 4:649.5 5:0.00383351 
4 1:21.215 2:25.215 3:456.5 4:746.16667 5:0.003926188 
4 1:21.89 2:30.356667 3:429 4:802 5:0.004934099 
0.9329469919297395 1:21.89 2:30.356667 3:421.5 4:797.5 5:0.004934099 
4 1:21.89 2:30.23 3:419 4:769.33333 5:0.004913348 
4 1:21.865 2:29.29 3:419 4:636.25 5:0.004752084 
4 1:21.89 2:29.245 3:419 4:638.5 5:0.004752031 
4 1:21.79 2:28.525 3:419 4:595.25 5:0.004605742 
4 1:21.7 2:28.5 3:279.33333 4:585 5:0.004576247 
4 1:20.6 2:22.195 3:358 4:647 5:0.003324453 
4 1:20.7 2:22.2225 3:418 4:708.5 5:0.003349284 
4 1:21 2:22.696667 3:447.33333 4:735.33333 5:0.003485245 
4 1:23.675 2:22.745 3:289 4:795.75 5:0.004114101 
4 1:24.39 2:23.3925 3:236.5 4:852.5 5:0.004419017 
4 1:24.2 2:23.745 3:419.75 4:697.25 5:0.004434928 
4 1:23.7 2:24.43 3:87 4:599.66667 5:0.004427757 
4 1:22.39 2:26 3:191.5 4:534.5 5:0.004352666 
4 1:22.365 2:26.2675 3:407.25 4:535 5:0.004391036 
4 1:22.365 2:26.29 3:466.75 4:539.25 5:0.004394824 
4 1:22.323333 2:26.6 3:454 4:542.66667 5:0.004435678 
4 1:22.29 2:26.6 3:454 4:543.33333 5:0.004426625 
4 1:22.29 2:26.815 3:439 4:556.5 5:0.004462661 
4 1:22.2675 2:26.865 3:439 4:561.75 5:0.004464879 
4 1:22.2675 2:26.945 3:439 4:570.25 5:0.004478271 
4 1:22.26 2:26.963333 3:439 4:577.33333 5:0.004479279 
4 1:22.29 2:27.025 3:439 4:577.75 5:0.004497863 
4 1:22.2225 2:27.075 3:449.5 4:584.25 5:0.004487632 
4 1:22.2 2:27.2225 3:439 4:596.5 5:0.004506034 
4 1:22.075 2:27.525 3:435 4:598.4 5:0.004521648 
4 1:22.1 2:27.6 3:429 4:599.5 5:0.004541024 
4 1:22.033333 2:27.566667 3:429 4:606 5:0.004516969 
4 1:22 2:27.9175 3:423.66667 4:630.66667 5:0.004565519 
4 1:21.963333 2:27.926667 3:419 4:625.66667 5:0.004556749 
4 1:21.89 2:27.89 3:279.33333 4:603.66667 5:0.004530253 
4 1:21.29 2:25.345 3:328.5 4:519 5:0.003964875 
4 1:21.633333 2:26.133333 3:507.66667 4:577.33333 5:0.004176492 
4 1:22.9975 2:24.7225 3:738.5 4:600 5:0.004293795 
4 1:23.29 2:24.26 3:759.66667 4:600 5:0.004288615 
4 1:23.356667 2:24.926667 3:792 4:651.33333 5:0.004425205 
4 1:23.865 2:25.4725 3:812.5 4:706.75 5:0.004664528 
4 1:23.945 2:25.1 3:802 4:660 5:0.004618132 
4 1:23.945 2:25.1 3:793 4:662.5 5:0.004618132 
4 1:23.856667 2:24.963333 3:763.33333 4:601.66667 5:0.004568298 
4 1:23.815 2:25.125 3:743.25 4:603 5:0.004586508 
4 1:23.79 2:25.2 3:736 4:595 5:0.004593335 
4 1:23.79 2:25.666667 3:438.5 4:542.5 5:0.004679037 
4 1:23.7 2:25.89 3:651.5 4:551.5 5:0.004694368 
4 1:23.7 2:25.89 3:646 4:537.75 5:0.004694368 
4 1:23.5 2:26.175 3:617.75 4:546 5:0.004689155 
4 1:23.5 2:26.72 3:598.25 4:555.25 5:0.004787541 
4 1:23.5 2:26.92 3:585 4:571 5:0.004823654 
4 1:23.5 2:27.1 3:567.33333 4:573.33333 5:0.004856159 
4 1:23.29 2:27.2425 3:563 4:560 5:0.004819939 
4 1:23.29 2:27.39 3:552 4:560.66667 5:0.004846239 
4 1:23.29 2:27.463333 3:552.33333 4:563.33333 5:0.004859316 
4 1:23.175 2:27.8675 3:531 4:563.5 5:0.004896978 
4 1:23.075 2:28.1 3:534 4:558.75 5:0.004908151 
4 1:22.9725 2:28.445 3:495.25 4:568 5:0.00493792 
4 1:22.84 2:28.65 3:489 4:573.75 5:0.004933715 
4 1:22.675 2:29.125 3:479 4:575 5:0.004965832 
4 1:22.39 2:29.84 3:464 4:595.75 5:0.00500069 
4 1:22.39 2:30 3:454 4:586 5:0.00502772 
4 1:22.29 2:30.1 3:449.66667 4:598 5:0.005013771 
4 1:21.5 2:32.09 3:440.25 4:624.75 5:0.005094232 
4 1:21.5 2:32.09 3:429 4:615 5:0.005094232 
4 1:21.5 2:32.09 3:429 4:606.75 5:0.005094232 
4 1:21.5 2:32.09 3:429 4:603 5:0.005094232 
4 1:21.29 2:32.79 4:577 5:0.005139165 
4 1:20.675 2:25.5475 3:393 4:882.33333 5:0.003847551 
0.6478526663453794 1:20.79 2:25.79 3:394.5 4:905 5:0.003912086 
4 1:20.566667 2:30.5 3:301 4:785.66667 5:0.004568094 
4 1:20.945 2:30.89 3:419 4:856.75 5:0.004736841 
4 1:21.7 2:32.895 3:37 4:1143 5:0.005287952 
4 1:22.15 2:34.245 3:438 4:1485.5 5:0.005661626 
4 1:22.15 2:34.245 3:438 4:1475 5:0.005661626 
4 1:22.2 2:34.345 3:438 4:1522 5:0.00569579 
4 1:22.175 2:34.425 3:433 4:1809.25 5:0.005700412 
4 1:22.2 2:34.345 3:433 4:1669.5 5:0.00569579 
4 1:22.2 2:34.26 3:433 4:1699.6667 5:0.005681564 
4 1:22.2 2:34.345 3:429.5 4:1652 5:0.00569579 
4 1:22.2 2:34.345 3:419 4:1600.5 5:0.00569579 
-4 1:22.6 2:25.066667 3:428.33333 4:849.33333 5:0.00424961 
-4 1:22.6 2:25.2 3:422.5 4:853 5:0.00427237 
-4 1:22.6 2:25.2 3:423.66667 4:853 5:0.00427237 
-4 1:22.54 2:25.16 3:424.6 4:852 5:0.004249921 
-4 1:22.54 2:25.16 3:427.4 4:853.6 5:0.004249921 
-4 1:22.54 2:25.14 3:421.8 4:845.6 5:0.00424652 
-4 1:22.525 2:25.1 3:426 4:834.25 5:0.004235829 
-4 1:22.5 2:25 3:419 4:819.6 5:0.004212392 
-4 1:22.5 2:25 3:419 4:829.6 5:0.004212392 
-4 1:22.5 2:25 3:419 4:824 5:0.004212392 
-4 1:22.5 2:24.912 3:419 4:814.2 5:0.004197464 
-4 1:22.5 2:24.89 3:419 4:813.5 5:0.004193733 
-4 1:22.5 2:24.89 3:419 4:813.8 5:0.004193733 
-4 1:22.5 2:24.89 3:419 4:811 5:0.004193733 
-4 1:22.478 2:24.87 3:419 4:804.6 5:0.004184704 
-4 1:22.456 2:24.83 3:419 4:807.8 5:0.004172308 
-4 1:22.5 2:24.856667 3:419 4:802.33333 5:0.004188079 
-4 1:22.4175 2:24.7475 3:419 4:796.75 5:0.004148566 
-4 1:22.456 2:24.81 3:419 4:794.4 5:0.004168925 
-4 1:22.39 2:24.7 3:419 4:790.6 5:0.004133586 
-4 1:22.4175 2:24.7225 3:419 4:789.75 5:0.004144348 
-4 1:22.39 2:24.7 3:419 4:782.2 5:0.004133586 
-4 1:20.29 2:23 3:419 4:453 5:0.003380029 
-4 1:20.315 2:23.1 3:419 4:459.25 5:0.003400083 
-4 1:20.29 2:23.2 3:419 4:470.4 5:0.003409582 
-4 1:20.31 2:23.2 3:416.2 4:466 5:0.003413822 
-4 1:21.133333 2:24.823333 3:444 4:747.33333 5:0.003845377 
-4 1:21.166667 2:24.858333 3:444 4:745.5 5:0.00385877 
-4 1:22.2 2:27.642857 3:535.71429 4:1137.8571 5:0.004576126 
-4 1:22.39 2:27.29 3:603.6 4:1064 5:0.004570212 
-4 1:22.39 2:27.2675 3:587.5 4:1065.25 5:0.004566416 
-4 1:22.39 2:27.2 3:575 4:1050.5 5:0.00455503 
-4 1:23.26 2:25.856667 3:338.33333 4:997.33333 5:0.004564605 
-4 1:23.2 2:25.792 3:627.6 4:919.8 5:0.004536508 
-4 1:23.2 2:25.65 3:638 4:938.25 5:0.00451135 
-4 1:23.2 2:25.533333 3:634 4:922.16667 5:0.004490683 
-4 1:23.2 2:25.5 3:629 4:899 5:0.004484778 
-4 1:23.2 2:25.516667 3:557.66667 4:895.33333 5:0.00448773 
-4 1:20.6 2:24.083333 3:413 4:507.33333 5:0.003608936 
-4 1:20.6 2:24.1 3:414.6 4:514.6 5:0.003611448 
-4 1:20.6 2:24.175 3:407.5 4:522.25 5:0.003622752 
-4 1:20.6 2:24.2 3:406.6 4:525.6 5:0.003626521 
-4 1:20.6 2:24.2 3:399.5 4:528 5:0.003626521 
-4 1:20.956 2:25.39 3:444 4:717.8 5:0.003890816 
-4 1:21 2:25.39 3:444 4:720.75 5:0.003901421 
-4 1:21 2:25.412 3:444 4:721.4 5:0.003904823 
-4 1:21 2:25.39 3:444 4:718 5:0.003901421 
-4 1:21 2:25.356667 3:444 4:715.5 5:0.003896267 
-4 1:21 2:25.29 3:447.2 4:713 5:0.003885959 
-4 1:21 2:25.29 3:456.8 4:714.8 5:0.003885959 
-4 1:21.215 2:25.291667 3:462.33333 4:773.83333 5:0.003938201 
-4 1:21.2 2:25.29 3:464 4:777.75 5:0.003934293 
-4 1:22.2 2:26 3:608.25 4:946 5:0.004302279 
-4 1:22.29 2:25.963333 3:606.66667 4:950.33333 5:0.004319939 
-4 1:21.89 2:31.55 3:436.5 4:1047 5:0.00512966 
-4 1:21.89 2:31.36 3:434 4:1031 5:0.005098515 
-4 1:21.89 2:31.125 3:432.75 4:977.5 5:0.005059998 
-4 1:20.6 2:21.865 3:454 4:652.5 5:0.003274764 
-4 1:20.6 2:22.2 3:442.75 4:681.75 5:0.003325206 
-4 1:20.6 2:22.26 3:444 4:702.33333 5:0.003334241 
-4 1:20.633333 2:22.26 3:444 4:707 5:0.003341137 
-4 1:23.7225 2:22.815 3:289 4:835 5:0.004138745 
-4 1:23.7225 2:22.815 3:289 4:835 5:0.004138745 
-4 1:24.075 2:22.4725 3:289 4:794.5 5:0.004164093 
-4 1:24.2 2:23.0225 3:497 4:722 5:0.004299052 
-4 1:24.2 2:23.7 3:630 4:734 5:0.004426464 
-4 1:24.2 2:23.745 3:690.5 4:729 5:0.004434928 
-4 1:21.29 2:25.496667 3:499.33333 4:525 5:0.003988753 
-4 1:21.29 2:25.463333 3:510.33333 4:528.66667 5:0.003983505 
-4 1:22.65 2:24.8975 3:726.75 4:585 5:0.004233654 
-4 1:22.666667 2:24.996667 3:737 4:594 5:0.004254963 
-4 1:22.7 2:24.9725 3:723.5 4:598 5:0.004259487 
-4 1:22.7 2:25 3:707 4:595.5 5:0.00426421 
-4 1:22.7225 2:25.175 3:720.5 4:604.5 5:0.004300171 
-4 1:22.7225 2:25.0475 3:714.5 4:613 5:0.004278243 
-4 1:23.7675 2:25.675 3:654 4:547 5:0.004674187 
-4 1:23.7675 2:25.7475 3:668.5 4:545 5:0.004687486 
-4 1:23.7 2:25.89 3:680.33333 4:564 5:0.004694368 
-4 1:23.7225 2:25.9725 3:664.75 4:567.75 5:0.004715872 
-4 1:23.7 2:25.89 3:675.25 4:569.5 5:0.004694368 
-4 1:23.745 2:26 3:669 4:571.5 5:0.00472735 
-4 1:23.7 2:26.075 3:667.25 4:564.75 5:0.004728167 
-4 1:23.7 2:26 3:655.66667 4:563.66667 5:0.004714465 
-4 1:21.445 2:32.145 3:438 4:599.5 5:0.005085734 
-4 1:21.39 2:32.09 3:441 4:600 5:0.005059743 
-4 1:20.39 2:36 3:345 4:517 5:0.00533995 
-4 1:20.5 2:36 3:362.5 4:518 5:0.005376649 
-4 1:20.7 2:35.03 3:387.33333 4:513.66667 5:0.005296013 
-4 1:21.6 2:28.89 3:319.75 4:639.25 5:0.004610839 
-4 1:21.633333 2:28.856667 3:340 4:637 5:0.00461495 
-4 1:21.675 2:28.865 3:357 4:638 5:0.004628159 
-4 1:21.7 2:28.815 3:392 4:640.5 5:0.004627203 
-4 1:21.79 2:28.7 3:360 4:639 5:0.004634208 
-4 1:21.815 2:28.7 3:337 4:650 5:0.004641344 
-3.526619864883738 1:21.89 2:29 3:257 4:638 5:0.004711919 
-4 1:21.963333 2:28.89 3:347 4:634.33333 5:0.004715127 
-4 1:22 2:28.815 3:345.66667 4:637 5:0.004713405 
-4 1:22.075 2:28.84 3:357.8 4:642.75 5:0.004739315 
-4 1:21.7 2:29.5 3:342 4:627 5:0.004738041 
-4 1:21.79 2:29.365 3:415.5 4:632.5 5:0.004742405 
-4 1:21.9725 2:29.175 3:314.66667 4:630.33333 5:0.004764682 
-4 1:22 2:29.166667 3:370.75 4:636.5 5:0.00477137 
-4 1:22.1 2:29.1 3:329 4:628 5:0.004789719 
-4 1:22.1 2:29.133333 3:385 4:626.33333 5:0.004795248 
-4 1:22.125 2:29.1 3:390.5 4:632 5:0.004797078 
-4 1:22.175 2:28.9975 3:351.75 4:624.5 5:0.004794748 
-4 1:22.2 2:28.926667 3:419 4:628.33333 5:0.004790291 
-4 1:22.2675 2:28.89 3:420.5 4:629 5:0.004804027 
-4 1:22.29 2:28.89 3:415.5 4:630 5:0.004810662 
-4 1:22.315 2:28.79 3:372.75 4:625.5 5:0.004801237 
-4 1:22.39 2:28.7 3:315.66667 4:632.66667 5:0.004808168 
-4 1:22.5 2:28.7 3:353.5 4:626.5 5:0.004840678 
-4 1:22.4725 2:28.7 3:328.25 4:631.5 5:0.004832532 
-4 1:22.5 2:28.7 3:330.75 4:631 5:0.004840678 
-4 1:22.5 2:28.666667 3:350 4:629.33333 5:0.004835012 
-4 1:22.575 2:28.6 3:356.75 4:637.25 5:0.004845879 
-4 1:22.6 2:28.6 3:359.33333 4:628 5:0.004853299 
-4 1:22.6 2:28.5 3:355 4:628.25 5:0.004836197 
-4 1:22.79 2:28.6 3:319 4:632.5 5:0.004910015 
-4 1:22.823333 2:28.6 3:310 4:635.33333 5:0.004920025 
-4 1:22.89 2:28.575 3:335 4:631 5:0.004935747 
-4 1:23.1 2:28.55 3:357.75 4:630 5:0.00499499 
-4 1:23.2 2:28.5 3:345 4:627 5:0.005016654 
-4 1:23.2 2:28.39 3:366.5 4:629.75 5:0.004997136 
-1.264958990249544 1:20.445 2:24.34 3:292.25 4:831 5:0.003612707 
-4 1:20.5 2:25.05 3:389 4:856.5 5:0.003731441 
-4 1:20.5 2:25.025 3:397 4:870.75 5:0.003727694 
-4 1:20.6 2:25.05 3:405 4:869 5:0.003754667 
-4 1:20.55 2:25.1 3:405 4:872.5 5:0.003750554 
-4 1:20.6 2:25.2 3:405 4:871.5 5:0.003777287 
-4 1:21.5 2:28.175 3:454 4:967.5 5:0.004468268 
-4 1:21.525 2:28.175 3:454 4:967 5:0.004475162 
-4 1:21.5 2:28.15 3:454 4:958.5 5:0.004464275 
-4 1:21.525 2:28.075 3:464 4:894.5 5:0.004459165 
-4 1:21.445 2:28.245 3:454 4:880.25 5:0.004464278 
-4 1:21.5 2:28.2675 3:457.75 4:873.75 5:0.004483043 
-4 1:20.6 2:30.633333 3:419 4:804.66667 5:0.004597722 
-4 1:20.625 2:30.7225 3:419 4:814.25 5:0.004618369 
-4 1:21.633333 2:33.163333 3:332.66667 4:1129.3333 5:0.005309581 
-4 1:21.675 2:33.19 3:431 4:1139.5 5:0.005327561 
-4 1:21.65 2:33.2 3:454 4:1139 5:0.005320969 
-4 1:22.166667 2:34.26 3:279.33333 4:1595.6667 5:0.005669935 
