svm_type c_svc
kernel_type linear
nr_class 2
total_sv 536
rho -4.43031
label 1 0
probA -0.541376
probB 0.440867
nr_sv 280 256
SV
4 1:23.745 2:26.445 3:481.5 4:815.25 5:0.004808886 
4 1:23.7 2:26.56 3:481.8 4:824 5:0.004816793 
4 1:23.65 2:27.05 3:464 4:900.5 5:0.004891492 
4 1:23.525 2:28 3:454 4:1055.5 5:0.005026367 
4 1:23.5 2:28.025 3:444.25 4:1055 5:0.005023252 
4 1:23.116667 2:28.945 3:444 4:1160 5:0.005069809 
4 1:22.981667 2:27.908333 3:429 4:1061.6667 5:0.004846741 
4 1:23 2:28.2 3:429 4:1088 5:0.004903275 
4 1:23 2:28.133333 3:429 4:1091.3333 5:0.004891592 
3.999351705178345 1:22.7 2:26.533333 3:444 4:966.66667 5:0.004527652 
4 1:22.7 2:26.34 3:444 4:948 5:0.004494423 
4 1:22.7 2:26.02 3:441 4:923.8 5:0.004439431 
4 1:22.625 2:25.55 3:442.5 4:889.25 5:0.004338748 
2.325037059605674 1:22.6 2:25.39 3:443.4 4:889.2 5:0.004304805 
4 1:22.6 2:25.15 3:428.2 4:847.4 5:0.004263835 
4 1:22.6 2:25.08 3:429.2 4:832.4 5:0.004251886 
4 1:22.6 2:24.9175 3:433 4:818 5:0.00422415 
4 1:22.525 2:24.89 3:426 4:814.25 5:0.004200151 
2.535015653450191 1:22.6 2:25.021429 3:433 4:841.16667 5:0.004241889 
4 1:22.6 2:25.166667 3:433 4:854.33333 5:0.00426668 
4 1:22.39 2:24.717083 3:419 4:772.925 5:0.004136464 
4 1:22.39 2:24.711667 3:419 4:773.6 5:0.004135552 
4 1:22.39 2:24.625 3:419 4:773.75 5:0.004120952 
4 1:22.39 2:25.0925 3:310.25 4:809 5:0.004199716 
4 1:20.29 2:22.79 3:217.2 4:441.6 5:0.003349002 
4 1:20.29 2:22.856667 3:413.66667 4:442.66667 5:0.003358851 
4 1:20.29 2:22.956 3:433 4:445.6 5:0.003373528 
4 1:20.31 2:23.2 3:415 4:470.8 5:0.003413822 
4 1:20.39 2:23.2 3:412.2 4:473 5:0.003430829 
4 1:20.365 2:23.245 3:413.5 4:473 5:0.003432187 
4 1:20.39 2:23.434 3:397.4 4:494.2 5:0.003465625 
4 1:20.39 2:23.7 3:398.33333 4:507 5:0.003505185 
4 1:20.5 2:24.1 3:412.2 4:536.4 5:0.003589112 
4 1:20.5 2:24.1 3:413 4:538.33333 5:0.003589112 
4 1:20.52 2:24.236 3:407.4 4:549.6 5:0.003613966 
1.907197571897571 1:20.978 2:25 3:441 4:741 5:0.003835901 
0.241672349507044 1:23.2 2:25.5 3:598.4 4:866.2 5:0.004484778 
3.999789663074039 1:23.2 2:25.68 3:611.6 4:875.5 5:0.004516665 
4 1:23.29 2:25.79 3:585.75 4:895 5:0.004561068 
4 1:23.29 2:25.79 3:592.75 4:898.25 5:0.004561068 
4 1:23.29 2:25.79 3:586.5 4:898 5:0.004561068 
4 1:23.29 2:25.79 3:576.75 4:901 5:0.004561068 
4 1:23.2 2:29.33 3:464 4:1196.5 5:0.005163966 
4 1:22.79 2:30.934 3:444 4:1363.8 5:0.005314137 
0.00788124154977682 1:22.7 2:31.15 3:433 4:1357.5 5:0.005322181 
4 1:20.39 2:23.7 3:311.75 4:474.75 5:0.003505185 
4 1:20.4175 2:23.7225 3:426 4:473.5 5:0.003514529 
4 1:20.4725 2:23.7675 3:433 4:473.75 5:0.003533277 
4 1:20.481667 2:23.89 3:423.66667 4:484.5 5:0.003553613 
4 1:20.5 2:23.89 3:419 4:492.4 5:0.003557659 
4 1:20.5 2:23.89 3:419 4:491 5:0.003557659 
4 1:20.625 2:24.175 3:414 4:538.5 5:0.003628373 
4 1:20.675 2:24.34 3:411 4:538.75 5:0.003664625 
4 1:21.215 2:25.215 3:456.5 4:746.16667 5:0.003926188 
4 1:24.2 2:25.89 3:797.5 4:1152.5 5:0.004838673 
0.7779790489943932 1:24.2 2:25.89 3:787 4:1153.25 5:0.004838673 
4 1:21.89 2:31.15 3:436.5 4:961.25 5:0.005064095 
4 1:21.89 2:30.575 3:429 4:850.5 5:0.00496987 
4 1:21.89 2:30.356667 3:421.5 4:797.5 5:0.004934099 
4 1:21.89 2:30.2 3:441 4:775.33333 5:0.004908434 
4 1:21.79 2:28.89 3:419 4:606 5:0.004665118 
4 1:21.79 2:28.525 3:419 4:595.25 5:0.004605742 
4 1:21.7675 2:28.5 3:419 4:585.75 5:0.004595307 
4 1:21.7 2:28.5 3:279.33333 4:585 5:0.004576247 
1.784460573368446 1:20.6 2:22.195 3:358 4:647 5:0.003324453 
4 1:20.7 2:22.323333 3:418 4:717 5:0.003364563 
4 1:22.89 2:24.295 3:624 4:1105 5:0.004191483 
4 1:22.89 2:23.7925 3:637.5 4:972.75 5:0.004104217 
4 1:23.675 2:22.745 3:289 4:795.75 5:0.004114101 
3.10253584332005 1:24.29 2:23.626667 3:522 4:728.66667 5:0.004436716 
4 1:24.39 2:23.2725 3:666 4:840.75 5:0.004396188 
4 1:24.315 2:23.4725 3:688 4:823 5:0.004414217 
4 1:24.39 2:23.3925 3:236.5 4:852.5 5:0.004419017 
4 1:24.2 2:23.55 3:450 4:733 5:0.00439825 
4 1:24.2 2:23.745 3:419.75 4:697.25 5:0.004434928 
4 1:23.7 2:24.43 3:87 4:599.66667 5:0.004427757 
4 1:22.39 2:26 3:191.5 4:534.5 5:0.004352666 
4 1:22.365 2:26.2675 3:407.25 4:535 5:0.004391036 
4 1:22.365 2:26.29 3:466.75 4:539.25 5:0.004394824 
4 1:22.29 2:26.445 3:469 4:538 5:0.004400648 
0.4163419680010714 1:22.29 2:26.55 3:454 4:546.25 5:0.004418245 
4 1:22.323333 2:26.6 3:454 4:542.66667 5:0.004435678 
0.1619849615443922 1:22.315 2:26.6 3:450.25 4:551.75 5:0.004433413 
4 1:22.29 2:26.65 3:439 4:552.75 5:0.004435005 
4 1:22.26 2:26.963333 3:439 4:577.33333 5:0.004479279 
4 1:22.2 2:27.166667 3:444 4:605 5:0.004496725 
4 1:22.1 2:27.6 3:429 4:599.5 5:0.004541024 
0.00241494417215956 1:22.075 2:27.575 3:429 4:606.75 5:0.004529922 
4 1:22 2:27.525 3:429 4:606.75 5:0.004500866 
4 1:22 2:27.7 3:423.5 4:624 5:0.004529691 
4 1:22 2:27.79 3:433 4:623.33333 5:0.004544515 
4 1:22 2:27.79 3:433 4:617.66667 5:0.004544515 
4 1:22 2:28.025 3:418.5 4:614 5:0.004583228 
1.425489420887636 1:22 2:28.05 3:433 4:629 5:0.004587347 
4 1:22 2:28.025 3:422.5 4:645.5 5:0.004583228 
4 1:21.963333 2:27.926667 3:419 4:625.66667 5:0.004556749 
4 1:21.945 2:27.89 3:419 4:611 5:0.004545598 
4 1:21.89 2:27.89 3:279.33333 4:603.66667 5:0.004530253 
4 1:21.29 2:25.345 3:328.5 4:519 5:0.003964875 
4 1:21.5 2:25.84 3:491 4:540 5:0.004095523 
0.0110678559090365 1:21.575 2:25.625 3:511.5 4:547 5:0.004080035 
4 1:23.29 2:24.365 3:792 4:614 5:0.004307305 
4 1:23.9175 2:25.2675 3:797.2 4:693.4 5:0.004641445 
4 1:23.945 2:25.1 3:819 4:665 5:0.004618132 
4 1:23.945 2:25.1 3:802 4:660 5:0.004618132 
4 1:23.89 2:25.1 3:805 4:661.66667 5:0.004602777 
4 1:23.945 2:25.1 3:793 4:662.5 5:0.004618132 
4 1:23.945 2:25.1 3:803 4:663 5:0.004618132 
4 1:23.856667 2:24.963333 3:763.33333 4:601.66667 5:0.004568298 
4 1:23.815 2:25.125 3:743.25 4:603 5:0.004586508 
4 1:23.79 2:25.323333 3:425.33333 4:596.66667 5:0.004615983 
4 1:23.79 2:25.666667 3:438.5 4:542.5 5:0.004679037 
0.7375441479584679 1:23.745 2:25.9725 3:659.25 4:567.5 5:0.004722312 
4 1:23.55 2:26.075 3:627.5 4:541.25 5:0.004685314 
4 1:23.5 2:26.175 3:617.75 4:546 5:0.004689155 
4 1:23.5 2:26.2225 3:611.5 4:548 5:0.004697729 
4 1:23.5 2:26.72 3:598.25 4:555.25 5:0.004787541 
3.787628434514619 1:23.5 2:26.745 3:589 4:570 5:0.004792055 
4 1:23.55 2:26.84 3:566 4:575 5:0.00482384 
4 1:23.39 2:27 3:562 4:568 5:0.004805854 
4 1:23.39 2:27 3:560.25 4:562 5:0.004805854 
4 1:23.29 2:27.39 3:552 4:560.66667 5:0.004846239 
0.1100128798578036 1:23.2 2:27.79 3:539.66667 4:565 5:0.004890695 
4 1:23.1 2:28.1 3:543 4:555.5 5:0.004915637 
4 1:23.1 2:28.1 3:543 4:555.25 5:0.004915637 
4 1:23.1 2:28.1 3:535.5 4:555 5:0.004915637 
4 1:23.1 2:28.1975 3:528 4:561 5:0.004932829 
4 1:23.1 2:28.133333 3:528.66667 4:557.66667 5:0.004921515 
4 1:23.075 2:28.1 3:534 4:558.75 5:0.004908151 
4 1:23.1 2:28.2 3:518 4:566.5 5:0.004933269 
4 1:23.1 2:28.2 3:518 4:567.5 5:0.004933269 
4 1:23.1 2:28.356667 3:513 4:571.33333 5:0.004960895 
4 1:23 2:28.34 3:514 4:564.5 5:0.00492781 
0.3508223346141621 1:23 2:28.463333 3:499 4:569.33333 5:0.004949426 
4 1:22.9725 2:28.445 3:495.25 4:568 5:0.00493792 
4 1:22.89 2:28.65 3:492.75 4:571.5 5:0.004948805 
0.01839286858566009 1:22.84 2:28.65 3:489 4:573.75 5:0.004933715 
4 1:22.2675 2:30.075 3:438 4:601.5 5:0.005002662 
3.62436728920163 1:22.025 2:30.525 3:447 4:583.5 5:0.005003048 
4 1:21.5 2:32.09 3:440.25 4:619 5:0.005094232 
4 1:21.5 2:32.09 3:440.25 4:624.75 5:0.005094232 
4 1:21.5 2:32.09 3:429 4:615 5:0.005094232 
4 1:21.5 2:32.09 3:429 4:614 5:0.005094232 
4 1:21.5 2:32.09 3:429 4:606.75 5:0.005094232 
4 1:21.5 2:32.09 3:429 4:603 5:0.005094232 
4 1:21.29 2:32.79 4:577 5:0.005139165 
0.04237981128706275 1:20.79 2:26.46 3:399 4:933.33333 5:0.004014374 
0.1366047392884406 1:21.39 2:27.39 3:459 4:972.75 5:0.004313538 
4 1:21.39 2:27.39 3:454 4:965 5:0.004313538 
4 1:21.39 2:27.39 3:449 4:962 5:0.004313538 
4 1:21.6 2:28.1 3:459 4:901 5:0.004483846 
0.2242920779613501 1:21.6 2:28.1 3:464 4:893.5 5:0.004483846 
4 1:21.6 2:28.1 3:459 4:871.75 5:0.004483846 
4 1:21.745 2:29.7 3:429 4:930 5:0.00478365 
4 1:20.823333 2:30.856667 3:405 4:840.66667 5:0.004696138 
4 1:21.6 2:32.73 3:441 4:1318.3333 5:0.005228854 
4 1:21.7 2:32.95 3:459 4:1157 5:0.005296869 
1.639744683367525 1:21.7 2:32.845 3:454 4:1150.25 5:0.005279847 
4 1:21.7 2:32.895 3:37 4:1143 5:0.005287952 
4 1:22.2 2:34.433333 3:447.66667 4:1381.3333 5:0.005710573 
0.001004742949219482 1:22.2 2:34.5 3:444 4:1397 5:0.005721731 
4 1:22.2 2:34.156667 3:453 4:1431.6667 5:0.005664272 
4 1:22.2 2:34.096667 3:454 4:1433.6667 5:0.005654232 
0.004888873689049683 1:22.2 2:34.345 3:479 4:1402 5:0.00569579 
4 1:22.2225 2:34.425 3:439 4:1519 5:0.005717079 
4 1:22.15 2:34.25 3:429 4:1450.5 5:0.00566246 
4 1:22.125 2:34.5675 3:429 4:1497.5 5:0.005706654 
4 1:22.15 2:34.245 3:438 4:1485.5 5:0.005661626 
4 1:22.15 2:34.245 3:438 4:1475 5:0.005661626 
4 1:22.1 2:34.4725 3:440 4:1508 5:0.005682084 
4 1:22.2 2:34.345 3:438 4:1522 5:0.00569579 
0.005952619976431924 1:22.2 2:34.345 3:433 4:1669.5 5:0.00569579 
4 1:22.2 2:34.096667 3:419 4:1658.6667 5:0.005654232 
4 1:22.2 2:34.345 3:419 4:1619.5 5:0.00569579 
4 1:22.2 2:34.345 3:419 4:1600.5 5:0.00569579 
0.2760111495921978 1:23.18 2:27.272 3:426 4:721.25 5:0.004792988 
4 1:23.15 2:27.245 3:426 4:713.5 5:0.004779464 
4 1:23.1 2:27.2 3:419 4:701.66667 5:0.004756993 
4 1:23.1 2:27.166667 3:419 4:683.5 5:0.004751119 
4 1:23.05 2:27.15 3:419 4:687.5 5:0.004733732 
4 1:23 2:27.125 3:419 4:686 5:0.004714942 
4 1:23 2:27.125 3:418.5 4:680.5 5:0.004714942 
4 1:20.7 2:22.39 3:356 4:457 5:0.003374666 
4 1:20.73 2:22.5 3:419 4:472 5:0.003397643 
4 1:20.7225 2:22.525 3:419 4:470.5 5:0.003399859 
4 1:20.79 2:22.79 3:411 4:492 5:0.003454488 
4 1:20.815 2:22.8675 3:411 4:497.75 5:0.00347167 
4 1:20.815 2:23.025 3:400 4:507 5:0.003495715 
4 1:20.89 2:23.175 3:396 4:514.75 5:0.003534987 
4 1:20.89 2:23.29 3:396 4:515 5:0.003552629 
4 1:20.89 2:23.29 3:396 4:520.75 5:0.003552629 
4 1:20.89 2:23.29 3:396 4:526 5:0.003552629 
4 1:21 2:23.6 3:405 4:559.25 5:0.003624768 
4 1:21.075 2:23.72 3:419 4:594 5:0.003660236 
0.5352855786624454 1:21.2 2:23.745 3:419 4:620.5 5:0.003692515 
4 1:21.26 2:23.856667 3:423.66667 4:641 5:0.00372375 
4 1:22.1 2:26.675 3:454 4:1047 5:0.00438776 
4 1:22.05 2:26.34 3:469 4:1024.5 5:0.004318995 
4 1:22.05 2:26.34 3:450.25 4:1030.5 5:0.004318995 
4 1:22.133333 2:26.6 3:454 4:1077 5:0.004384296 
4 1:22.2 2:26.6 3:449.5 4:1075.5 5:0.004402265 
4 1:22.2 2:26.6 3:454.75 4:1076.5 5:0.004402265 
4 1:22.2 2:26.6 3:448 4:1068 5:0.004402265 
4 1:22.2 2:26.6 3:444 4:1071.5 5:0.004402265 
0.0004749228098299486 1:22.29 2:26.166667 3:334.33333 4:900.33333 5:0.004354007 
4 1:22.2 2:26.376 3:439.8 4:795.2 5:0.004364933 
4 1:22.2 2:26.6 3:442.5 4:818.5 5:0.004402265 
2.363888019337174 1:22.5 2:28.033333 3:517 4:1099.3333 5:0.00472738 
4 1:22.39 2:26.695 3:444 4:1054 5:0.004469852 
4 1:22.39 2:26.015 3:444 4:1056.25 5:0.004355195 
4 1:22.34 2:26.39 3:447 4:1074.75 5:0.004404907 
0.4367994755228277 1:22.29 2:25.5 3:433 4:1002.25 5:0.004242321 
4 1:22.29 2:25.5 3:433 4:1001.5 5:0.004242321 
4 1:22.245 2:24.89 3:433 4:940.75 5:0.004128762 
4 1:22.245 2:24.89 3:433 4:935.5 5:0.004128762 
4 1:22.2 2:24.34 3:433 4:903 5:0.004025817 
4 1:22.2 2:24.34 3:433 4:907 5:0.004025817 
4 1:22.1 2:23.996667 3:433 4:866 5:0.003944408 
4 1:22.025 2:24.0475 3:213 4:845.5 5:0.003934669 
4 1:20.2 2:18.6 3:401.33333 4:439 5:0.002715358 
4 1:20.15 2:18.7 3:419 4:457.25 5:0.002721553 
4 1:20.125 2:18.865 3:411 4:458 5:0.00274141 
4 1:20.15 2:18.89 3:411 4:460 5:0.002749327 
4 1:20.2 2:18.89 3:411 4:459.75 5:0.002757882 
4 1:20.2225 2:19.05 3:407.5 4:463.5 5:0.002785236 
4 1:20.2675 2:19.2175 3:400 4:470.25 5:0.0028177 
4 1:20.29 2:19.2225 3:400 4:483.5 5:0.002822377 
4 1:20.426667 2:19.163333 3:413 4:504 5:0.002837614 
4 1:20.525 2:19.315 3:411 4:509.25 5:0.002877666 
4 1:20.5 2:19.2425 3:405 4:515 5:0.002862376 
4 1:20.566667 2:19.2 3:409 4:515.33333 5:0.002867849 
4 1:20.625 2:19.4175 3:405 4:524.5 5:0.002910988 
4 1:20.7 2:19.5 3:418.33333 4:530.33333 5:0.002937022 
4 1:20.7 2:19.5 3:419 4:533.66667 5:0.002937022 
4 1:20.7 2:19.575 3:419 4:535.75 5:0.002948372 
4 1:20.89 2:19.72 3:419 4:575.25 5:0.003005434 
4 1:20.89 2:19.65 3:422.5 4:591.5 5:0.002994714 
4 1:20.856667 2:19.76 3:433 4:598.66667 5:0.00300536 
4 1:20.89 2:19.79 3:433 4:621 5:0.003016154 
4 1:20.89 2:19.79 3:433 4:616.66667 5:0.003016154 
0.01845193974840646 1:20.865 2:19.7675 3:433 4:620 5:0.003008055 
2.932939245508833 1:20.865 2:19.7675 3:433 4:636.5 5:0.003008055 
4 1:20.963333 2:19.79 3:433 4:639.33333 5:0.003029855 
4 1:21.7 2:20.9725 3:490.25 4:856.25 5:0.003361025 
4 1:21.7 2:20.495 3:521.5 4:813 5:0.003284097 
4 1:21.7 2:20.1 3:489 4:752 5:0.003220475 
4 1:21.29 2:19.745 3:293.5 4:662.25 5:0.003084488 
4 1:21.675 2:19.125 3:523.75 4:637.25 5:0.003058786 
4 1:21.7 2:19.12 3:559.5 4:632.25 5:0.003062684 
4 1:21.7675 2:19 3:525.25 4:625 5:0.003056012 
4 1:21.7675 2:19 3:543.75 4:626 5:0.003056012 
4 1:22.2 2:21.7 3:514 4:925.25 5:0.003586645 
3.86203829311988 1:22.1 2:21.496667 3:499 4:919.33333 5:0.003531142 
4 1:22 2:20.94 3:474.5 4:870.5 5:0.003418175 
4 1:21.79 2:21.7225 3:444 4:936 5:0.003501205 
4 1:21.79 2:21.6 3:438 4:893 5:0.00348135 
4 1:21.6 2:21.2 3:433 4:817.5 5:0.003376853 
0.06441542596727277 1:21.6 2:21.2 3:433 4:818 5:0.003376853 
4 1:21.7 2:20.856667 3:433 4:778 5:0.003342362 
4 1:19.525 2:27.025 3:289.75 4:473.75 5:0.003790078 
4 1:19.666667 2:27.73 3:405 4:510.66667 5:0.003924175 
4 1:19.7675 2:28.175 3:392.5 4:546 5:0.004012754 
4 1:19.89 2:28.65 3:389 4:599 5:0.004112179 
4 1:20.7 2:31.463333 3:441 4:1074 5:0.004752666 
4 1:21.5 2:33.2225 3:31 4:1246 5:0.00527554 
0.0006658099450134611 1:21.4725 2:33.95 3:474 4:1218 5:0.005382912 
4 1:21.865 2:36.24 3:454 4:1565 5:0.005890348 
4 1:21.945 2:37.425 3:444 4:1748 5:0.006114919 
2.866668465704896 1:21.9175 2:37.2725 3:444 4:1762 5:0.006079446 
4 1:22 2:37.663333 3:439 4:1815.5 5:0.006175137 
4 1:22.1 2:38.73 3:447 4:1981.6667 5:0.006391057 
4 1:22.1 2:39 3:433 4:2005 5:0.006436072 
4 1:22.1 2:39 3:433 4:2012.5 5:0.006436072 
4 1:22.175 2:38.9725 3:328 4:1986.5 5:0.006461252 
2.830569058997537 1:20.5 2:33.7225 3:407.5 4:495.5 5:0.005033748 
4 1:20.5 2:33.79 3:405 4:506.66667 5:0.005043906 
4 1:20.55 2:33.79 3:405 4:508 5:0.005059615 
4 1:20.65 2:33.975 3:419 4:524.5 5:0.005119268 
4 1:20.65 2:33.975 3:419 4:534.5 5:0.005119268 
4 1:20.7675 2:34.7175 3:422.5 4:600.75 5:0.00527042 
-4 1:22.6 2:25.066667 3:428.33333 4:849.33333 5:0.00424961 
-4 1:22.6 2:25.2 3:422.5 4:853 5:0.00427237 
-4 1:22.6 2:25.2 3:423.66667 4:853 5:0.00427237 
-4 1:22.54 2:25.16 3:424.6 4:852 5:0.004249921 
-4 1:22.54 2:25.16 3:427.4 4:853.6 5:0.004249921 
-4 1:22.54 2:25.14 3:421.8 4:845.6 5:0.00424652 
-4 1:22.525 2:25.1 3:426 4:834.25 5:0.004235829 
-4 1:22.5 2:25.04 3:421.8 4:826.4 5:0.004219178 
-4 1:22.5 2:25 3:419 4:819.6 5:0.004212392 
-4 1:22.5 2:25 3:419 4:829.6 5:0.004212392 
-4 1:22.5 2:25 3:419 4:824 5:0.004212392 
-4 1:22.5 2:24.912 3:419 4:814.2 5:0.004197464 
-4 1:22.5 2:24.89 3:419 4:813.5 5:0.004193733 
-4 1:22.5 2:24.89 3:419 4:813.8 5:0.004193733 
-4 1:22.5 2:24.89 3:419 4:811 5:0.004193733 
-4 1:22.478 2:24.87 3:419 4:804.6 5:0.004184704 
-4 1:22.456 2:24.83 3:419 4:807.8 5:0.004172308 
-4 1:22.5 2:24.856667 3:419 4:802.33333 5:0.004188079 
-4 1:22.4175 2:24.7475 3:419 4:796.75 5:0.004148566 
-4 1:22.456 2:24.81 3:419 4:794.4 5:0.004168925 
-4 1:22.39 2:24.7 3:419 4:790.6 5:0.004133586 
-4 1:22.4175 2:24.7225 3:419 4:789.75 5:0.004144348 
-4 1:22.39 2:24.7 3:419 4:782.2 5:0.004133586 
-4 1:20.29 2:23 3:419 4:453 5:0.003380029 
-4 1:20.29 2:23.2 3:419 4:470.4 5:0.003409582 
-4 1:21.133333 2:24.823333 3:444 4:747.33333 5:0.003845377 
-4 1:21.166667 2:24.858333 3:444 4:745.5 5:0.00385877 
-4 1:22.2 2:27.642857 3:535.71429 4:1137.8571 5:0.004576126 
-4 1:22.39 2:27.29 3:603.6 4:1064 5:0.004570212 
-4 1:22.39 2:27.2675 3:587.5 4:1065.25 5:0.004566416 
-4 1:22.39 2:27.2 3:575 4:1050.5 5:0.00455503 
-4 1:23.26 2:25.856667 3:338.33333 4:997.33333 5:0.004564605 
-4 1:23.2 2:25.792 3:627.6 4:919.8 5:0.004536508 
-4 1:23.2 2:25.65 3:638 4:938.25 5:0.00451135 
-4 1:23.2 2:25.533333 3:634 4:922.16667 5:0.004490683 
-4 1:23.2 2:25.5 3:629 4:899 5:0.004484778 
-4 1:23.2 2:25.516667 3:557.66667 4:895.33333 5:0.00448773 
-4 1:20.6 2:24.083333 3:413 4:507.33333 5:0.003608936 
-4 1:20.6 2:24.1 3:414.6 4:514.6 5:0.003611448 
-4 1:20.6 2:24.175 3:407.5 4:522.25 5:0.003622752 
-4 1:20.6 2:24.2 3:406.6 4:525.6 5:0.003626521 
-4 1:20.6 2:24.2 3:399.5 4:528 5:0.003626521 
-4 1:20.956 2:25.39 3:444 4:717.8 5:0.003890816 
-4 1:21 2:25.39 3:444 4:720.75 5:0.003901421 
-4 1:21 2:25.412 3:444 4:721.4 5:0.003904823 
-4 1:21 2:25.39 3:444 4:718 5:0.003901421 
-4 1:21 2:25.356667 3:444 4:715.5 5:0.003896267 
-4 1:21 2:25.29 3:447.2 4:713 5:0.003885959 
-4 1:21 2:25.29 3:456.8 4:714.8 5:0.003885959 
-4 1:21.215 2:25.291667 3:462.33333 4:773.83333 5:0.003938201 
-4 1:21.2 2:25.29 3:464 4:777.75 5:0.003934293 
-4 1:22.2 2:26 3:608.25 4:946 5:0.004302279 
-4 1:22.29 2:25.963333 3:606.66667 4:950.33333 5:0.004319939 
-4 1:21.89 2:31.55 3:436.5 4:1047 5:0.00512966 
-4 1:21.89 2:31.36 3:434 4:1031 5:0.005098515 
-4 1:21.89 2:31.125 3:432.75 4:977.5 5:0.005059998 
-4 1:20.6 2:21.865 3:454 4:652.5 5:0.003274764 
-4 1:20.6 2:22.2 3:442.75 4:681.75 5:0.003325206 
-4 1:20.6 2:22.26 3:444 4:702.33333 5:0.003334241 
-4 1:20.633333 2:22.26 3:444 4:707 5:0.003341137 
-4 1:23.7 2:22.945 3:289 4:804.5 5:0.004156813 
-4 1:23.79 2:22.79 3:289 4:836.5 5:0.00415112 
-4 1:23.79 2:22.79 3:292.5 4:834.75 5:0.00415112 
-4 1:23.89 2:22.65 3:292 4:825.25 5:0.004150504 
-4 1:24.2 2:23.0225 3:497 4:722 5:0.004299052 
-4 1:24.2 2:23.7 3:630 4:734 5:0.004426464 
-4 1:24.2 2:23.745 3:690.5 4:729 5:0.004434928 
-4 1:21.29 2:25.496667 3:499.33333 4:525 5:0.003988753 
-4 1:21.29 2:25.463333 3:510.33333 4:528.66667 5:0.003983505 
-4 1:22.65 2:24.8975 3:726.75 4:585 5:0.004233654 
-4 1:22.666667 2:24.996667 3:737 4:594 5:0.004254963 
-4 1:22.7 2:24.9725 3:723.5 4:598 5:0.004259487 
-4 1:22.7 2:25 3:707 4:595.5 5:0.00426421 
-4 1:22.7225 2:25.175 3:720.5 4:604.5 5:0.004300171 
-4 1:22.7225 2:25.0475 3:714.5 4:613 5:0.004278243 
-4 1:23.7675 2:25.675 3:654 4:547 5:0.004674187 
-4 1:23.7 2:25.89 3:680.33333 4:564 5:0.004694368 
-4 1:23.7225 2:25.9725 3:664.75 4:567.75 5:0.004715872 
-4 1:23.7 2:25.89 3:675.25 4:569.5 5:0.004694368 
-4 1:23.745 2:26 3:669 4:571.5 5:0.00472735 
-4 1:23.7 2:26.075 3:667.25 4:564.75 5:0.004728167 
-4 1:23.7 2:26 3:655.66667 4:563.66667 5:0.004714465 
-4 1:21.445 2:32.145 3:438 4:599.5 5:0.005085734 
-4 1:21.39 2:32.09 3:441 4:600 5:0.005059743 
-4 1:20.39 2:36 3:345 4:517 5:0.00533995 
-4 1:20.5 2:36 3:362.5 4:518 5:0.005376649 
-4 1:20.7 2:35.03 3:387.33333 4:513.66667 5:0.005296013 
-4 1:21.633333 2:28.856667 3:340 4:637 5:0.00461495 
-4 1:21.675 2:28.865 3:357 4:638 5:0.004628159 
-4 1:21.7 2:28.815 3:392 4:640.5 5:0.004627203 
-4 1:21.745 2:28.79 3:384 4:641.75 5:0.004635988 
-4 1:21.79 2:28.7 3:360 4:639 5:0.004634208 
-4 1:21.79 2:28.7 3:345 4:639.33333 5:0.004634208 
-4 1:21.815 2:28.7 3:337 4:650 5:0.004641344 
-4 1:21.89 2:28.7 3:286 4:642.75 5:0.00466281 
-4 1:21.89 2:28.7 3:284 4:647.25 5:0.00466281 
-4 1:21.89 2:29 3:257 4:638 5:0.004711919 
-4 1:21.89 2:29 3:289 4:639 5:0.004711919 
-4 1:21.89 2:28.89 3:295.5 4:640.25 5:0.004693912 
-4 1:21.963333 2:28.89 3:347 4:634.33333 5:0.004715127 
-4 1:22 2:28.815 3:345.66667 4:637 5:0.004713405 
-4 1:22.075 2:28.84 3:357.8 4:642.75 5:0.004739315 
-4 1:21.7 2:29.5 3:246 4:628.5 5:0.004738041 
-4 1:21.7 2:29.5 3:288 4:623 5:0.004738041 
-4 1:21.7 2:29.5 3:342 4:627 5:0.004738041 
-4 1:21.79 2:29.365 3:415.5 4:632.5 5:0.004742405 
-4 1:21.9725 2:29.175 3:314.66667 4:630.33333 5:0.004764682 
-4 1:22 2:29.166667 3:370.75 4:636.5 5:0.00477137 
-2.864110233929406 1:22.1 2:29.15 3:293.5 4:636.5 5:0.004798012 
-4 1:22.1 2:29.1 3:329 4:628 5:0.004789719 
-4 1:22.1 2:29.133333 3:385 4:626.33333 5:0.004795248 
-4 1:22.125 2:29.1 3:390.5 4:632 5:0.004797078 
-4 1:22.175 2:28.9975 3:351.75 4:624.5 5:0.004794748 
-4 1:22.2 2:28.926667 3:419 4:628.33333 5:0.004790291 
-4 1:22.2675 2:28.89 3:420.5 4:629 5:0.004804027 
-4 1:22.29 2:28.89 3:415.5 4:630 5:0.004810662 
-4 1:22.315 2:28.79 3:372.75 4:625.5 5:0.004801237 
-4 1:22.39 2:28.7 3:315.66667 4:632.66667 5:0.004808168 
-4 1:22.39 2:28.7 3:347.5 4:631.75 5:0.004808168 
-4 1:22.39 2:28.7 3:332 4:626.25 5:0.004808168 
-4 1:22.5 2:28.7 3:353.5 4:626.5 5:0.004840678 
-4 1:22.4725 2:28.7 3:328.25 4:631.5 5:0.004832532 
-4 1:22.5 2:28.7 3:330.75 4:631 5:0.004840678 
-4 1:22.5 2:28.666667 3:350 4:629.33333 5:0.004835012 
-4 1:22.575 2:28.6 3:356.75 4:637.25 5:0.004845879 
-4 1:22.6 2:28.6 3:359.33333 4:628 5:0.004853299 
-4 1:22.6 2:28.5 3:355 4:628.25 5:0.004836197 
-4 1:22.666667 2:28.73 3:337 4:634.66667 5:0.004895458 
-4 1:22.7225 2:28.7 3:325 4:636.5 5:0.004907031 
-4 1:22.79 2:28.6 3:319 4:632.5 5:0.004910015 
-4 1:22.823333 2:28.6 3:310 4:635.33333 5:0.004920025 
-4 1:22.89 2:28.6 3:313.33333 4:630.33333 5:0.0049401 
-4 1:22.89 2:28.575 3:335 4:631 5:0.004935747 
-4 1:23.033333 2:28.566667 3:341.33333 4:633 5:0.00497765 
-4 1:23.1 2:28.55 3:357.75 4:630 5:0.00499499 
-4 1:23.2 2:28.5 3:345 4:627 5:0.005016654 
-4 1:23.2 2:28.39 3:366.5 4:629.75 5:0.004997136 
-4 1:20.445 2:24.34 3:292.25 4:831 5:0.003612707 
-4 1:20.5 2:25.05 3:389 4:856.5 5:0.003731441 
-4 1:20.5 2:25.025 3:397 4:870.75 5:0.003727694 
-4 1:20.6 2:25.05 3:405 4:869 5:0.003754667 
-4 1:20.55 2:25.1 3:405 4:872.5 5:0.003750554 
-4 1:20.6 2:25.2 3:405 4:871.5 5:0.003777287 
-4 1:21.5 2:28.175 3:454 4:967.5 5:0.004468268 
-4 1:21.525 2:28.175 3:454 4:967 5:0.004475162 
-4 1:21.5 2:28.15 3:454 4:958.5 5:0.004464275 
-4 1:21.525 2:28.075 3:464 4:894.5 5:0.004459165 
-4 1:21.445 2:28.245 3:454 4:880.25 5:0.004464278 
-4 1:21.5 2:28.2675 3:457.75 4:873.75 5:0.004483043 
-4 1:20.6 2:30.633333 3:419 4:804.66667 5:0.004597722 
-4 1:20.625 2:30.7225 3:419 4:814.25 5:0.004618369 
-4 1:21.633333 2:33.163333 3:332.66667 4:1129.3333 5:0.005309581 
-4 1:21.675 2:33.19 3:431 4:1139.5 5:0.005327561 
-4 1:21.65 2:33.2 3:454 4:1139 5:0.005320969 
-4 1:22.166667 2:34.26 3:279.33333 4:1595.6667 5:0.005669935 
-4 1:21 2:33.79 4:1532.5 5:0.00520296 
-3.454140002814771 1:21 2:33.79 4:1538 5:0.00520296 
-4 1:21 2:33.79 4:1528 5:0.00520296 
-4 1:21 2:33.79 4:1522 5:0.00520296 
-0.3499711144599997 1:20.89 2:33.045 4:1759 5:0.005052733 
-1.107111140596115 1:20.89 2:32.7 4:1525.5 5:0.004999556 
-0.6825545362304503 1:20.79 2:31.5 4:1445 5:0.004784899 
-4 1:20.7 2:22.4175 3:426 4:460.25 5:0.003378833 
-4 1:20.7 2:22.5 3:423.66667 4:465.33333 5:0.003391335 
-4 1:20.7 2:22.463333 3:423.66667 4:472.66667 5:0.003385779 
-4 1:21.29 2:23.89 3:422.5 4:650.5 5:0.003735893 
-4 1:22.1 2:26.633333 3:459 4:1044 5:0.004380858 
-4 1:22.1 2:26.6 3:459 4:1036.5 5:0.004375336 
-4 1:22.05 2:26.575 3:469 4:1039 5:0.004357799 
-4 1:22.05 2:26.55 3:469 4:1039 5:0.00435367 
-4 1:22.7 2:26.89 3:531.25 4:1120 5:0.004588962 
-4 1:22.7 2:26.89 3:539 4:1113.6667 5:0.004588962 
-4 1:22.7 2:26.89 3:545.75 4:1104.75 5:0.004588962 
-4 1:22.675 2:26.865 3:604.75 4:1103.25 5:0.004577664 
-4 1:22.7 2:26.815 3:597.25 4:1102.75 5:0.004576069 
-4 1:22.7 2:26.7 3:528 4:1090 5:0.0045563 
-4 1:22.7 2:26.7 3:521 4:1086.25 5:0.0045563 
-4 1:22.7 2:26.666667 3:535.66667 4:1083.6667 5:0.00455057 
-4 1:22.675 2:26.575 3:533.25 4:1078.5 5:0.00452789 
-4 1:22.65 2:26.55 3:523.75 4:1064.75 5:0.004516692 
-4 1:22.666667 2:26.566667 3:524 4:1053 5:0.004524155 
-4 1:22.76 2:26.39 3:635.5 4:1022 5:0.004519554 
-4 1:22.856667 2:26.323333 3:676 4:1024.75 5:0.004534741 
-4 1:22.89 2:26.245 3:567.25 4:1020 5:0.004530356 
-4 1:22.89 2:26.2 3:582.5 4:1015.5 5:0.004522532 
-4 1:22.89 2:26.1 3:618.75 4:1007 5:0.004505145 
-4 1:22.89 2:26.175 3:579.25 4:997.5 5:0.004518185 
-4 1:22.89 2:26.133333 3:590.33333 4:1002 5:0.00451094 
-4 1:22.89 2:26.1 3:584.5 4:1000 5:0.004505145 
-4 1:22.89 2:26 3:564 4:997.75 5:0.004487759 
-4 1:22.29 2:26.1 3:503.5 4:892.5 5:0.004342837 
-4 1:22.2675 2:26.1725 3:567.5 4:883.5 5:0.004348983 
-4 1:22.29 2:26.29 3:569.25 4:879.25 5:0.004374674 
-4 1:22.29 2:26.26 3:490.66667 4:887.33333 5:0.004369647 
-4 1:22.29 2:26.2 3:487.33333 4:890 5:0.004359593 
-4 1:22.29 2:26.2 3:500 4:891.25 5:0.004359593 
-4 1:22.29 2:26.2 3:524 4:891 5:0.004359593 
-4 1:22.29 2:26.175 3:545.33333 4:881 5:0.004355404 
-4 1:22.315 2:26.1 3:520.6 4:866.25 5:0.004349495 
-4 1:22.29 2:26.1 3:509 4:864.66667 5:0.004342837 
-4 1:22.34 2:26.1 3:476.5 4:870 5:0.004356163 
-4 1:22.315 2:26.1 3:471.5 4:862 5:0.004349495 
-4 1:22.29 2:26.1 3:464 4:857.5 5:0.004342837 
-4 1:22.29 2:26.1 3:464 4:851.33333 5:0.004342837 
-4 1:22.29 2:26.1 3:459 4:846.75 5:0.004342837 
-4 1:22.29 2:26.1 3:459 4:844.66667 5:0.004342837 
-4 1:22.29 2:26.1 3:454.75 4:843 5:0.004342837 
-4 1:22.29 2:26.1 3:444 4:840.5 5:0.004342837 
-4 1:22.29 2:26.025 3:456 4:831.25 5:0.004330271 
-4 1:22.29 2:26 3:461 4:829 5:0.004326082 
-4 1:22.29 2:26 3:461.5 4:825.5 5:0.004326082 
-4 1:22.29 2:26 3:464 4:813.66667 5:0.004326082 
-4 1:22.29 2:26 3:476.5 4:819 5:0.004326082 
-4 1:22.29 2:26 3:489 4:819.5 5:0.004326082 
-4 1:22.29 2:25.945 3:489 4:810 5:0.004316867 
-4 1:22.2675 2:25.89 3:451 4:795 5:0.004301716 
-4 1:22.2675 2:25.89 3:449.5 4:785 5:0.004301716 
-4 1:22.2675 2:25.9175 3:449.5 4:795 5:0.004306317 
-4 1:22.29 2:25.926667 3:453 4:795.25 5:0.004313796 
-4 1:22.245 2:25.89 3:451.75 4:797.5 5:0.004295788 
-4 1:22.29 2:25.89 3:459 4:797 5:0.004307653 
-4 1:22.2675 2:25.89 3:459 4:795.5 5:0.004301716 
-4 1:22.2675 2:25.865 3:464 4:784.5 5:0.004297534 
-4 1:22.29 2:25.89 3:454 4:775.5 5:0.004307653 
-4 1:22.23 2:25.823333 3:454 4:777.33333 5:0.004280711 
-4 1:22.2225 2:25.8925 3:448 4:775.5 5:0.004290283 
-4 1:20.175 2:18.6 3:433 4:437.5 5:0.002711144 
-4 1:20.175 2:18.675 3:422.5 4:440.75 5:0.002722124 
-4 1:20.2 2:18.7 3:419 4:442 5:0.002730021 
-4 1:20.175 2:18.7 3:419 4:448.5 5:0.002725784 
-4 1:20.1 2:18.745 3:419 4:451 5:0.002719666 
-4 1:20.133333 2:18.7 3:409 4:458.66667 5:0.002718736 
-4 1:21.7225 2:20.5 3:490.25 4:816 5:0.003289448 
-4 1:21.7 2:20.5 3:479 4:813.25 5:0.003284903 
-4 1:21.7 2:20.39 3:474 4:806 5:0.003267184 
-4 1:21.7 2:20.525 3:492.75 4:804.5 5:0.00328893 
-4 1:21.5 2:19.315 3:546 4:647 5:0.003056258 
-4 1:21.5 2:19.39 3:573 4:652.66667 5:0.003068184 
-4 1:21.55 2:19.34 3:560.75 4:663.75 5:0.003069662 
-4 1:21.6 2:19.356667 3:524 4:652 5:0.003081782 
-4 1:21.6 2:19.29 3:537 4:653 5:0.003071115 
-4 1:21.625 2:19.2225 3:548.75 4:649.5 5:0.003065023 
-4 1:20.7 2:18.89 3:611.5 4:452.25 5:0.002844726 
-4 1:20.7 2:18.89 3:1546.3333 4:455.33333 5:0.002844726 
-4 1:20.745 2:18.89 3:1451.75 4:453 5:0.002852659 
-4 1:20.76 2:18.856667 3:829 4:452.66667 5:0.002850246 
-4 1:21.89 2:18.1 3:324 4:457.25 5:0.002932538 
-1.618628349247363 1:19.5 2:30.426667 3:317.25 4:428.75 5:0.004263736 
-4 1:19.525 2:27.2925 3:397 4:484.75 5:0.003827824 
-4 1:19.525 2:27.365 3:392.5 4:486.75 5:0.003838055 
-4 1:19.566667 2:27.566667 3:393.66667 4:492.33333 5:0.003876606 
-4 1:21.89 2:37.5 4:1729.5 5:0.006106558 
-4 1:21.89 2:37.5 4:1722 5:0.006106558 
-3.493547371349583 1:21.633333 2:36.933333 4:1544.3333 5:0.005918916 
-4 1:20.315 2:33.345 3:426 4:474.25 5:0.004919969 
-4 1:20.356667 2:33.4 3:419 4:482.33333 5:0.004940953 
