svm_type c_svc
kernel_type linear
nr_class 2
total_sv 192
rho 2.1911
label 1 0
probA -1.40221
probB 1.87531
nr_sv 98 94
SV
2.147089771657563 1:21.79 2:31.3175 3:434 4:1022 5:0.005060296 
4 1:21.89 2:30.356667 3:429 4:802 5:0.004934099 
4 1:21.89 2:30.356667 3:421.5 4:797.5 5:0.004934099 
4 1:21.89 2:30.23 3:419 4:769.33333 5:0.004913348 
2.693887944288803 1:21.89 2:30.426667 3:433 4:803.66667 5:0.004945567 
4 1:21.84 2:29.795 3:419 4:702 5:0.004827221 
4 1:21.79 2:29.3675 3:419 4:669.25 5:0.004742812 
4 1:21.84 2:29.55 3:419 4:674 5:0.004787222 
1.855343353747872 1:21.79 2:29.4725 3:419 4:666.5 5:0.004759899 
4 1:21.865 2:29.29 3:419 4:636.25 5:0.004752084 
4 1:21.89 2:29.245 3:419 4:638.5 5:0.004752031 
4 1:21.89 2:29.7725 3:415 4:648 5:0.004838411 
4 1:21.89 2:29.2 3:419 4:633.5 5:0.004744663 
4 1:21.79 2:28.79 3:419 4:600.75 5:0.004648849 
4 1:21.79 2:28.6475 3:419 4:596.5 5:0.004625668 
4 1:21.79 2:28.525 3:419 4:595.25 5:0.004605742 
4 1:21.7675 2:28.5 3:419 4:585.75 5:0.004595307 
4 1:21.7 2:28.5 3:279.33333 4:585 5:0.004576247 
4 1:20.6 2:22.195 3:358 4:647 5:0.003324453 
4 1:20.7 2:22.2225 3:418 4:708.5 5:0.003349284 
4 1:20.7 2:22.323333 3:418 4:717 5:0.003364563 
0.563771907656887 1:20.7 2:22.356667 3:428.66667 4:723 5:0.003369614 
4 1:21 2:22.696667 3:447.33333 4:735.33333 5:0.003485245 
4 1:21.34 2:23.745 3:459.5 4:892 5:0.003724553 
4 1:23.675 2:22.745 3:289 4:795.75 5:0.004114101 
4 1:24.29 2:23.626667 3:522 4:728.66667 5:0.004436716 
4 1:24.39 2:23.3925 3:236.5 4:852.5 5:0.004419017 
4 1:24.2 2:23.55 3:450 4:733 5:0.00439825 
4 1:23.7 2:24.43 3:87 4:599.66667 5:0.004427757 
4 1:22.39 2:26 3:191.5 4:534.5 5:0.004352666 
4 1:22.365 2:26.2675 3:407.25 4:535 5:0.004391036 
4 1:22.365 2:26.29 3:466.75 4:539.25 5:0.004394824 
4 1:22.29 2:26.55 3:454 4:546.25 5:0.004418245 
0.3332397063723797 1:22.29 2:26.65 3:439 4:555 5:0.004435005 
4 1:22.29 2:26.79 3:439 4:554 5:0.00445847 
4 1:22.29 2:26.79 3:439 4:565 5:0.00445847 
4 1:22.2675 2:26.945 3:439 4:570.25 5:0.004478271 
4 1:22.26 2:26.963333 3:439 4:577.33333 5:0.004479279 
4 1:22.29 2:27.025 3:439 4:577.75 5:0.004497863 
4 1:22.2 2:27.1 3:441.5 4:591.75 5:0.004485611 
1.3465823343877e-05 1:22.2 2:27.166667 3:444 4:605 5:0.004496725 
4 1:22.2 2:27.2225 3:439 4:596.5 5:0.004506034 
4 1:22.2 2:27.29 3:444 4:593.5 5:0.004517288 
4 1:22.1 2:27.365 3:444 4:599.75 5:0.004502079 
4 1:22.075 2:27.4725 3:439 4:596.33333 5:0.004512961 
4 1:22.075 2:27.525 3:435 4:598.4 5:0.004521648 
4 1:22.075 2:27.575 3:429 4:606.75 5:0.004529922 
4 1:22.033333 2:27.566667 3:429 4:606 5:0.004516969 
4 1:22 2:27.7 3:423.5 4:624 5:0.004529691 
4 1:22 2:28.05 3:433 4:629 5:0.004587347 
4 1:22 2:27.9175 3:423.66667 4:630.66667 5:0.004565519 
4 1:21.963333 2:27.926667 3:419 4:625.66667 5:0.004556749 
4 1:21.89 2:27.89 3:279.33333 4:603.66667 5:0.004530253 
4 1:21.29 2:25.345 3:328.5 4:519 5:0.003964875 
4 1:21.575 2:25.625 3:511.5 4:547 5:0.004080035 
4 1:21.675 2:25.8675 3:528 4:573.75 5:0.004144344 
4 1:23.29 2:24.26 3:759.66667 4:600 5:0.004288615 
4 1:23.29 2:24.365 3:792 4:614 5:0.004307305 
4 1:23.856667 2:24.963333 3:763.33333 4:601.66667 5:0.004568298 
4 1:23.79 2:25.323333 3:425.33333 4:596.66667 5:0.004615983 
4 1:23.79 2:25.666667 3:438.5 4:542.5 5:0.004679037 
4 1:23.745 2:25.9725 3:659.25 4:567.5 5:0.004722312 
4 1:23.5 2:26.175 3:617.75 4:546 5:0.004689155 
4 1:23.29 2:27.39 3:552 4:560.66667 5:0.004846239 
4 1:23.175 2:27.8675 3:531 4:563.5 5:0.004896978 
4 1:23.1 2:28.1 3:535.5 4:555 5:0.004915637 
4 1:23.1 2:28.1975 3:528 4:561 5:0.004932829 
4 1:23.075 2:28.1 3:534 4:558.75 5:0.004908151 
4 1:23 2:28.463333 3:499 4:569.33333 5:0.004949426 
4 1:22.9725 2:28.445 3:495.25 4:568 5:0.00493792 
4 1:22.89 2:28.65 3:492.75 4:571.5 5:0.004948805 
4 1:22.84 2:28.65 3:489 4:573.75 5:0.004933715 
4 1:22.73 2:29 3:484 4:580 5:0.004961007 
4 1:22.6 2:29.29 3:464 4:586 5:0.004971324 
4 1:22.55 2:29.4175 3:464 4:584 5:0.004977879 
4 1:22.39 2:29.84 3:464 4:595.75 5:0.00500069 
4 1:22.365 2:30.025 3:457.75 4:596.5 5:0.005024236 
4 1:22.29 2:30.1 3:449.66667 4:598 5:0.005013771 
4 1:22.175 2:30.2 3:447 4:597.25 5:0.004995179 
4 1:22.025 2:30.525 3:447 4:583.5 5:0.005003048 
4 1:21.89 2:30.9725 3:438 4:610.5 5:0.005035005 
4 1:21.29 2:32.5675 3:419 4:571 5:0.005104007 
4 1:21.29 2:32.79 4:577 5:0.005139165 
4 1:20.5 2:24.775 3:389 4:857 5:0.003690234 
4 1:20.633333 2:25.36 3:399.66667 4:879.33333 5:0.003809284 
4 1:20.79 2:26.065 3:399 4:901.75 5:0.003954066 
4 1:21.6 2:28.025 3:459 4:856.25 5:0.004471792 
4 1:21.6 2:28.5225 3:454 4:868.5 5:0.004551757 
0.9916480222031209 1:21.945 2:30.2 3:419 4:985.5 5:0.00492507 
4 1:20.566667 2:30.5 3:301 4:785.66667 5:0.004568094 
4 1:20.7 2:30.9175 3:405 4:832 5:0.004669597 
4 1:21.7 2:32.895 3:37 4:1143 5:0.005287952 
4 1:22.2 2:34.245 3:449.5 4:1425.5 5:0.005679054 
4 1:22.2 2:34.096667 3:454 4:1433.6667 5:0.005654232 
4 1:22.2 2:34.363333 3:433 4:1776 5:0.005698858 
3.201981178509776 1:22.2 2:34.245 3:433 4:1698 5:0.005679054 
4 1:22.2 2:34.096667 3:419 4:1658.6667 5:0.005654232 
4 1:20.79 2:27.1225 3:296 4:1467 5:0.00411555 
-4 1:21.89 2:31.55 3:436.5 4:1047 5:0.00512966 
-4 1:21.89 2:31.36 3:434 4:1031 5:0.005098515 
-4 1:21.89 2:31.125 3:432.75 4:977.5 5:0.005059998 
-4 1:20.6 2:21.865 3:454 4:652.5 5:0.003274764 
-4 1:20.6 2:22.2 3:442.75 4:681.75 5:0.003325206 
-4 1:20.6 2:22.26 3:444 4:702.33333 5:0.003334241 
-4 1:20.633333 2:22.26 3:444 4:707 5:0.003341137 
-4 1:23.7225 2:22.815 3:289 4:835 5:0.004138745 
-4 1:23.7225 2:22.815 3:289 4:835 5:0.004138745 
-2.78812335090745 1:24 2:22.5 3:286 4:823.5 5:0.004150362 
-4 1:24 2:22.5 3:301 4:801 5:0.004150362 
-4 1:24.2 2:23.0225 3:497 4:722 5:0.004299052 
-4 1:24.2 2:23.7 3:630 4:734 5:0.004426464 
-4 1:24.2 2:23.745 3:690.5 4:729 5:0.004434928 
-4 1:21.29 2:25.496667 3:499.33333 4:525 5:0.003988753 
-4 1:21.29 2:25.463333 3:510.33333 4:528.66667 5:0.003983505 
-4 1:22.65 2:24.8975 3:726.75 4:585 5:0.004233654 
-4 1:22.666667 2:24.996667 3:737 4:594 5:0.004254963 
-4 1:22.7 2:24.9725 3:723.5 4:598 5:0.004259487 
-4 1:22.7 2:25 3:707 4:595.5 5:0.00426421 
-4 1:22.7225 2:25.175 3:720.5 4:604.5 5:0.004300171 
-4 1:22.7225 2:25.0475 3:714.5 4:613 5:0.004278243 
-4 1:23.7675 2:25.675 3:654 4:547 5:0.004674187 
-4 1:23.7675 2:25.7475 3:668.5 4:545 5:0.004687486 
-4 1:23.7 2:25.89 3:680.33333 4:564 5:0.004694368 
-4 1:23.7225 2:25.9725 3:664.75 4:567.75 5:0.004715872 
-4 1:23.7 2:25.89 3:675.25 4:569.5 5:0.004694368 
-4 1:23.745 2:26 3:669 4:571.5 5:0.00472735 
-4 1:23.7 2:26.075 3:667.25 4:564.75 5:0.004728167 
-4 1:23.7 2:26 3:655.66667 4:563.66667 5:0.004714465 
-4 1:21.445 2:32.145 3:438 4:599.5 5:0.005085734 
-4 1:21.39 2:32.09 3:441 4:600 5:0.005059743 
-4 1:20.39 2:36 3:345 4:517 5:0.00533995 
-4 1:20.5 2:36 3:362.5 4:518 5:0.005376649 
-4 1:20.7 2:35.03 3:387.33333 4:513.66667 5:0.005296013 
-4 1:21.633333 2:28.856667 3:340 4:637 5:0.00461495 
-4 1:21.675 2:28.865 3:357 4:638 5:0.004628159 
-4 1:21.7 2:28.815 3:392 4:640.5 5:0.004627203 
-4 1:21.79 2:28.7 3:360 4:639 5:0.004634208 
-4 1:21.79 2:28.7 3:345 4:639.33333 5:0.004634208 
-4 1:21.815 2:28.7 3:337 4:650 5:0.004641344 
-4 1:21.89 2:28.79 3:312.5 4:651 5:0.004677542 
-4 1:21.963333 2:28.89 3:347 4:634.33333 5:0.004715127 
-4 1:22 2:28.815 3:345.66667 4:637 5:0.004713405 
-4 1:22.075 2:28.84 3:357.8 4:642.75 5:0.004739315 
-4 1:21.7 2:29.5 3:342 4:627 5:0.004738041 
-4 1:21.79 2:29.365 3:415.5 4:632.5 5:0.004742405 
-4 1:21.856667 2:29.29 3:327 4:631 5:0.004749648 
-0.9988519993522583 1:21.9725 2:29.175 3:314.66667 4:630.33333 5:0.004764682 
-4 1:22 2:29.166667 3:370.75 4:636.5 5:0.00477137 
-4 1:22.1 2:29.133333 3:385 4:626.33333 5:0.004795248 
-4 1:22.125 2:29.1 3:390.5 4:632 5:0.004797078 
-4 1:22.175 2:28.9975 3:351.75 4:624.5 5:0.004794748 
-4 1:22.2 2:28.926667 3:419 4:628.33333 5:0.004790291 
-4 1:22.2675 2:28.89 3:420.5 4:629 5:0.004804027 
-4 1:22.29 2:28.89 3:415.5 4:630 5:0.004810662 
-4 1:22.315 2:28.79 3:372.75 4:625.5 5:0.004801237 
-4 1:22.356667 2:28.73 3:307.66667 4:630 5:0.004803409 
-4 1:22.39 2:28.7 3:315.66667 4:632.66667 5:0.004808168 
-4 1:22.39 2:28.7 3:347.5 4:631.75 5:0.004808168 
-4 1:22.5 2:28.7 3:353.5 4:626.5 5:0.004840678 
-4 1:22.4725 2:28.7 3:328.25 4:631.5 5:0.004832532 
-4 1:22.5 2:28.7 3:330.75 4:631 5:0.004840678 
-4 1:22.5 2:28.666667 3:350 4:629.33333 5:0.004835012 
-4 1:22.575 2:28.6 3:356.75 4:637.25 5:0.004845879 
-4 1:22.6 2:28.6 3:359.33333 4:628 5:0.004853299 
-4 1:22.6 2:28.5 3:355 4:628.25 5:0.004836197 
-4 1:22.666667 2:28.73 3:337 4:634.66667 5:0.004895458 
-4 1:22.7225 2:28.7 3:325 4:636.5 5:0.004907031 
-4 1:22.823333 2:28.6 3:310 4:635.33333 5:0.004920025 
-4 1:22.89 2:28.575 3:335 4:631 5:0.004935747 
-4 1:23 2:28.5 3:322 4:637 5:0.004955853 
-4 1:23 2:28.5 3:316.25 4:632.25 5:0.004955853 
-4 1:23 2:28.5 3:327.25 4:634.75 5:0.004955853 
-4 1:23.033333 2:28.566667 3:341.33333 4:633 5:0.00497765 
-4 1:23.133333 2:28.5 3:336.33333 4:630.66667 5:0.004996314 
-4 1:23.2 2:28.39 3:366.5 4:629.75 5:0.004997136 
-4 1:20.5 2:25.05 3:389 4:856.5 5:0.003731441 
-4 1:20.5 2:25.025 3:397 4:870.75 5:0.003727694 
-4 1:20.6 2:25.05 3:405 4:869 5:0.003754667 
-4 1:20.55 2:25.1 3:405 4:872.5 5:0.003750554 
-4 1:20.6 2:25.2 3:405 4:871.5 5:0.003777287 
-4 1:21.5 2:28.175 3:454 4:967.5 5:0.004468268 
-4 1:21.525 2:28.175 3:454 4:967 5:0.004475162 
-4 1:21.5 2:28.15 3:454 4:958.5 5:0.004464275 
-4 1:21.525 2:28.075 3:464 4:894.5 5:0.004459165 
-4 1:21.445 2:28.245 3:454 4:880.25 5:0.004464278 
-4 1:21.5 2:28.2675 3:457.75 4:873.75 5:0.004483043 
-4 1:20.6 2:30.633333 3:419 4:804.66667 5:0.004597722 
-4 1:20.625 2:30.7225 3:419 4:814.25 5:0.004618369 
-4 1:21.633333 2:33.163333 3:332.66667 4:1129.3333 5:0.005309581 
-4 1:21.675 2:33.19 3:431 4:1139.5 5:0.005327561 
-4 1:21.65 2:33.2 3:454 4:1139 5:0.005320969 
-4 1:22.166667 2:34.26 3:279.33333 4:1595.6667 5:0.005669935 
