svm_type c_svc
kernel_type rbf
gamma 1e-05
nr_class 2
total_sv 171
rho 0.645918
label 1 0
probA -3.86823
probB 1.07013
nr_sv 86 85
SV
512 1:21.89 2:30.15 3:416.5 4:759 5:0.004900243 
512 1:21.9175 2:30.5475 3:395.25 4:772.25 5:0.004973773 
427.9943675966048 1:21.815 2:29.7475 3:419 4:695.75 5:0.004812056 
512 1:21.815 2:29.55 3:419 4:679.75 5:0.004779862 
512 1:21.79 2:29.5 3:419 4:674 5:0.004764374 
512 1:21.79 2:29.3675 3:419 4:669.25 5:0.004742812 
512 1:21.84 2:29.55 3:419 4:674 5:0.004787222 
480.0623930945159 1:21.79 2:29.34 3:419 4:665.66667 5:0.004738337 
512 1:21.89 2:29.42 3:415.5 4:643.5 5:0.004780685 
512 1:21.89 2:29.7725 3:415 4:648 5:0.004838411 
44.5324124875739 1:21.79 2:28.55 3:419 4:585 5:0.004609808 
512 1:21.7 2:28.445 3:412 4:584.5 5:0.004567351 
512 1:21.7 2:28.5 3:279.33333 4:585 5:0.004576247 
512 1:20.6 2:22.195 3:358 4:647 5:0.003324453 
512 1:20.666667 2:22.23 3:418 4:700.33333 5:0.003343509 
512 1:20.7 2:22.2225 3:418 4:708.5 5:0.003349284 
512 1:20.7 2:22.323333 3:418 4:717 5:0.003364563 
140.2914175621026 1:20.7 2:22.695 3:423.5 4:734 5:0.003420889 
512 1:21.575 2:24.2 3:494 4:939.25 5:0.00385174 
0.8729419716300795 1:22.772 2:25.29 3:1380 4:1202.5 5:0.00433303 
1.054414249172502 1:22.79 2:25.29 3:1581 4:1211.5 5:0.004337795 
0.2734405748528592 1:22.79 2:25.1 3:1010.5 4:1215.5 5:0.00430498 
512 1:23.675 2:22.745 3:289 4:795.75 5:0.004114101 
512 1:24.356667 2:23.23 3:638 4:739.33333 5:0.004379288 
512 1:24.39 2:23.3925 3:236.5 4:852.5 5:0.004419017 
256.3498156655675 1:24.2 2:23.696667 3:682.66667 4:724.66667 5:0.004425837 
410.6535470878146 1:24.2 2:23.675 3:653.75 4:718.5 5:0.004421761 
512 1:24.2 2:23.745 3:419.75 4:697.25 5:0.004434928 
512 1:23.7 2:24.43 3:87 4:599.66667 5:0.004427757 
512 1:22.39 2:26 3:191.5 4:534.5 5:0.004352666 
512 1:22.365 2:26.2675 3:407.25 4:535 5:0.004391036 
512 1:22 2:28.025 3:418.5 4:614 5:0.004583228 
512 1:21.963333 2:27.926667 3:419 4:625.66667 5:0.004556749 
104.8531257088881 1:21.9175 2:27.9175 3:419 4:625.75 5:0.004542427 
512 1:21.89 2:27.89 3:279.33333 4:603.66667 5:0.004530253 
512 1:21.29 2:25.345 3:328.5 4:519 5:0.003964875 
512 1:22.356667 2:25.166667 3:682 4:575.66667 5:0.004203624 
512 1:22.39 2:25.05 3:686 4:584.5 5:0.004192554 
512 1:22.5 2:25.025 3:699 4:585.25 5:0.004216633 
462.9023013979375 1:22.5 2:25.1 3:714.5 4:578.5 5:0.004229356 
512 1:22.5 2:25.05 3:705.5 4:580.5 5:0.004220874 
468.1931388483518 1:22.73 2:24.963333 3:725 4:610 5:0.004265722 
512 1:22.79 2:24.8925 3:717.75 4:608.25 5:0.004269147 
512 1:22.84 2:24.945 3:720.5 4:595.75 5:0.004291289 
512 1:22.89 2:24.865 3:722.25 4:598.5 5:0.0042905 
366.4658490794372 1:23.79 2:25.1 3:727 4:588 5:0.004574974 
512 1:23.7 2:25.89 3:651.5 4:551.5 5:0.004694368 
512 1:23.7 2:25.89 3:648.33333 4:545.33333 5:0.004694368 
512 1:23.7 2:25.89 3:643.75 4:540.75 5:0.004694368 
512 1:23.7 2:25.89 3:646 4:537.75 5:0.004694368 
464.1648549254321 1:23.633333 2:25.89 3:629.66667 4:537.66667 5:0.004675417 
512 1:21.29 2:32.5675 3:419 4:571 5:0.005104007 
512 1:21.23 2:32.53 3:419 4:573 5:0.005079198 
512 1:21.2675 2:32.5675 3:419 4:573 5:0.00509691 
512 1:21.245 2:32.7 3:419 4:573.5 5:0.0051107 
90.45949644661953 1:21.245 2:32.6725 3:419 4:573.75 5:0.005106367 
512 1:21.29 2:32.7 3:419 4:568.5 5:0.005124943 
512 1:21.245 2:32.7 3:419 4:571.5 5:0.0051107 
512 1:21.2675 2:32.7225 3:411.5 4:572 5:0.005121368 
512 1:21.29 2:32.79 4:577 5:0.005139165 
512 1:20.5 2:24.6 3:397 4:851.75 5:0.003664014 
512 1:20.5 2:24.775 3:389 4:857 5:0.003690234 
512 1:20.633333 2:25.36 3:399.66667 4:879.33333 5:0.003809284 
512 1:20.65 2:25.445 3:389 4:874.25 5:0.003826083 
512 1:20.675 2:25.5475 3:393 4:882.33333 5:0.003847551 
512 1:20.675 2:25.575 3:393 4:885.8 5:0.003851718 
151.3759601498307 1:20.7 2:25.73 3:399.66667 4:891.66667 5:0.003881218 
512 1:20.745 2:25.79 3:397 4:901.75 5:0.003901192 
512 1:20.79 2:25.79 3:394.5 4:905 5:0.003912086 
61.44196074433068 1:21.7 2:26.996667 3:528.33333 4:995.33333 5:0.004333175 
512 1:21.7 2:26.626667 3:489 4:946 5:0.004273379 
218.6263112851978 1:21.65 2:28.1 3:479 4:906.5 5:0.004497681 
512 1:21.625 2:28.05 3:479 4:912.75 5:0.00448271 
512 1:21.9725 2:30.29 3:419 4:997 5:0.004948225 
146.9656023861517 1:21.963333 2:30.29 3:419 4:994 5:0.004945437 
512 1:21.89 2:30.39 3:411.5 4:978 5:0.00493956 
512 1:20.566667 2:30.5 3:301 4:785.66667 5:0.004568094 
512 1:21.39 2:32.44 3:425.25 4:1069.75 5:0.005115382 
207.9449873506309 1:21.5 2:32.7 3:429 4:1103.5 5:0.005191877 
512 1:21.5 2:32.6725 3:429 4:1108 5:0.005187474 
512 1:21.4725 2:32.6725 3:429 4:1115 5:0.005178673 
512 1:21.7 2:32.895 3:37 4:1143 5:0.005287952 
232.7149215501603 1:21.79 2:34 3:429 4:1188 5:0.005497567 
4.377329936355624 1:22.2 2:34.4 3:433 4:1750 5:0.005704995 
26.31769385471536 1:20.79 2:27.1225 3:296 4:1467 5:0.00411555 
2.740101030777462 1:21 2:28.1 3:409 4:1864 5:0.004320732 
-512 1:21.89 2:31.55 3:436.5 4:1047 5:0.00512966 
-512 1:21.89 2:31.36 3:434 4:1031 5:0.005098515 
-512 1:21.89 2:31.125 3:432.75 4:977.5 5:0.005059998 
-82.11540348453605 1:20.5 2:22.7 4:607 5:0.003379483 
-17.3082115557389 1:20.5 2:22.6 4:603 5:0.003364515 
-512 1:20.6 2:21.865 3:454 4:652.5 5:0.003274764 
-512 1:20.6 2:22.2 3:442.75 4:681.75 5:0.003325206 
-512 1:20.6 2:22.26 3:444 4:702.33333 5:0.003334241 
-512 1:20.633333 2:22.26 3:444 4:707 5:0.003341137 
-512 1:23.79 2:22.7225 3:307.5 4:830.25 5:0.004138744 
-423.5906631777956 1:23.815 2:22.7225 3:312 4:824 5:0.004145015 
-512 1:23.89 2:22.7 3:313 4:824.33333 5:0.004159727 
-326.9509516211129 1:24.1 2:22.39 3:267.5 4:921.5 5:0.004154976 
-512 1:24.2 2:23.0225 3:497 4:722 5:0.004299052 
-512 1:24.2 2:23.7 3:630 4:734 5:0.004426464 
-512 1:24.2 2:23.745 3:690.5 4:729 5:0.004434928 
-155.3195785249252 1:23.29 2:25 3:92 4:576.5 5:0.00442036 
-343.7769562390556 1:22.945 2:25.39 3:74 4:569.5 5:0.004396453 
-512 1:22.745 2:25.7 3:79 4:562.5 5:0.004396519 
-512 1:21.29 2:25.496667 3:499.33333 4:525 5:0.003988753 
-512 1:21.29 2:25.463333 3:510.33333 4:528.66667 5:0.003983505 
-512 1:22.65 2:24.8975 3:726.75 4:585 5:0.004233654 
-512 1:22.666667 2:24.996667 3:737 4:594 5:0.004254963 
-512 1:22.7 2:24.9725 3:723.5 4:598 5:0.004259487 
-512 1:22.7 2:25 3:707 4:595.5 5:0.00426421 
-512 1:22.7225 2:25.175 3:720.5 4:604.5 5:0.004300171 
-512 1:22.7225 2:25.0475 3:714.5 4:613 5:0.004278243 
-27.02074801019853 1:23.79 2:25.426667 3:209 4:543.33333 5:0.004634959 
-512 1:23.7675 2:25.675 3:654 4:547 5:0.004674187 
-512 1:23.7675 2:25.7475 3:668.5 4:545 5:0.004687486 
-512 1:23.7 2:25.89 3:680.33333 4:564 5:0.004694368 
-512 1:23.7225 2:25.9725 3:664.75 4:567.75 5:0.004715872 
-512 1:23.7 2:25.89 3:675.25 4:569.5 5:0.004694368 
-512 1:23.745 2:26 3:669 4:571.5 5:0.00472735 
-512 1:23.7 2:26.075 3:667.25 4:564.75 5:0.004728167 
-512 1:23.7 2:26 3:655.66667 4:563.66667 5:0.004714465 
-512 1:21.445 2:32.145 3:438 4:599.5 5:0.005085734 
-512 1:21.39 2:32.09 3:441 4:600 5:0.005059743 
-512 1:20.39 2:36 3:345 4:517 5:0.00533995 
-512 1:20.5 2:36 3:362.5 4:518 5:0.005376649 
-512 1:20.7 2:35.03 3:387.33333 4:513.66667 5:0.005296013 
-16.10947392579404 1:20.823333 2:34.79 3:305 4:504.33333 5:0.005299861 
-183.2385929836125 1:20.68 2:34.736 3:207.2 4:495 5:0.005244668 
-60.56764195511526 1:20 2:31.2 4:607 5:0.004511693 
-512 1:21.675 2:28.865 3:357 4:638 5:0.004628159 
-512 1:21.7 2:28.815 3:392 4:640.5 5:0.004627203 
-512 1:21.745 2:28.79 3:384 4:641.75 5:0.004635988 
-512 1:21.79 2:28.7 3:360 4:639 5:0.004634208 
-512 1:22.075 2:28.84 3:357.8 4:642.75 5:0.004739315 
-512 1:21.79 2:29.365 3:415.5 4:632.5 5:0.004742405 
-512 1:22 2:29.166667 3:370.75 4:636.5 5:0.00477137 
-512 1:22.1 2:29.133333 3:385 4:626.33333 5:0.004795248 
-512 1:22.125 2:29.1 3:390.5 4:632 5:0.004797078 
-512 1:22.2 2:28.926667 3:419 4:628.33333 5:0.004790291 
-512 1:22.2675 2:28.89 3:420.5 4:629 5:0.004804027 
-512 1:22.29 2:28.89 3:415.5 4:630 5:0.004810662 
-512 1:22.315 2:28.79 3:372.75 4:625.5 5:0.004801237 
-113.9251693889226 1:22.575 2:28.6 3:356.75 4:637.25 5:0.004845879 
-512 1:22.6 2:28.6 3:359.33333 4:628 5:0.004853299 
-512 1:23.1 2:28.55 3:357.75 4:630 5:0.00499499 
-512 1:23.2 2:28.39 3:366.5 4:629.75 5:0.004997136 
-134.5362769043662 1:20.39 2:32.79 4:643.5 5:0.004860084 
-507.3324040334243 1:20.445 2:24.34 3:292.25 4:831 5:0.003612707 
-512 1:20.5 2:25.05 3:389 4:856.5 5:0.003731441 
-512 1:20.5 2:25.025 3:397 4:870.75 5:0.003727694 
-512 1:20.6 2:25.05 3:405 4:869 5:0.003754667 
-512 1:20.55 2:25.1 3:405 4:872.5 5:0.003750554 
-512 1:20.6 2:25.2 3:405 4:871.5 5:0.003777287 
-512 1:21.5 2:28.175 3:454 4:967.5 5:0.004468268 
-512 1:21.525 2:28.175 3:454 4:967 5:0.004475162 
-512 1:21.5 2:28.15 3:454 4:958.5 5:0.004464275 
-512 1:21.525 2:28.075 3:464 4:894.5 5:0.004459165 
-512 1:21.445 2:28.245 3:454 4:880.25 5:0.004464278 
-512 1:21.5 2:28.2675 3:457.75 4:873.75 5:0.004483043 
-25.45899523390726 1:20.6 2:30.5 3:101.33333 4:787.66667 5:0.004577563 
-512 1:20.6 2:30.633333 3:419 4:804.66667 5:0.004597722 
-512 1:20.625 2:30.7225 3:419 4:814.25 5:0.004618369 
-164.0665608930217 1:21.7 2:33.1175 3:19 4:1165.5 5:0.005324026 
-287.7928508089663 1:21.7 2:33.09 3:26.25 4:1136.5 5:0.005319567 
-325.7890625658682 1:21.633333 2:33.163333 3:332.66667 4:1129.3333 5:0.005309581 
-512 1:21.675 2:33.19 3:431 4:1139.5 5:0.005327561 
-512 1:21.65 2:33.2 3:454 4:1139 5:0.005320969 
-23.51659501087476 1:22.166667 2:34.26 3:279.33333 4:1595.6667 5:0.005669935 
-17.10495697919696 1:20.89 2:30.79 4:1113 5:0.004705324 
-0.107291688218223 1:20.79 2:27.245 4:2076.5 5:0.004134262 
