svm_type c_svc
kernel_type linear
nr_class 2
total_sv 419
rho -7.80981
label 1 0
probA -0.680669
probB 0.334234
nr_sv 214 205
SV
4 1:21.865 2:31.7225 3:449.5 4:1072.3333 5:0.005150007 
4 1:21.89 2:30.575 3:429 4:850.5 5:0.00496987 
4 1:21.89 2:30.426667 3:414 4:792.66667 5:0.004945567 
4 1:21.945 2:30.5 3:433 4:803.5 5:0.004974386 
4 1:21.89 2:30.426667 3:433 4:803.66667 5:0.004945567 
4 1:21.84 2:29.795 3:419 4:702 5:0.004827221 
4 1:21.79 2:29.3675 3:419 4:669.25 5:0.004742812 
4 1:21.89 2:29.2 3:419 4:633.5 5:0.004744663 
4 1:21.79 2:28.89 3:419 4:606 5:0.004665118 
4 1:21.79 2:28.525 3:419 4:595.25 5:0.004605742 
4 1:21.7 2:28.5 3:279.33333 4:585 5:0.004576247 
4 1:20.6 2:22.195 3:358 4:647 5:0.003324453 
0.00480150579859984 1:20.7 2:22.323333 3:418 4:717 5:0.003364563 
4 1:22.89 2:23.7925 3:637.5 4:972.75 5:0.004104217 
4 1:23.675 2:22.745 3:289 4:795.75 5:0.004114101 
4 1:24.29 2:23.626667 3:522 4:728.66667 5:0.004436716 
4 1:24.39 2:23.2725 3:666 4:840.75 5:0.004396188 
4 1:24.29 2:23.29 3:688 4:863.5 5:0.004373051 
4 1:24.39 2:23.3925 3:236.5 4:852.5 5:0.004419017 
4 1:24.2 2:23.55 3:450 4:733 5:0.00439825 
4 1:24.2 2:23.745 3:419.75 4:697.25 5:0.004434928 
4 1:23.7 2:24.43 3:87 4:599.66667 5:0.004427757 
4 1:22.39 2:26 3:191.5 4:534.5 5:0.004352666 
4 1:22.365 2:26.2675 3:407.25 4:535 5:0.004391036 
4 1:22.365 2:26.29 3:466.75 4:539.25 5:0.004394824 
0.823850476055098 1:22.29 2:26.445 3:469 4:538 5:0.004400648 
4 1:22.29 2:26.55 3:454 4:546.25 5:0.004418245 
0.0006166924410379459 1:22.323333 2:26.6 3:454 4:542.66667 5:0.004435678 
4 1:22.315 2:26.6 3:450.25 4:551.75 5:0.004433413 
4 1:22.29 2:26.65 3:439 4:555 5:0.004435005 
4 1:22.29 2:26.65 3:439 4:552.75 5:0.004435005 
4 1:22.23 2:26.926667 3:439 4:576 5:0.004464923 
4 1:22.1 2:27.6 3:429 4:599.5 5:0.004541024 
4 1:22 2:27.525 3:429 4:606.75 5:0.004500866 
4 1:22.033333 2:27.566667 3:429 4:606 5:0.004516969 
4 1:22.05 2:27.65 3:429 4:612.5 5:0.004535364 
2.355726739662677 1:22 2:27.79 3:433 4:623.33333 5:0.004544515 
4 1:22 2:28.1 3:433 4:635 5:0.004595585 
4 1:21.963333 2:27.926667 3:419 4:625.66667 5:0.004556749 
4 1:21.89 2:27.89 3:279.33333 4:603.66667 5:0.004530253 
4 1:21.29 2:25.345 3:328.5 4:519 5:0.003964875 
4 1:21.575 2:25.625 3:511.5 4:547 5:0.004080035 
4 1:23.245 2:24.245 3:752.5 4:600.5 5:0.004274231 
4 1:23.39 2:24.34 3:774 4:607.5 5:0.004329093 
4 1:23.29 2:24.365 3:792 4:614 5:0.004307305 
4 1:23.89 2:25.3925 3:808 4:700.5 5:0.004656816 
4 1:23.926667 2:25.1 3:785.66667 4:652.66667 5:0.004613008 
4 1:23.89 2:25.133333 3:765 4:644.75 5:0.004608935 
4 1:23.89 2:25.1 3:753 4:625.25 5:0.004602777 
4 1:23.815 2:25.125 3:743.25 4:603 5:0.004586508 
4 1:23.79 2:25.323333 3:425.33333 4:596.66667 5:0.004615983 
4 1:23.79 2:25.666667 3:438.5 4:542.5 5:0.004679037 
4 1:23.745 2:25.9725 3:659.25 4:567.5 5:0.004722312 
1.084336150884607 1:23.7 2:25.89 3:662 4:563 5:0.004694368 
4 1:23.7 2:25.89 3:651.5 4:551.5 5:0.004694368 
4 1:23.7 2:25.89 3:643.75 4:540.75 5:0.004694368 
4 1:23.7 2:25.89 3:646 4:537.75 5:0.004694368 
4 1:23.5 2:26.175 3:617.75 4:546 5:0.004689155 
4 1:23.5 2:26.23 3:626.66667 4:545 5:0.004699082 
4 1:23.4725 2:27.525 3:610 4:570 5:0.004924681 
4 1:23.39 2:27 3:562 4:568 5:0.004805854 
4 1:23.39 2:27.1 3:558.5 4:563 5:0.004823792 
3.992449722868059 1:23.39 2:27.1 3:573 4:556 5:0.004823792 
4 1:23.29 2:27.463333 3:552.33333 4:563.33333 5:0.004859316 
4 1:23.2 2:27.7 3:553 4:549.5 5:0.004874732 
4 1:23.2 2:27.79 3:539.66667 4:565 5:0.004890695 
1.998432613261306 1:23.175 2:27.8675 3:531 4:563.5 5:0.004896978 
4 1:23.1 2:28.1975 3:528 4:561 5:0.004932829 
4 1:23.1 2:28.2225 3:532.5 4:574 5:0.004937237 
4 1:23.1 2:28.133333 3:528.66667 4:557.66667 5:0.004921515 
4 1:23.075 2:28.1 3:534 4:558.75 5:0.004908151 
4 1:23.1 2:28.356667 3:513 4:571.33333 5:0.004960895 
4 1:23 2:28.463333 3:499 4:569.33333 5:0.004949426 
4 1:23 2:28.4725 3:499 4:571.25 5:0.004951033 
4 1:22.89 2:28.65 3:492.75 4:571.5 5:0.004948805 
4 1:22.675 2:29.125 3:479 4:575 5:0.004965832 
4 1:22.6 2:29.29 3:464 4:586 5:0.004971324 
4 1:22.55 2:29.4175 3:464 4:584 5:0.004977879 
4 1:22.39 2:29.84 3:464 4:595.75 5:0.00500069 
4 1:22.365 2:30.025 3:457.75 4:596.5 5:0.005024236 
4 1:22.2675 2:30.075 3:438 4:601.5 5:0.005002662 
4 1:22.26 2:30.066667 3:441 4:599 5:0.004998963 
4 1:22.175 2:30.2 3:447 4:597.25 5:0.004995179 
4 1:22 2:30.6 3:443.5 4:591 5:0.005007736 
4 1:21.675 2:31.625 3:436.5 4:628.5 5:0.005074303 
4 1:21.29 2:32.59 3:419 4:575.66667 5:0.005107562 
4 1:21.29 2:32.79 4:577 5:0.005139165 
4 1:21.175 2:27.2 3:458.25 4:1018.75 5:0.004226914 
4 1:21.79 2:29.55 3:436.5 4:914 5:0.004772511 
3.295249508412291 1:21.7 2:29.823333 3:441 4:933.33333 5:0.004790372 
4 1:22 2:30.1 3:433 4:966.5 5:0.004925262 
4 1:21.7 2:32.895 3:37 4:1143 5:0.005287952 
4 1:22.2 2:34.245 3:449.5 4:1425.5 5:0.005679054 
4 1:22.2 2:34.096667 3:454 4:1433.6667 5:0.005654232 
4 1:22.2 2:34.245 3:471.5 4:1397 5:0.005679054 
4 1:22.2 2:34.245 3:449 4:1414.5 5:0.005679054 
4 1:22.2225 2:34.275 3:454 4:1440 5:0.00569194 
3.915834705249938 1:22.15 2:34.25 3:429 4:1450.5 5:0.00566246 
4 1:22.15 2:34.425 3:429 4:1466 5:0.005691657 
4 1:22.1 2:34.4475 3:429 4:1498 5:0.005677926 
4 1:22.125 2:34.3 3:442.5 4:1518.75 5:0.005662092 
4 1:22.125 2:34.3725 3:438 4:1528.5 5:0.005674169 
4 1:22.1 2:34.53 3:433 4:1653 5:0.005691649 
4 1:22.2 2:34.363333 3:433 4:1776 5:0.005698858 
4 1:22.2 2:34.4 3:433 4:1750 5:0.005704995 
4 1:22.2 2:34.1725 3:433 4:1682.75 5:0.005666922 
4 1:22.2 2:34.245 3:433 4:1698 5:0.005679054 
4 1:22.2 2:34.245 3:419 4:1602 5:0.005679054 
4 1:22.2 2:34.245 3:419 4:1603 5:0.005679054 
4 1:23.15 2:27.245 3:426 4:713.5 5:0.004779464 
4 1:23.1 2:27.2 3:419 4:701.66667 5:0.004756993 
4 1:23.1 2:27.166667 3:419 4:683.5 5:0.004751119 
4 1:23.05 2:27.15 3:419 4:687.5 5:0.004733732 
4 1:23 2:27.125 3:419 4:686 5:0.004714942 
4 1:23 2:27.125 3:418.5 4:680.5 5:0.004714942 
4 1:20.7 2:22.39 3:356 4:457 5:0.003374666 
4 1:20.73 2:22.5 3:419 4:472 5:0.003397643 
4 1:20.7225 2:22.525 3:419 4:470.5 5:0.003399859 
4 1:20.7675 2:22.65 3:411 4:478 5:0.003428371 
4 1:20.79 2:22.79 3:411 4:492 5:0.003454488 
4 1:20.815 2:22.8675 3:411 4:497.75 5:0.00347167 
4 1:20.815 2:23.025 3:400 4:507 5:0.003495715 
4 1:20.89 2:23.175 3:396 4:514.75 5:0.003534987 
4 1:20.89 2:23.29 3:396 4:515 5:0.003552629 
4 1:20.89 2:23.29 3:396 4:520.75 5:0.003552629 
4 1:20.89 2:23.29 3:396 4:526 5:0.003552629 
2.997402324112991 1:20.89 2:23.323333 3:398.33333 4:527 5:0.003557743 
4 1:21 2:23.6 3:405 4:567.33333 5:0.003624768 
4 1:21.025 2:23.7225 3:405 4:578.75 5:0.003649329 
4 1:21.05 2:23.745 3:419 4:590 5:0.003658459 
4 1:21.1 2:23.79 3:419 4:611.33333 5:0.003676776 
3.618467872427985 1:21.1 2:23.79 3:419 4:613 5:0.003676776 
4 1:21.26 2:23.856667 3:423.66667 4:641 5:0.00372375 
4 1:22.025 2:26.4425 3:469 4:1034.25 5:0.004329269 
4 1:22.2 2:26.6 3:448 4:1068 5:0.004402265 
1.845946398803122 1:22.2 2:26.6 3:454.66667 4:1069 5:0.004402265 
4 1:22.2 2:27.1 3:444 4:1131.25 5:0.004485611 
4 1:22.2 2:27.033333 3:444 4:1132.3333 5:0.004474497 
4 1:22.29 2:26.166667 3:334.33333 4:900.33333 5:0.004354007 
4 1:22.2 2:26.376 3:439.8 4:795.2 5:0.004364933 
4 1:22.23 2:27.73 3:441 4:932 5:0.004599115 
4 1:22.5 2:28.29 3:513.5 4:1104 5:0.004770995 
4 1:22.5 2:27 3:460.66667 4:1074.3333 5:0.00455185 
4 1:22.39 2:26.823333 3:453 4:1077.3333 5:0.004491496 
4 1:22.34 2:26.39 3:438 4:1068.75 5:0.004404907 
4 1:22.34 2:26.39 3:447 4:1074.75 5:0.004404907 
4 1:22.2675 2:25.4975 3:433 4:998.75 5:0.004236057 
0.004287026668132926 1:22.245 2:24.89 3:433 4:935.5 5:0.004128762 
4 1:22.2 2:24.34 3:433 4:903 5:0.004025817 
4 1:22.2 2:24.34 3:433 4:907 5:0.004025817 
4 1:22.133333 2:24.29 3:433 4:898.66667 5:0.004001106 
4 1:22.1 2:24.29 3:433 4:884 5:0.003992934 
4 1:22 2:23.926667 3:433 4:858 5:0.003908772 
2.089434619488904 1:22.075 2:23.9725 3:426 4:839 5:0.003934372 
4 1:22.025 2:24.0475 3:213 4:845.5 5:0.003934669 
4 1:20.2 2:18.6 3:401.33333 4:439 5:0.002715358 
4 1:20.15 2:18.7 3:419 4:457.25 5:0.002721553 
4 1:20.125 2:18.865 3:411 4:458 5:0.00274141 
4 1:20.15 2:18.89 3:411 4:460 5:0.002749327 
4 1:20.2 2:18.89 3:411 4:459.75 5:0.002757882 
4 1:20.2 2:19.05 3:411 4:464 5:0.002781346 
4 1:20.2225 2:19.05 3:407.5 4:463.5 5:0.002785236 
4 1:20.2675 2:19.2175 3:400 4:470.25 5:0.0028177 
4 1:20.29 2:19.2225 3:400 4:483.5 5:0.002822377 
0.2599700855241899 1:20.315 2:19.245 3:413 4:488.66667 5:0.002830085 
4 1:20.39 2:19.26 3:409 4:496.25 5:0.002845514 
4 1:20.426667 2:19.163333 3:413 4:504 5:0.002837614 
4 1:20.525 2:19.315 3:411 4:509.25 5:0.002877666 
4 1:20.5 2:19.2425 3:405 4:515 5:0.002862376 
4 1:20.566667 2:19.2 3:409 4:515.33333 5:0.002867849 
4 1:20.7 2:19.5 3:418.33333 4:530.33333 5:0.002937022 
0.4523452405996884 1:20.7 2:19.5 3:419 4:533.66667 5:0.002937022 
4 1:20.7 2:19.575 3:419 4:535.75 5:0.002948372 
4 1:20.89 2:19.65 3:422.5 4:591.5 5:0.002994714 
4 1:20.823333 2:19.666667 3:433 4:591 5:0.002984937 
0.1515142924471369 1:20.856667 2:19.76 3:433 4:598.66667 5:0.00300536 
4 1:20.89 2:19.79 3:433 4:621 5:0.003016154 
4 1:20.89 2:19.79 3:433 4:635.5 5:0.003016154 
4 1:20.89 2:19.79 3:433 4:635.75 5:0.003016154 
4 1:20.89 2:19.79 3:433 4:655 5:0.003016154 
4 1:20.963333 2:19.79 3:433 4:639.33333 5:0.003029855 
4 1:20.89 2:19.79 3:436.5 4:648 5:0.003016154 
4 1:20.89 2:19.79 3:433 4:654 5:0.003016154 
4 1:21.325 2:20.978 3:456 4:808 5:0.003285198 
0.01717739807053137 1:21.39 2:20.865 3:449.5 4:798.5 5:0.003280523 
4 1:21.745 2:20.6 3:471.5 4:821.75 5:0.003310153 
4 1:21.7 2:20.4175 3:464 4:794 5:0.003271613 
4 1:21.29 2:19.745 3:293.5 4:662.25 5:0.003084488 
4 1:21.675 2:19.125 3:523.75 4:637.25 5:0.003058786 
0.1020487371639735 1:21.7 2:19.12 3:559.5 4:632.25 5:0.003062684 
4 1:21.745 2:21.1725 3:457 4:876 5:0.003402649 
4 1:21.7 2:21.445 3:438 4:874 5:0.003437165 
4 1:21.7 2:21.125 3:433 4:812 5:0.003385597 
4 1:21.7 2:20.856667 3:433 4:778 5:0.003342362 
4 1:19.525 2:27.025 3:289.75 4:473.75 5:0.003790078 
0.3239893242168256 1:19.666667 2:27.73 3:405 4:510.66667 5:0.003924175 
4 1:19.7675 2:28.175 3:392.5 4:546 5:0.004012754 
4 1:20.05 2:29.575 3:405 4:689.75 5:0.004288444 
4 1:21.5 2:33.2225 3:31 4:1246 5:0.00527554 
4 1:21.15 2:32.845 3:365.75 4:1121 5:0.005103459 
4 1:21.9175 2:37.2725 3:444 4:1762 5:0.006079446 
4 1:22.1 2:38.73 3:447 4:1981.6667 5:0.006391057 
4 1:22.1 2:39.0225 3:433 4:2012.25 5:0.006439823 
4 1:22.1 2:39.0225 3:433 4:2019 5:0.006439823 
4 1:22.175 2:38.9725 3:328 4:1986.5 5:0.006461252 
1.295947172439518 1:22.15 2:38.425 3:433 4:1917.5 5:0.006359759 
4 1:22.1 2:37.79 3:209.5 4:1788.5 5:0.006234387 
4 1:20.463333 2:33.663333 3:413 4:499 5:0.005013396 
4 1:20.5 2:33.79 3:405 4:506.66667 5:0.005043906 
4 1:20.65 2:33.975 3:419 4:524.5 5:0.005119268 
4 1:20.65 2:33.975 3:419 4:534.5 5:0.005119268 
4 1:20.7 2:34.296667 3:419 4:548 5:0.00518422 
4 1:20.79 2:34.826667 3:433 4:636 5:0.005294526 
4 1:21.1 2:36.26 3:433 4:820.33333 5:0.005621449 
-4 1:21.89 2:31.55 3:436.5 4:1047 5:0.00512966 
-4 1:21.89 2:31.36 3:434 4:1031 5:0.005098515 
-4 1:21.89 2:31.125 3:432.75 4:977.5 5:0.005059998 
-4 1:20.6 2:21.865 3:454 4:652.5 5:0.003274764 
-4 1:20.6 2:22.2 3:442.75 4:681.75 5:0.003325206 
-4 1:20.6 2:22.26 3:444 4:702.33333 5:0.003334241 
-4 1:20.633333 2:22.26 3:444 4:707 5:0.003341137 
-4 1:23.79 2:22.79 3:289 4:836.5 5:0.00415112 
-4 1:23.79 2:22.79 3:292.5 4:834.75 5:0.00415112 
-0.5197244970534071 1:24 2:22.5 3:301 4:801 5:0.004150362 
-3.252354262439956 1:24.1 2:22.5 3:298 4:786 5:0.004175526 
-4 1:24.2 2:23.0225 3:497 4:722 5:0.004299052 
-4 1:24.2 2:23.7 3:630 4:734 5:0.004426464 
-4 1:24.2 2:23.745 3:690.5 4:729 5:0.004434928 
-4 1:21.29 2:25.496667 3:499.33333 4:525 5:0.003988753 
-4 1:21.29 2:25.463333 3:510.33333 4:528.66667 5:0.003983505 
-4 1:22.65 2:24.8975 3:726.75 4:585 5:0.004233654 
-4 1:22.666667 2:24.996667 3:737 4:594 5:0.004254963 
-4 1:22.7 2:24.9725 3:723.5 4:598 5:0.004259487 
-4 1:22.7 2:25 3:707 4:595.5 5:0.00426421 
-4 1:22.7225 2:25.175 3:720.5 4:604.5 5:0.004300171 
-4 1:22.7225 2:25.0475 3:714.5 4:613 5:0.004278243 
-4 1:23.7675 2:25.675 3:654 4:547 5:0.004674187 
-4 1:23.7675 2:25.7475 3:668.5 4:545 5:0.004687486 
-4 1:23.7 2:25.89 3:680.33333 4:564 5:0.004694368 
-4 1:23.7225 2:25.9725 3:664.75 4:567.75 5:0.004715872 
-4 1:23.7 2:25.89 3:675.25 4:569.5 5:0.004694368 
-4 1:23.745 2:26 3:669 4:571.5 5:0.00472735 
-4 1:23.7 2:26.075 3:667.25 4:564.75 5:0.004728167 
-4 1:23.7 2:26 3:655.66667 4:563.66667 5:0.004714465 
-4 1:21.445 2:32.145 3:438 4:599.5 5:0.005085734 
-4 1:21.39 2:32.09 3:441 4:600 5:0.005059743 
-4 1:20.39 2:36 3:345 4:517 5:0.00533995 
-4 1:20.5 2:36 3:362.5 4:518 5:0.005376649 
-4 1:20.7 2:35.03 3:387.33333 4:513.66667 5:0.005296013 
-4 1:20.7 2:34.845 3:287 4:498.5 5:0.005267807 
-4 1:21.633333 2:28.856667 3:340 4:637 5:0.00461495 
-4 1:21.675 2:28.865 3:357 4:638 5:0.004628159 
-4 1:21.7 2:28.815 3:392 4:640.5 5:0.004627203 
-4 1:21.745 2:28.79 3:384 4:641.75 5:0.004635988 
-4 1:21.79 2:28.7 3:360 4:639 5:0.004634208 
-4 1:21.79 2:28.7 3:345 4:639.33333 5:0.004634208 
-4 1:21.815 2:28.7 3:337 4:650 5:0.004641344 
-4 1:21.89 2:28.79 3:312.5 4:651 5:0.004677542 
-4 1:21.89 2:29 3:289 4:639 5:0.004711919 
-4 1:21.89 2:28.89 3:295.5 4:640.25 5:0.004693912 
-4 1:21.963333 2:28.89 3:347 4:634.33333 5:0.004715127 
-4 1:22 2:28.815 3:345.66667 4:637 5:0.004713405 
-4 1:22.075 2:28.84 3:357.8 4:642.75 5:0.004739315 
-4 1:21.7 2:29.5 3:246 4:628.5 5:0.004738041 
-4 1:21.7 2:29.5 3:288 4:623 5:0.004738041 
-4 1:21.7 2:29.5 3:342 4:627 5:0.004738041 
-4 1:21.79 2:29.365 3:415.5 4:632.5 5:0.004742405 
-4 1:21.856667 2:29.29 3:327 4:631 5:0.004749648 
-0.5201506651003726 1:21.89 2:29.2 3:278 4:634.66667 5:0.004744663 
-4 1:21.9725 2:29.175 3:314.66667 4:630.33333 5:0.004764682 
-4 1:22 2:29.166667 3:370.75 4:636.5 5:0.00477137 
-4 1:22.1 2:29.15 3:293.5 4:636.5 5:0.004798012 
-4 1:22.1 2:29.1 3:329 4:628 5:0.004789719 
-4 1:22.1 2:29.133333 3:385 4:626.33333 5:0.004795248 
-4 1:22.125 2:29.1 3:390.5 4:632 5:0.004797078 
-4 1:22.175 2:28.9975 3:351.75 4:624.5 5:0.004794748 
-4 1:22.2 2:28.926667 3:419 4:628.33333 5:0.004790291 
-4 1:22.2675 2:28.89 3:420.5 4:629 5:0.004804027 
-4 1:22.29 2:28.89 3:415.5 4:630 5:0.004810662 
-4 1:22.315 2:28.79 3:372.75 4:625.5 5:0.004801237 
-4 1:22.39 2:28.7 3:315.66667 4:632.66667 5:0.004808168 
-4 1:22.39 2:28.7 3:347.5 4:631.75 5:0.004808168 
-4 1:22.39 2:28.7 3:332 4:626.25 5:0.004808168 
-4 1:22.5 2:28.7 3:353.5 4:626.5 5:0.004840678 
-4 1:22.4725 2:28.7 3:328.25 4:631.5 5:0.004832532 
-4 1:22.5 2:28.7 3:330.75 4:631 5:0.004840678 
-4 1:22.5 2:28.666667 3:350 4:629.33333 5:0.004835012 
-4 1:22.575 2:28.6 3:356.75 4:637.25 5:0.004845879 
-4 1:22.6 2:28.6 3:359.33333 4:628 5:0.004853299 
-4 1:22.6 2:28.5 3:355 4:628.25 5:0.004836197 
-4 1:22.79 2:28.6 3:319 4:632.5 5:0.004910015 
-4 1:22.823333 2:28.6 3:310 4:635.33333 5:0.004920025 
-2.705013747137096 1:22.89 2:28.6 3:310 4:632.5 5:0.0049401 
-4 1:22.89 2:28.6 3:302.5 4:632 5:0.0049401 
-4 1:22.89 2:28.575 3:335 4:631 5:0.004935747 
-4 1:23 2:28.5 3:322 4:637 5:0.004955853 
-4 1:23 2:28.5 3:304.5 4:632.5 5:0.004955853 
-4 1:23 2:28.5 3:316.25 4:632.25 5:0.004955853 
-4 1:23 2:28.5 3:327.25 4:634.75 5:0.004955853 
-2.61410610000737 1:23.175 2:28.5 3:316.5 4:629.75 5:0.005009018 
-4 1:23.2 2:28.5 3:345 4:627 5:0.005016654 
-4 1:23.2 2:28.39 3:366.5 4:629.75 5:0.004997136 
-4 1:20.445 2:24.34 3:292.25 4:831 5:0.003612707 
-4 1:20.5 2:25.05 3:389 4:856.5 5:0.003731441 
-4 1:20.5 2:25.025 3:397 4:870.75 5:0.003727694 
-4 1:20.6 2:25.05 3:405 4:869 5:0.003754667 
-4 1:20.55 2:25.1 3:405 4:872.5 5:0.003750554 
-4 1:20.6 2:25.2 3:405 4:871.5 5:0.003777287 
-4 1:21.5 2:28.175 3:454 4:967.5 5:0.004468268 
-4 1:21.525 2:28.175 3:454 4:967 5:0.004475162 
-4 1:21.5 2:28.15 3:454 4:958.5 5:0.004464275 
-4 1:21.525 2:28.075 3:464 4:894.5 5:0.004459165 
-4 1:21.445 2:28.245 3:454 4:880.25 5:0.004464278 
-4 1:21.5 2:28.2675 3:457.75 4:873.75 5:0.004483043 
-4 1:20.6 2:30.633333 3:419 4:804.66667 5:0.004597722 
-4 1:20.625 2:30.7225 3:419 4:814.25 5:0.004618369 
-4 1:21.633333 2:33.163333 3:332.66667 4:1129.3333 5:0.005309581 
-4 1:21.675 2:33.19 3:431 4:1139.5 5:0.005327561 
-4 1:21.65 2:33.2 3:454 4:1139 5:0.005320969 
-4 1:22.166667 2:34.26 3:279.33333 4:1595.6667 5:0.005669935 
-4 1:21.89 2:34.245 4:1508 5:0.005571761 
-4 1:21.1 2:34.245 4:1487 5:0.005306395 
-0.8801499493443092 1:21.1 2:34.245 4:1504 5:0.005306395 
-2.665665492372048 1:21 2:33.45 4:1528 5:0.005150174 
-4 1:20.89 2:33.045 4:1759 5:0.005052733 
-4 1:20.79 2:27.6 4:1336 5:0.004188493 
-4 1:20.79 2:27.6 4:1322 5:0.004188493 
-4 1:20.79 2:27.6 4:1386.5 5:0.004188493 
-4 1:20.7 2:22.4175 3:426 4:460.25 5:0.003378833 
-4 1:20.7 2:22.5 3:423.66667 4:465.33333 5:0.003391335 
-4 1:20.7 2:22.463333 3:423.66667 4:472.66667 5:0.003385779 
-4 1:21.29 2:23.89 3:422.5 4:650.5 5:0.003735893 
-4 1:22.1 2:26.633333 3:459 4:1044 5:0.004380858 
-4 1:22.1 2:26.6 3:459 4:1036.5 5:0.004375336 
-4 1:22.05 2:26.575 3:469 4:1039 5:0.004357799 
-4 1:22.05 2:26.55 3:469 4:1039 5:0.00435367 
-4 1:22.7 2:26.89 3:531.25 4:1120 5:0.004588962 
-4 1:22.7 2:26.89 3:539 4:1113.6667 5:0.004588962 
-4 1:22.7 2:26.89 3:545.75 4:1104.75 5:0.004588962 
-4 1:22.675 2:26.865 3:604.75 4:1103.25 5:0.004577664 
-4 1:22.7 2:26.815 3:597.25 4:1102.75 5:0.004576069 
-4 1:22.7 2:26.7 3:528 4:1090 5:0.0045563 
-4 1:22.7 2:26.7 3:521 4:1086.25 5:0.0045563 
-4 1:22.7 2:26.666667 3:535.66667 4:1083.6667 5:0.00455057 
-4 1:22.675 2:26.575 3:533.25 4:1078.5 5:0.00452789 
-4 1:22.65 2:26.55 3:523.75 4:1064.75 5:0.004516692 
-4 1:22.666667 2:26.566667 3:524 4:1053 5:0.004524155 
-4 1:22.76 2:26.39 3:635.5 4:1022 5:0.004519554 
-4 1:22.856667 2:26.323333 3:676 4:1024.75 5:0.004534741 
-4 1:22.89 2:26.245 3:567.25 4:1020 5:0.004530356 
-4 1:22.89 2:26.2 3:582.5 4:1015.5 5:0.004522532 
-4 1:22.89 2:26.1 3:618.75 4:1007 5:0.004505145 
-4 1:22.89 2:26.175 3:579.25 4:997.5 5:0.004518185 
-4 1:22.89 2:26.133333 3:590.33333 4:1002 5:0.00451094 
-4 1:22.89 2:26.1 3:584.5 4:1000 5:0.004505145 
-4 1:22.89 2:26 3:564 4:997.75 5:0.004487759 
-4 1:22.29 2:26.1 3:503.5 4:892.5 5:0.004342837 
-4 1:22.2675 2:26.1725 3:567.5 4:883.5 5:0.004348983 
-4 1:22.29 2:26.29 3:569.25 4:879.25 5:0.004374674 
-4 1:22.29 2:26.26 3:490.66667 4:887.33333 5:0.004369647 
-4 1:22.29 2:26.2 3:487.33333 4:890 5:0.004359593 
-4 1:22.29 2:26.2 3:500 4:891.25 5:0.004359593 
-4 1:22.29 2:26.2 3:524 4:891 5:0.004359593 
-4 1:22.29 2:26.175 3:545.33333 4:881 5:0.004355404 
-4 1:22.315 2:26.1 3:520.6 4:866.25 5:0.004349495 
-4 1:22.29 2:26.1 3:509 4:864.66667 5:0.004342837 
-4 1:22.34 2:26.1 3:476.5 4:870 5:0.004356163 
-4 1:22.315 2:26.1 3:471.5 4:862 5:0.004349495 
-4 1:22.29 2:26.1 3:464 4:857.5 5:0.004342837 
-4 1:22.29 2:26.1 3:464 4:851.33333 5:0.004342837 
-4 1:22.29 2:26.1 3:459 4:846.75 5:0.004342837 
-4 1:22.29 2:26.1 3:459 4:844.66667 5:0.004342837 
-4 1:22.29 2:26.1 3:454.75 4:843 5:0.004342837 
-4 1:22.29 2:26.1 3:444 4:840.5 5:0.004342837 
-4 1:22.29 2:26.025 3:456 4:831.25 5:0.004330271 
-4 1:22.29 2:26 3:461 4:829 5:0.004326082 
-4 1:22.29 2:26 3:461.5 4:825.5 5:0.004326082 
-4 1:22.29 2:26 3:464 4:813.66667 5:0.004326082 
-4 1:22.29 2:26 3:476.5 4:819 5:0.004326082 
-4 1:22.29 2:26 3:489 4:819.5 5:0.004326082 
-4 1:22.29 2:25.945 3:489 4:810 5:0.004316867 
-4 1:22.2675 2:25.89 3:451 4:795 5:0.004301716 
-4 1:22.2675 2:25.89 3:449.5 4:785 5:0.004301716 
-4 1:22.2675 2:25.9175 3:449.5 4:795 5:0.004306317 
-4 1:22.29 2:25.926667 3:453 4:795.25 5:0.004313796 
-4 1:22.245 2:25.89 3:451.75 4:797.5 5:0.004295788 
-4 1:22.29 2:25.89 3:459 4:797 5:0.004307653 
-4 1:22.2675 2:25.89 3:459 4:795.5 5:0.004301716 
-4 1:22.2675 2:25.865 3:464 4:784.5 5:0.004297534 
-4 1:22.29 2:25.89 3:454 4:775.5 5:0.004307653 
-4 1:22.23 2:25.823333 3:454 4:777.33333 5:0.004280711 
-4 1:22.2225 2:25.8925 3:448 4:775.5 5:0.004290283 
-4 1:20.175 2:18.675 3:422.5 4:440.75 5:0.002722124 
-4 1:20.2 2:18.7 3:419 4:442 5:0.002730021 
-4 1:20.175 2:18.7 3:419 4:448.5 5:0.002725784 
-4 1:20.1 2:18.745 3:419 4:451 5:0.002719666 
-4 1:20.133333 2:18.7 3:409 4:458.66667 5:0.002718736 
-1.472663893142396 1:20.175 2:18.7225 3:411 4:456 5:0.002729078 
-4 1:21.7225 2:20.5 3:490.25 4:816 5:0.003289448 
-4 1:21.7 2:20.5 3:479 4:813.25 5:0.003284903 
-4 1:21.7 2:20.39 3:474 4:806 5:0.003267184 
-4 1:21.7 2:20.525 3:492.75 4:804.5 5:0.00328893 
-4 1:21.5 2:19.315 3:546 4:647 5:0.003056258 
-4 1:21.5 2:19.39 3:573 4:652.66667 5:0.003068184 
-4 1:21.55 2:19.34 3:560.75 4:663.75 5:0.003069662 
-4 1:21.6 2:19.356667 3:524 4:652 5:0.003081782 
-4 1:21.6 2:19.29 3:537 4:653 5:0.003071115 
-4 1:21.625 2:19.2225 3:548.75 4:649.5 5:0.003065023 
-4 1:20.7 2:18.89 3:611.5 4:452.25 5:0.002844726 
-4 1:20.7 2:18.89 3:1546.3333 4:455.33333 5:0.002844726 
-4 1:20.745 2:18.89 3:1451.75 4:453 5:0.002852659 
-4 1:20.76 2:18.856667 3:829 4:452.66667 5:0.002850246 
-4 1:19.525 2:27.2925 3:397 4:484.75 5:0.003827824 
-4 1:19.525 2:27.365 3:392.5 4:486.75 5:0.003838055 
-4 1:19.566667 2:27.566667 3:393.66667 4:492.33333 5:0.003876606 
-4 1:21.89 2:37.5 4:1729.5 5:0.006106558 
-4 1:21.89 2:37.5 4:1722 5:0.006106558 
-4 1:20.315 2:33.345 3:426 4:474.25 5:0.004919969 
-4 1:20.356667 2:33.4 3:419 4:482.33333 5:0.004940953 
