svm_type c_svc
kernel_type rbf
gamma 8
nr_class 2
total_sv 543
rho 0.752442
label 1 0
nr_sv 281 262
SV
1.610953169016551 1:0.83204931 2:0.49461657 3:0.2586537 4:0.38632607 5:0.61669603 
8 1:0.75808937 2:0.49132059 3:0.26159965 4:0.43726521 5:0.58146325 
8 1:0.68412943 2:0.40350106 3:0.2586537 4:0.30929126 5:0.46010506 
8 1:0.68412943 2:0.39859372 3:0.25497128 4:0.30503381 5:0.45505836 
8 1:0.68043143 2:0.39670402 3:0.25452939 4:0.29430503 5:0.45170265 
8 1:0.67303544 2:0.3933641 3:0.25276182 4:0.29550714 5:0.44546075 
8 1:0.66563945 2:0.38804658 3:0.25276182 4:0.29105935 5:0.43722063 
8 1:0.6779661 2:0.38914524 3:0.25276182 4:0.28805409 5:0.44300539 
8 1:0.66563945 2:0.38584926 3:0.25541317 4:0.2823441 5:0.43497517 
8 1:0.66933744 2:0.38369589 3:0.25700398 4:0.28516905 5:0.43416478 
8 1:0.66563945 2:0.3799165 3:0.26124613 4:0.28637115 5:0.42891291 
8 1:0.67488444 2:0.38123489 3:0.25806452 4:0.28129226 5:0.43373026 
8 1:0.66563945 2:0.37235772 3:0.25912506 4:0.26942149 5:0.4211899 
8 1:0.66563945 2:0.37156669 3:0.25912506 4:0.26918107 5:0.42038162 
8 1:0.66563945 2:0.37156669 3:0.25659155 4:0.27122464 5:0.42038162 
8 1:0.66563945 2:0.36936937 3:0.2537929 4:0.26821938 5:0.41813668 
8 1:0.66563945 2:0.36936937 3:0.25229047 4:0.26124718 5:0.41813668 
8 1:0.66563945 2:0.36453527 3:0.25464722 4:0.25511645 5:0.41319808 
8 1:0.66563945 2:0.36497473 3:0.25438209 4:0.25364388 5:0.41364707 
8 1:0.66563945 2:0.36541419 3:0.25287966 4:0.2522314 5:0.41409579 
8 1:0.66563945 2:0.36277741 3:0.25511857 4:0.25199098 5:0.41140213 
8 1:0.66563945 2:0.36277741 3:0.25511857 4:0.25454545 5:0.41140213 
8 1:0.66563945 2:0.36277741 3:0.25229047 4:0.25235162 5:0.41140213 
8 1:0.66563945 2:0.36717205 3:0.25064074 4:0.2522314 5:0.41589174 
1.582760550529636 1:0.66563945 2:0.36629312 3:0.25287966 4:0.2522314 5:0.41499377 
5.399148606004542 1:0.65177196 2:0.36036036 3:0.25511857 4:0.24613073 5:0.40384378 
8 1:0.65454545 2:0.35794331 3:0.25511857 4:0.24778362 5:0.40240002 
8 1:0.64714946 2:0.35684465 3:0.25511857 4:0.24267468 5:0.39858244 
8 1:0.65177196 2:0.35794331 3:0.25099426 4:0.24132231 5:0.40138605 
8 1:0.65084746 2:0.3617227 3:0.25346885 4:0.24718257 5:0.4048901 
8 1:0.66563945 2:0.36277741 3:0.25511857 4:0.25499624 5:0.41140213 
8 1:0.66563945 2:0.36371912 3:0.25511857 4:0.25750063 5:0.41236428 
8 1:0.66563945 2:0.36466083 3:0.25511857 4:0.26000501 5:0.41332618 
8 1:0.66563945 2:0.36717205 3:0.25511857 4:0.26566491 5:0.41589174 
8 1:0.66563945 2:0.36717205 3:0.25236903 4:0.26301027 5:0.41589174 
8 1:0.66563945 2:0.36629312 3:0.25016939 4:0.26004508 5:0.41499377 
8 1:0.66563945 2:0.37010181 3:0.25511857 4:0.26541448 5:0.418885 
4.996819036693117 1:0.62681048 2:0.34629752 3:0.24686994 4:0.21697971 5:0.38055455 
8 1:0.62681048 2:0.3519666 3:0.24522021 4:0.21580766 5:0.38627066 
8 1:0.62681048 2:0.35891013 3:0.24663426 4:0.22241923 5:0.39327218 
8 1:0.62681048 2:0.37354428 3:0.24451318 4:0.23065364 5:0.40803065 
8 1:0.62681048 2:0.36684245 3:0.1827957 4:0.23816679 5:0.40127163 
8 1:0.2385208 2:0.2656559 3:0.12797172 4:0.017340346 5:0.17751058 
1.749320489974424 1:0.38828968 2:0.35794331 3:0.26159965 4:0.19789632 5:0.30871704 
8 1:0.38828968 2:0.35794331 3:0.26159965 4:0.19717506 5:0.30871704 
8 1:0.40677966 2:0.36995532 3:0.26159965 4:0.20430754 5:0.32624255 
8 1:0.40215717 2:0.36455358 3:0.26317082 4:0.20360631 5:0.31960085 
8 1:0.39753467 2:0.35915183 3:0.26474198 4:0.20290508 5:0.31297756 
8 1:0.403698 2:0.37149344 3:0.26788432 4:0.20530929 5:0.32662289 
8 1:0.40677966 2:0.37771918 3:0.2639564 4:0.2121713 5:0.3335171 
7.239042020914512 1:0.41676425 2:0.38817842 3:0.26607748 4:0.22794891 5:0.34681445 
0.6990886329437686 1:0.68412943 2:0.64722039 3:0.25511857 4:0.5947408 5:0.71112916 
8 1:0.25701079 2:0.30564711 3:0.18367948 4:0.037265214 5:0.21859098 
8 1:0.26209553 2:0.3066359 3:0.25099426 4:0.036513899 5:0.22104871 
8 1:0.27226502 2:0.30861349 3:0.25511857 4:0.036664162 5:0.22597995 
8 1:0.27395994 2:0.31399692 3:0.24961948 4:0.04312547 5:0.23132887 
6.942147495223663 1:0.27734977 2:0.31399692 3:0.24686994 4:0.047032307 5:0.23239308 
8 1:0.27734977 2:0.31399692 3:0.24686994 4:0.04474831 5:0.23239308 
8 1:0.28659476 2:0.31641397 3:0.24480778 4:0.048384673 5:0.23747398 
8 1:0.31432974 2:0.34739618 3:0.2386213 4:0.085299274 5:0.27439171 
0.1868162038836218 1:0.34483821 2:0.36607339 3:0.24686994 4:0.12516905 5:0.30157164 
8 1:0.39753467 2:0.37255548 3:0.27058477 4:0.19143501 5:0.32549608 
8 1:0.40677966 2:0.37281184 3:0.26749153 4:0.19579264 5:0.32891912 
8 1:0.40677966 2:0.37068776 3:0.26749153 4:0.19681443 5:0.32692879 
8 1:0.40677966 2:0.36717205 3:0.26749153 4:0.19413974 5:0.3236349 
8 1:0.40677966 2:0.36892991 3:0.26749153 4:0.19368896 5:0.32528198 
8 1:0.40955316 2:0.37222588 3:0.2689645 4:0.2004007 5:0.32932629 
8 1:0.58058552 2:0.4066359 3:0.35551628 4:0.31558227 5:0.42400403 
8 1:0.60832049 2:0.40188969 3:0.3605833 4:0.31530178 5:0.42966202 
8 1:0.60832049 2:0.40042482 3:0.35999411 4:0.31910844 5:0.42819301 
8 1:0.61448382 2:0.3982275 3:0.36352924 4:0.32061107 5:0.42829874 
8 1:0.62681048 2:0.39353988 3:0.36809545 4:0.31960932 5:0.42820037 
8 1:0.62681048 2:0.39266095 3:0.37142436 4:0.31954921 5:0.42731371 
8 1:0.63697997 2:0.39134256 3:0.37266166 4:0.321713 5:0.42979274 
8 1:0.64714946 2:0.392075 3:0.38415083 4:0.31710493 5:0.43435732 
8 1:0.64714946 2:0.38914524 3:0.37914273 4:0.31950914 5:0.43138169 
8 1:0.65947612 2:0.38914524 3:0.38218687 4:0.31820686 5:0.4360186 
0.8065840129445113 1:0.68412943 2:0.3847506 3:1 4:0.32396694 5:0.44082411 
8 1:0.68828968 2:0.38112503 3:0.40403594 4:0.32667168 5:0.43866518 
4.23401782091566 1:0.69661017 2:0.37662052 3:0.40344675 4:0.32426747 5:0.43715803 
8 1:0.70077042 2:0.38281696 3:0.40029459 4:0.32567994 5:0.44513171 
0.11572531711819 1:0.70693374 2:0.38006299 3:0.40241567 4:0.32992737 5:0.44461828 
8 1:0.75808937 2:0.3847506 3:0.40653999 4:0.35116454 5:0.46908903 
4.535312644390361 1:0.77657935 2:0.3847506 3:0.41054647 4:0.35525169 5:0.47625073 
5.792436174894804 1:0.86902928 2:0.41199736 3:0.4347032 4:0.42449286 5:0.54243131 
8 1:0.53436056 2:0.6012598 3:0.24392399 4:0.22834961 5:0.59745084 
8 1:0.5394453 2:0.60656998 3:0.23287671 4:0.21607814 5:0.60486979 
8 1:0.53436056 2:0.5513074 3:0.24686994 4:0.14179815 5:0.54848357 
6.734969634604624 1:0.53436056 2:0.5513074 3:0.24686994 4:0.13358377 5:0.54848357 
8 1:0.53436056 2:0.5513074 3:0.24686994 4:0.13598798 5:0.54848357 
8 1:0.53436056 2:0.55031861 3:0.24686994 4:0.13643877 5:0.54751458 
8 1:0.53436056 2:0.54932982 3:0.24686994 4:0.13568745 5:0.54654558 
8 1:0.53436056 2:0.55702044 3:0.24480778 4:0.13869271 5:0.55408237 
8 1:0.53436056 2:0.57251154 3:0.24451318 4:0.14139745 5:0.56926589 
8 1:0.53436056 2:0.55031861 3:0.24686994 4:0.14064613 5:0.54751458 
4.742420551788564 1:0.53436056 2:0.5513074 3:0.24686994 4:0.13839219 5:0.54848357 
8 1:0.53436056 2:0.54867062 3:0.24686994 4:0.13598798 5:0.54589959 
8 1:0.53436056 2:0.54735223 3:0.24686994 4:0.13268219 5:0.5446076 
8 1:0.53436056 2:0.54405625 3:0.24686994 4:0.12817431 5:0.54137788 
8 1:0.49922958 2:0.51417271 3:0.24274562 4:0.10323065 5:0.49796969 
8 1:0.49922958 2:0.51658976 3:0.16457996 4:0.10353118 5:0.50030958 
4.323552124998447 1:0.31432974 2:0.26268952 3:0.25570776 4:0.1890308 5:0.19751513 
8 1:0.32265023 2:0.25840475 3:0.25835911 4:0.1930879 5:0.19613187 
8 1:0.34329738 2:0.26287263 3:0.26101046 4:0.19429001 5:0.20646384 
0.9883964392922929 1:0.75808937 2:0.28367392 3:0.39652379 4:0.26010518 5:0.36264896 
8 1:0.86440678 2:0.26367831 3:0.17027545 4:0.23020285 5:0.37875255 
8 1:0.97812019 2:0.30242438 3:0.30755634 4:0.18988229 5:0.46360911 
4.394157696693762 1:0.99044684 2:0.28499231 3:0.37590219 4:0.19629351 5:0.44850398 
2.930227204794104 1:0.99661017 2:0.28686003 3:0.39239947 4:0.25725019 5:0.45294914 
8 1:0.99661017 2:0.2921336 3:0.13934305 4:0.26431255 5:0.45895379 
8 1:0.9614792 2:0.29905515 3:0.26513478 4:0.19248685 5:0.4534915 
8 1:0.9614792 2:0.3076247 3:0.24731183 4:0.17099925 5:0.46313882 
8 1:0.86902928 2:0.33772797 3:0.05125939 4:0.11234661 5:0.46125265 
8 1:0.62681048 2:0.4067238 3:0.11282958 4:0.073178062 5:0.44150167 
8 1:0.55469954 2:0.49571523 3:0.24657534 4:0.12096168 5:0.50214578 
8 1:0.55469954 2:0.49571523 3:0.2489321 4:0.13989482 5:0.50214578 
8 1:0.55469954 2:0.48978247 3:0.24851966 4:0.13117956 5:0.49629605 
8 1:0.54791988 2:0.49139383 3:0.24686994 4:0.12797395 5:0.49518108 
8 1:0.5394453 2:0.49099099 3:0.24686994 4:0.12802404 5:0.491414 
8 1:0.5394453 2:0.48978247 3:0.24686994 4:0.12727273 5:0.49022853 
8 1:0.54453005 2:0.48978247 3:0.24686994 4:0.11915853 5:0.49224806 
8 1:0.53436056 2:0.48978247 3:0.24686994 4:0.11715502 5:0.4882119 
8 1:0.5394453 2:0.48978247 3:0.24686994 4:0.11690458 5:0.49022853 
7.832454104671966 1:0.53436056 2:0.48978247 3:0.24686994 4:0.11334836 5:0.4882119 
8 1:0.53436056 2:0.48978247 3:0.16457996 4:0.11475081 5:0.4882119 
8 1:0.42342065 2:0.37793891 3:0.19354839 4:0.063861758 5:0.33950203 
3.037464148677325 1:0.64714946 2:0.35574599 3:0.42244808 4:0.098722765 5:0.39746694 
8 1:0.64714946 2:0.35464733 3:0.42804537 4:0.095717506 5:0.39635171 
8 1:0.65639445 2:0.35794331 3:0.44601561 4:0.1014275 5:0.40307626 
8 1:0.66563945 2:0.3495935 3:0.43496833 4:0.093313298 5:0.39793487 
8 1:0.66101695 2:0.35486706 3:0.43599941 4:0.09391435 5:0.40163145 
5.969391120175483 1:0.78212635 2:0.33172197 3:0.45112191 4:0.11695467 5:0.42210024 
3.361458302674547 1:0.90416025 2:0.38035597 3:0.46015613 4:0.13478588 5:0.52186599 
8 1:0.90416025 2:0.36607339 3:0.45131831 4:0.118858 5:0.50607278 
8 1:0.89799692 2:0.36116604 3:0.4466048 4:0.1087403 5:0.49821878 
2.397876318062159 1:0.89491525 2:0.36277741 3:0.44454264 4:0.10984222 5:0.49878218 
8 1:0.89183359 2:0.37288508 3:0.4414985 4:0.11134485 5:0.50869937 
8 1:0.88567026 2:0.37698674 3:0.25060146 4:0.11054345 5:0.51076124 
8 1:0.88567026 2:0.392075 3:0.25835911 4:0.077986476 5:0.52734616 
0.4368290280737249 1:0.87734977 2:0.40551527 3:0.38842245 4:0.093012772 5:0.53872867 
8 1:0.86902928 2:0.40188969 3:0.38199047 4:0.079689457 5:0.53137864 
8 1:0.86902928 2:0.40188969 3:0.37929003 4:0.076934636 5:0.53137864 
8 1:0.86902928 2:0.40188969 3:0.3806157 4:0.07513148 5:0.53137864 
3.226854808756996 1:0.62681048 2:0.58250934 3:0.26749153 4:0.10413223 5:0.61905933 
8 1:0.60832049 2:0.58250934 3:0.26159965 4:0.11329827 5:0.61097387 
8 1:0.60416025 2:0.58580532 3:0.25806452 4:0.11344853 5:0.61246839 
8 1:0.6027735 2:0.5854391 3:0.25983208 4:0.11194591 5:0.61149545 
8 1:0.59167951 2:0.58690398 3:0.25806452 4:0.11585274 5:0.60812634 
8 1:0.42342065 2:0.70511975 4:0.098722765 5:0.64837241 
8 1:0.27734977 2:0.33838717 3:0.25511857 4:0.25409467 5:0.25425933 
8 1:0.27057011 2:0.34519886 3:0.24412039 4:0.25740045 5:0.25817607 
8 1:0.27734977 2:0.34519886 3:0.23390779 4:0.26386176 5:0.26036735 
8 1:0.27734977 2:0.35288947 3:0.22919428 4:0.26701728 5:0.26726393 
8 1:0.30508475 2:0.38233355 3:0.22919428 4:0.27738542 5:0.30299593 
4.956498020229067 1:0.30970724 2:0.38683806 3:0.23155104 4:0.28224393 5:0.30864261 
8 1:0.46224962 2:0.46780927 3:0.2586537 4:0.33613824 5:0.43893452 
1.897467980217653 1:0.46224962 2:0.48685271 3:0.2586537 4:0.35296769 5:0.45713496 
8 1:0.46224962 2:0.51029078 3:0.2586537 4:0.35837716 5:0.47954094 
8 1:0.46224962 2:0.51658976 3:0.2586537 4:0.35176559 5:0.48556348 
8 1:0.46224962 2:0.50955834 3:0.2586537 4:0.34680691 5:0.47884076 
8 1:0.4807396 2:0.48802461 3:0.26454559 4:0.30097671 5:0.46543794 
8 1:0.4853621 2:0.49110086 3:0.26307262 4:0.26867017 5:0.47020321 
8 1:0.47457627 2:0.48831759 3:0.26277802 4:0.26641623 5:0.46332057 
1.191357589042659 1:0.4807396 2:0.51296418 3:0.2586537 4:0.27272727 5:0.4894284 
8 1:0.53436056 2:0.59129862 3:0.24686994 4:0.34094666 5:0.58768385 
6.679416613036043 1:0.53436056 2:0.59261701 3:0.24686994 4:0.34174806 5:0.58897637 
8 1:0.53436056 2:0.59964843 3:0.24245102 4:0.33974455 5:0.59587084 
8 1:0.28967643 2:0.60448253 3:0.17734571 4:0.22414225 5:0.49816512 
7.36786409852736 1:0.48690293 2:0.70248297 3:0.25276182 4:0.51324818 5:0.6747943 
8 1:0.49922958 2:0.70973412 3:0.021799971 4:0.43891811 5:0.68750746 
4.514601008392457 1:0.51587057 2:0.75683 3:0.25276182 4:0.47498122 5:0.7412116 
8 1:0.51587057 2:0.75609756 3:0.25276182 4:0.48069121 5:0.74049669 
3.500856492020151 1:0.59167951 2:0.76254303 3:0.24686994 4:0.74886051 5:0.78384912 
4.55041928943028 1:0.33097072 2:0.45605361 3:0.17439976 4:0.6336589 5:0.37913367 
0.8115579280751395 1:0.36979969 2:0.49901121 3:0.24097805 4:0.87227648 5:0.43310215 
7.966451104352363 1:0.77288136 2:0.4626236 3:0.25099426 4:0.18542449 5:0.55731839 
8 1:0.75808937 2:0.45945946 3:0.24686994 4:0.17325319 5:0.54785072 
8 1:0.75808937 2:0.45945946 3:0.24686994 4:0.17365389 5:0.54785072 
8 1:0.75808937 2:0.45945946 3:0.24686994 4:0.17205109 5:0.54785072 
8 1:0.75808937 2:0.45945946 3:0.24686994 4:0.16624092 5:0.54785072 
8 1:0.75346687 2:0.4583608 3:0.24686994 4:0.16543952 5:0.54478856 
8 1:0.75346687 2:0.45726214 3:0.24686994 4:0.16679189 5:0.5436315 
8 1:0.75808937 2:0.45506482 3:0.24686994 4:0.16724267 5:0.54321566 
8 1:0.75808937 2:0.45799458 3:0.24686994 4:0.16273479 5:0.5463057 
8 1:0.74884438 2:0.45726214 3:0.24686994 4:0.16513899 5:0.54173245 
8 1:0.73959938 2:0.45616348 3:0.24686994 4:0.16423742 5:0.53679016 
8 1:0.73959938 2:0.45616348 3:0.24657534 4:0.16093163 5:0.53679016 
8 1:0.31432974 2:0.24807735 3:0.20975107 4:0.026596544 5:0.18426092 
8 1:0.31848998 2:0.25291145 3:0.24686994 4:0.034861007 5:0.18988944 
8 1:0.31987673 2:0.25291145 3:0.24686994 4:0.035612322 5:0.1903045 
8 1:0.31848998 2:0.25401011 3:0.24686994 4:0.034710744 5:0.19088736 
1.517779558269284 1:0.32681048 2:0.25950341 3:0.24215643 4:0.039218633 5:0.1983868 
8 1:0.46687211 2:0.34267194 3:0.28192665 4:0.22749812 5:0.32101331 
1.606402962254644 1:0.4807396 2:0.34300154 3:0.28546178 4:0.2393689 5:0.32607238 
8 1:0.49922958 2:0.3495935 3:0.2842834 4:0.243426 5:0.33879685 
8 1:0.65331279 2:0.44290632 3:0.35763735 4:0.40846481 5:0.48843022 
4.26577694614369 1:0.66101695 2:0.44363876 3:0.38886434 4:0.40916604 5:0.49222018 
8 1:0.66563945 2:0.4425401 3:0.32876712 4:0.41427498 5:0.49292641 
8 1:0.66563945 2:0.4443712 3:0.38964992 4:0.41607814 5:0.4947989 
8 1:0.67950693 2:0.44583608 3:0.39210488 4:0.41983471 5:0.50181094 
8 1:0.6779661 2:0.44905881 3:0.38159768 4:0.41808164 5:0.50450645 
8 1:0.68412943 2:0.45396616 3:0.37590219 4:0.42764838 5:0.51202009 
8 1:0.68828968 2:0.43957372 3:0.32876712 4:0.42824944 5:0.49886267 
8 1:0.68412943 2:0.44583608 3:0.3146266 4:0.41667919 5:0.50365398 
8 1:0.68412943 2:0.44583608 3:0.30637796 4:0.41928375 5:0.50365398 
8 1:0.68412943 2:0.44704461 3:0.30254824 4:0.42359128 5:0.50489757 
0.4716643355134362 1:0.66563945 2:0.42386289 3:0.32307164 4:0.37640872 5:0.4738293 
8 1:0.66563945 2:0.42869699 3:0.37148328 4:0.3744553 5:0.47877185 
8 1:0.7192604 2:0.40430675 3:0.3146266 4:0.34515402 5:0.47452001 
8 1:0.71001541 2:0.40309822 3:0.29253204 4:0.34274981 5:0.46967742 
8 1:0.70693374 2:0.40042482 3:0.20071685 4:0.34274981 5:0.46571438 
8 1:0.60832049 2:0.41404819 3:0.19698532 4:0.29306286 5:0.44185438 
8 1:0.59583975 2:0.40628433 3:0.26159965 4:0.22163787 5:0.4293719 
8 1:0.59167951 2:0.40892112 3:0.26159965 4:0.22193839 5:0.43043979 
8 1:0.59167951 2:0.41608438 3:0.26036235 4:0.22590533 5:0.43758361 
8 1:0.59167951 2:0.42324764 3:0.25912506 4:0.22987228 5:0.44472822 
8 1:0.59167951 2:0.43309163 3:0.26071586 4:0.24387678 5:0.45454756 
8 1:0.59167951 2:0.43946385 3:0.26130505 4:0.25499624 5:0.4609044 
8 1:0.59167951 2:0.44290632 3:0.25983208 4:0.25239169 5:0.46433875 
8 1:0.59167951 2:0.44825313 3:0.25806452 4:0.26130729 5:0.46967321 
8 1:0.59167951 2:0.45067018 3:0.25806452 4:0.26220887 5:0.47208491 
8 1:0.59167951 2:0.44704461 3:0.25806452 4:0.26280992 5:0.46846749 
3.976979810616497 1:0.59167951 2:0.45931297 3:0.25983208 4:0.26882044 5:0.48070879 
8 1:0.59167951 2:0.4690178 3:0.25806452 4:0.28429752 5:0.49039345 
8 1:0.59167951 2:0.47264338 3:0.25276182 4:0.29887303 5:0.49401192 
8 1:0.60416025 2:0.46923753 3:0.25276182 4:0.30323065 5:0.49556615 
8 1:0.59167951 2:0.44616568 3:0.25806452 4:0.30473328 5:0.46759056 
5.975306184347391 1:0.64714946 2:0.43895115 3:0.26650955 4:0.39143501 5:0.48198184 
8 1:0.64206472 2:0.43946385 3:0.25276182 4:0.39954921 5:0.48050862 
8 1:0.63697997 2:0.43726653 3:0.25276182 4:0.39954921 5:0.4762915 
8 1:0.63697997 2:0.43946385 3:0.25276182 4:0.40300526 5:0.47851698 
3.292936768663242 1:0.63359014 2:0.43733978 3:0.25276182 4:0.40586026 5:0.47504212 
8 1:0.55932203 2:0.32091848 3:0.12549713 4:0.26010518 5:0.33155702 
8 1:0.22187982 2:0.081520545 3:0.23646094 4:0.015777611 5:0.010844881 
8 1:0.21263482 2:0.085915183 3:0.24686994 4:0.026746807 5:0.012474335 
8 1:0.20801233 2:0.093166337 3:0.24215643 4:0.027197596 5:0.017697269 
8 1:0.21263482 2:0.094264997 3:0.24215643 4:0.028399699 5:0.019779657 
8 1:0.22187982 2:0.094264997 3:0.24215643 4:0.028249437 5:0.022029856 
8 1:0.22187982 2:0.10129642 3:0.24215643 4:0.030803907 5:0.028201529 
8 1:0.22604006 2:0.10129642 3:0.24009427 4:0.030503381 5:0.029224706 
8 1:0.23436055 2:0.10865744 3:0.23567536 4:0.034560481 5:0.037763626 
8 1:0.2385208 2:0.10887717 3:0.23567536 4:0.042524418 5:0.038993805 
8 1:0.27226502 2:0.10338387 3:0.24215643 4:0.054395192 5:0.042542833 
3.197768382949108 1:0.28197227 2:0.11294221 3:0.24215643 4:0.058001503 5:0.053536324 
8 1:0.28967643 2:0.10788838 3:0.24097805 4:0.061657901 5:0.050954184 
8 1:0.30046225 2:0.11744672 3:0.2386213 4:0.067167543 5:0.062300921 
8 1:0.46224962 2:0.19138651 3:0.31786714 4:0.25860255 5:0.17520068 
5.252361588664519 1:0.46224962 2:0.17996045 3:0.31138607 4:0.25229151 5:0.16431713 
8 1:0.49922958 2:0.14304548 3:0.22256592 4:0.20736289 5:0.13946841 
8 1:0.42342065 2:0.13183916 3:0.17292679 4:0.14996243 5:0.10793617 
8 1:0.49922958 2:0.1064235 3:0.29989689 4:0.14019534 5:0.10417698 
2.617865224500818 1:0.49460709 2:0.1045924 3:0.30858742 4:0.13493614 5:0.10117584 
8 1:0.48690293 2:0.10041749 3:0.32361172 4:0.12652141 5:0.095112531 
8 1:0.49306626 2:0.10788838 3:0.3095203 4:0.1269722 5:0.10393315 
8 1:0.49922958 2:0.10349374 3:0.3246428 4:0.12817431 5:0.10135417 
1.560934424994495 1:0.50338983 2:0.10349374 3:0.3452644 4:0.12997746 5:0.1024673 
8 1:0.51171032 2:0.099099099 3:0.3094712 4:0.12757325 5:0.1004462 
8 1:0.51171032 2:0.099099099 3:0.32037119 4:0.12817431 5:0.1004462 
0.04847724740934176 1:0.51587057 2:0.10569106 3:0.31285904 4:0.13613824 5:0.10794353 
8 1:0.51587057 2:0.10129642 3:0.31315363 4:0.13478588 5:0.10368617 
8 1:0.097072419 2:0.45176884 3:0.17071734 4:0.036664162 5:0.29352563 
8 1:0.10631741 2:0.48033399 3:0.23390779 4:0.050338092 5:0.32085049 
8 1:0.11710324 2:0.48538783 3:0.23194383 4:0.061457551 5:0.3288915 
8 1:0.12942989 2:0.49099099 3:0.22919428 4:0.069722014 5:0.33798725 
8 1:0.13775039 2:0.49681389 3:0.22919428 4:0.077084899 5:0.34590701 
4.109001642154412 1:0.14191063 2:0.50230719 3:0.23125644 4:0.080090158 5:0.35209551 
4.753925904009306 1:0.15531587 2:0.52526917 3:0.22919428 4:0.099774606 5:0.37667621 
0.8900699221808434 1:0.33097072 2:0.66567787 3:0.25276182 4:0.44763336 5:0.57099476 
0.700760064664674 1:0.34946071 2:0.68314656 3:0.25276182 4:0.48429752 5:0.59503257 
8 1:0.46224962 2:0.72412657 3:0.01826484 4:0.50082645 5:0.68424277 
8 1:0.39753467 2:0.70753681 3:0.21549565 4:0.42569497 5:0.63898076 
8 1:0.57318952 2:0.92485168 3:0.12343497 4:0.82689707 5:0.93644575 
2.723359723604127 1:0.24468413 2:0.72445616 3:0.24686994 4:0.026396193 5:0.58688924 
8 1:0.26209553 2:0.73731048 3:0.2386213 4:0.044778362 5:0.60599082 
8 1:0.26379045 2:0.73895847 3:0.2386213 4:0.049035813 5:0.6082155 
8 1:0.27734977 2:0.74390244 3:0.2383267 4:0.049135988 5:0.61866584 
8 1:0.27734977 2:0.74906614 3:0.2386213 4:0.04973704 5:0.62331669 
8 1:0.27734977 2:0.74906614 3:0.2386213 4:0.056448785 5:0.62331669 
7.059403164194048 1:0.29121726 2:0.7549989 3:0.2386213 4:0.062058603 5:0.63488779 
8 1:0.35454545 2:0.8337728 3:0.25511857 4:0.17640872 5:0.73652051 
3.705592604146597 1:0.37904468 2:0.85047242 3:0.25511857 4:0.22509391 5:0.76398582 
-8 1:0.66563945 2:0.36570717 3:0.25236903 4:0.26240922 5:0.41439512 
-8 1:0.66563945 2:0.37156669 3:0.2489321 4:0.26461307 5:0.42038162 
-8 1:0.66563945 2:0.37156669 3:0.24961948 4:0.26461307 5:0.42038162 
-8 1:0.65454545 2:0.36980883 3:0.25016939 4:0.26401202 5:0.41447692 
-8 1:0.65454545 2:0.36980883 3:0.25181912 4:0.2649737 5:0.41447692 
-8 1:0.65454545 2:0.36892991 3:0.24851966 4:0.26016529 5:0.41358236 
-8 1:0.65177196 2:0.36717205 3:0.25099426 4:0.25334335 5:0.41077034 
-8 1:0.64714946 2:0.36453527 3:0.24851966 4:0.24862509 5:0.40639067 
-8 1:0.64714946 2:0.36277741 3:0.24686994 4:0.24453794 5:0.40460577 
-8 1:0.64714946 2:0.36277741 3:0.24686994 4:0.25054846 5:0.40460577 
-8 1:0.64714946 2:0.36277741 3:0.24686994 4:0.24718257 5:0.40460577 
-8 1:0.64714946 2:0.35891013 3:0.24686994 4:0.24129226 5:0.40067929 
-8 1:0.64714946 2:0.35794331 3:0.24686994 4:0.24087153 5:0.39969794 
-8 1:0.64714946 2:0.35794331 3:0.24686994 4:0.24105184 5:0.39969794 
-8 1:0.64714946 2:0.35794331 3:0.24686994 4:0.2393689 5:0.39969794 
-8 1:0.64308166 2:0.35706438 3:0.24686994 4:0.23552216 5:0.39732307 
-8 1:0.63901387 2:0.35530653 3:0.24686994 4:0.23744553 5:0.39406258 
-8 1:0.64714946 2:0.35647843 3:0.24686994 4:0.23415978 5:0.39821078 
-8 1:0.63189522 2:0.35168095 3:0.24686994 4:0.23080391 5:0.38781778 
-8 1:0.63901387 2:0.3544276 3:0.24686994 4:0.22939144 5:0.39317276 
-8 1:0.62681048 2:0.3495935 3:0.24686994 4:0.22710744 5:0.38387763 
-8 1:0.63189522 2:0.35058229 3:0.24686994 4:0.22659654 5:0.38670833 
-8 1:0.62681048 2:0.3495935 3:0.24686994 4:0.2220586 5:0.38387763 
-8 1:0.2385208 2:0.27488464 3:0.24686994 4:0.024192337 5:0.18567153 
-8 1:0.2431433 2:0.27927928 3:0.24686994 4:0.027948911 5:0.19094628 
-8 1:0.2385208 2:0.28367392 3:0.24686994 4:0.034650639 5:0.19344478 
-8 1:0.2422188 2:0.28367392 3:0.24522021 4:0.032006011 5:0.19456002 
-8 1:0.394453 2:0.35501355 3:0.26159965 4:0.20110193 5:0.30807078 
-8 1:0.40061633 2:0.35655167 3:0.26159965 4:0.2 5:0.31159351 
-8 1:0.59167951 2:0.47892143 3:0.31563664 4:0.43582698 5:0.50027776 
-8 1:0.62681048 2:0.46341463 3:0.35563411 4:0.39143501 5:0.49872221 
-8 1:0.62681048 2:0.46242584 3:0.34614818 4:0.39218633 5:0.49772376 
-8 1:0.62681048 2:0.45945946 3:0.33878333 4:0.38332081 5:0.49472893 
-8 1:0.78767334 2:0.40042482 3:0.19934207 4:0.35136489 5:0.49724742 
-8 1:0.79322034 2:0.40577163 3:0.11616831 4:0.35086401 5:0.50514245 
-6.025031347595756 1:0.78906009 2:0.40079103 3:0.11371336 4:0.34951165 5:0.49818537 
-8 1:0.77393793 2:0.38600622 3:0.15832334 4:0.29243319 5:0.47655532 
-8 1:0.77657935 2:0.39758295 3:0.36977464 4:0.30476334 5:0.48985714 
-8 1:0.77657935 2:0.39134256 3:0.37590219 4:0.31585274 5:0.4832399 
-8 1:0.77657935 2:0.38621548 3:0.37354544 4:0.30618583 5:0.47780391 
-8 1:0.77657935 2:0.3847506 3:0.3705995 4:0.29226146 5:0.47625073 
-8 1:0.77657935 2:0.38548304 3:0.32857073 4:0.2900576 5:0.47702719 
-7.40683721143424 1:0.26379045 2:0.3069655 3:0.033190946 4:0.035411971 5:0.22186909 
-8 1:0.29583975 2:0.32249322 3:0.24333481 4:0.056849487 5:0.24588033 
-8 1:0.29583975 2:0.32322566 3:0.24427751 4:0.06121713 5:0.24654106 
-8 1:0.29583975 2:0.32652164 3:0.24009427 4:0.065815177 5:0.24951432 
-8 1:0.29583975 2:0.3276203 3:0.239564 4:0.0678287 5:0.25050567 
-8 1:0.29583975 2:0.3276203 3:0.23538076 4:0.069271225 5:0.25050567 
-8 1:0.3616641 2:0.3799165 3:0.26159965 4:0.18335086 5:0.32002248 
-8 1:0.36979969 2:0.3799165 3:0.26159965 4:0.18512397 5:0.32281189 
-8 1:0.36979969 2:0.38088332 3:0.26159965 4:0.18551465 5:0.32370671 
-8 1:0.36979969 2:0.3799165 3:0.26159965 4:0.18347107 5:0.32281189 
-8 1:0.36979969 2:0.37845162 3:0.26159965 4:0.18196844 5:0.32145625 
-8 1:0.36979969 2:0.37552186 3:0.26348505 4:0.18046582 5:0.31874496 
-8 1:0.36979969 2:0.37552186 3:0.26914126 4:0.18154771 5:0.31874496 
-8 1:0.40955316 2:0.37559511 3:0.27240143 4:0.2170298 5:0.33248603 
-8 1:0.40677966 2:0.37552186 3:0.27338341 4:0.21938392 5:0.33145812 
-8 1:0.59167951 2:0.4067238 3:0.35837384 4:0.32051089 5:0.42824851 
-8 1:0.60832049 2:0.40511243 3:0.35744096 4:0.32311545 5:0.43289357 
-8 1:0.53436056 2:0.65062624 3:0.25718073 4:0.38121713 5:0.64587234 
-8 1:0.53436056 2:0.64227642 3:0.25570776 4:0.3716003 5:0.63768035 
-8 1:0.53436056 2:0.63194902 3:0.25497128 4:0.33944403 5:0.62754933 
-0.3303993096522865 1:0.42342065 2:0.53856295 4:0.75266717 5:0.4909921 
-0.5773498456531931 1:0.42342065 2:0.53988134 4:0.50663661 5:0.49223675 
-8 1:0.29583975 2:0.22500549 3:0.26749153 4:0.14410218 5:0.15798396 
-8 1:0.29583975 2:0.23972753 3:0.26086316 4:0.16168295 5:0.17125158 
-8 1:0.29583975 2:0.24236432 3:0.26159965 4:0.1740546 5:0.17362804 
-8 1:0.30200308 2:0.24236432 3:0.26159965 4:0.1768595 5:0.17544187 
-8 1:0.86902928 2:0.27246759 3:0.17027545 4:0.23546206 5:0.38998697 
-8 1:0.86902928 2:0.2778144 3:0.15967005 4:0.2413724 5:0.39582355 
-6.199379250865437 1:0.86902928 2:0.26712078 3:0.17381058 4:0.25439519 5:0.38415092 
-8 1:0.9614792 2:0.26170073 3:0.1981637 4:0.18847984 5:0.41145184 
-8 1:0.9614792 2:0.27587343 3:0.29282663 4:0.18587528 5:0.42739972 
-8 1:0.9614792 2:0.30564711 3:0.37118869 4:0.1930879 5:0.46091256 
-8 1:0.9614792 2:0.3076247 3:0.40683459 4:0.19008264 5:0.46313882 
-8 1:0.42342065 2:0.38460412 3:0.2942014 4:0.067468069 5:0.34578259 
-8 1:0.42342065 2:0.38313924 3:0.30068248 4:0.069671926 5:0.34440223 
-8 1:0.67488444 2:0.35827291 3:0.42819266 4:0.10353118 5:0.41019825 
-8 1:0.6779661 2:0.36263092 3:0.43423185 4:0.10894065 5:0.4158031 
-8 1:0.68412943 2:0.36156889 3:0.4262778 4:0.11134485 5:0.41699304 
-8 1:0.68412943 2:0.36277741 3:0.41655619 4:0.10984222 5:0.41823532 
-8 1:0.68828968 2:0.37046803 3:0.42451024 4:0.11525169 5:0.42769404 
-8 1:0.68828968 2:0.36486486 3:0.42097511 4:0.12036063 5:0.42192638 
-8 1:0.88567026 2:0.38233355 3:0.16674032 4:0.11254696 5:0.51663806 
-8 1:0.89953775 2:0.38804658 3:0.15613492 4:0.12126221 5:0.52850401 
-8 1:0.89953775 2:0.38804658 3:0.15613492 4:0.11675432 5:0.52850401 
-4.791172709836962 1:0.90416025 2:0.39353988 3:0.15790249 4:0.11314801 5:0.53644691 
-8 1:0.88151002 2:0.39244122 3:0.38532921 4:0.08069121 5:0.52607048 
-8 1:0.88151002 2:0.39562733 3:0.39387244 4:0.079489106 5:0.52956848 
-8 1:0.86902928 2:0.40188969 3:0.4008445 4:0.090909091 5:0.53137864 
-8 1:0.87318952 2:0.40551527 3:0.39166298 4:0.093163035 5:0.53703478 
-8 1:0.86902928 2:0.40188969 3:0.39784946 4:0.094214876 5:0.53137864 
-8 1:0.87734977 2:0.4067238 3:0.39416703 4:0.09541698 5:0.5400538 
-8 1:0.86902928 2:0.41001978 3:0.39313596 4:0.09135988 5:0.5402687 
-8 1:0.86902928 2:0.4067238 3:0.38631119 4:0.09070874 5:0.5366647 
-8 1:0.45208012 2:0.67677434 3:0.25806452 4:0.11224643 5:0.6343186 
-8 1:0.44191063 2:0.67435728 3:0.25983208 4:0.11254696 5:0.62748225 
-7.299569754416554 1:0.25701079 2:0.84618765 3:0.20327 4:0.062659654 5:0.70118436 
-8 1:0.27734977 2:0.84618765 3:0.21358079 4:0.063260706 5:0.7108372 
-8 1:0.31432974 2:0.80355966 3:0.2282123 4:0.060656148 5:0.68962773 
-8 1:0.33713405 2:0.79301252 3:0.17970246 4:0.055046331 5:0.69063986 
-8 1:0.4807396 2:0.53372885 3:0.18839299 4:0.13613824 5:0.50940823 
-8 1:0.48690293 2:0.53226397 3:0.20032405 4:0.13478588 5:0.51048953 
-8 1:0.49460709 2:0.53263019 3:0.21034026 4:0.13538693 5:0.51396386 
-8 1:0.49922958 2:0.53043287 3:0.23096185 4:0.13688956 5:0.5137124 
-8 1:0.50755008 2:0.52933421 3:0.22624834 4:0.13764087 5:0.5160231 
-8 1:0.51587057 2:0.52537904 3:0.21210782 4:0.13598798 5:0.51555491 
-8 1:0.51587057 2:0.52537904 3:0.20327 4:0.13618833 5:0.51555491 
-8 1:0.52049307 2:0.52537904 3:0.19855649 4:0.14259955 5:0.51743187 
-8 1:0.53436056 2:0.52933421 3:0.18412137 4:0.1432006 5:0.52695294 
-8 1:0.54791988 2:0.53372885 3:0.20444837 4:0.13318307 5:0.53683882 
-8 1:0.55469954 2:0.53043287 3:0.20366279 4:0.13478588 5:0.53638589 
-8 1:0.56856703 2:0.53153153 3:0.21081161 4:0.13824192 5:0.54320093 
-8 1:0.49922958 2:0.56053615 3:0.20150243 4:0.12877536 5:0.54286583 
-8 1:0.51587057 2:0.55460338 3:0.24480778 4:0.13208114 5:0.54401368 
-8 1:0.52819723 2:0.5513074 3:0.1926646 4:0.13117956 5:0.54591879 
-8 1:0.55469954 2:0.54588735 3:0.2184416 4:0.13448535 5:0.55163227 
-4.682100510161916 1:0.57318952 2:0.54295759 3:0.19384298 4:0.12937641 5:0.55645856 
-8 1:0.57318952 2:0.54442247 3:0.22683753 4:0.12837466 5:0.55791284 
-8 1:0.57781202 2:0.54295759 3:0.23007807 4:0.13178062 5:0.55839418 
-8 1:0.58705701 2:0.53845309 3:0.20724702 4:0.12727273 5:0.55778132 
-8 1:0.59167951 2:0.53534022 3:0.24686994 4:0.12957676 5:0.55660901 
-8 1:0.60416025 2:0.53372885 3:0.24775372 4:0.12997746 5:0.56022195 
-8 1:0.60832049 2:0.53372885 3:0.24480778 4:0.13057851 5:0.56196714 
-8 1:0.61294299 2:0.52933421 3:0.21961997 4:0.12787378 5:0.55948811 
-8 1:0.62681048 2:0.52537904 3:0.20474297 4:0.13163035 5:0.56131115 
-8 1:0.62681048 2:0.52537904 3:0.19561055 4:0.12832457 5:0.56131115 
-8 1:0.64714946 2:0.52537904 3:0.2082781 4:0.12847483 5:0.56986217 
-8 1:0.64714946 2:0.52391416 3:0.20621594 4:0.13017781 5:0.56837186 
-8 1:0.65331279 2:0.5209844 3:0.20032405 4:0.13458552 5:0.56798363 
-8 1:0.66101695 2:0.5209844 3:0.21019296 4:0.13493614 5:0.57123017 
-8 1:0.66563945 2:0.5209844 3:0.21171503 4:0.12937641 5:0.57318184 
-8 1:0.66563945 2:0.51658976 3:0.20916188 4:0.12952667 5:0.56868354 
-8 1:0.75808937 2:0.51878708 3:0.21078215 4:0.13057851 5:0.61045044 
-8 1:0.77657935 2:0.51175566 3:0.21593755 4:0.13042825 5:0.6110149 
-8 1:0.26718028 2:0.3337728 3:0.17219031 4:0.25138993 5:0.24687221 
-8 1:0.27734977 2:0.36497473 3:0.22919428 4:0.26671675 5:0.2781025 
-8 1:0.27734977 2:0.36387607 3:0.23390779 4:0.27528174 5:0.27711694 
-8 1:0.29583975 2:0.36497473 3:0.2386213 4:0.2742299 5:0.28421157 
-8 1:0.28659476 2:0.36717205 3:0.2386213 4:0.27633358 5:0.28312974 
-8 1:0.29583975 2:0.37156669 3:0.2386213 4:0.27573253 5:0.29016125 
-8 1:0.46224962 2:0.50230719 3:0.26749153 4:0.33343351 5:0.47190815 
-8 1:0.46687211 2:0.50230719 3:0.26749153 4:0.33313298 5:0.47372146 
-8 1:0.46224962 2:0.50120853 3:0.26749153 4:0.32802404 5:0.47085788 
-8 1:0.46687211 2:0.49791255 3:0.27338341 4:0.28955672 5:0.46951381 
-8 1:0.45208012 2:0.50538343 3:0.26749153 4:0.28099174 5:0.47085867 
-8 1:0.46224962 2:0.50637223 3:0.26970099 4:0.2770849 5:0.47579438 
-8 1:0.29583975 2:0.61034205 3:0.24686994 4:0.23556223 5:0.5059581 
-8 1:0.30046225 2:0.6142606 3:0.24686994 4:0.24132231 5:0.51138882 
-8 1:0.48690293 2:0.7215264 3:0.19600334 4:0.43070373 5:0.69319648 
-8 1:0.49460709 2:0.72269831 3:0.2539402 4:0.43681443 5:0.69792571 
-8 1:0.48998459 2:0.72313777 3:0.26749153 4:0.4365139 5:0.69619184 
-8 1:0.58551618 2:0.76972094 3:0.16457996 4:0.71099424 5:0.78797944 
-0.2212690178077393 1:0.33097072 2:0.46143705 4:1 5:0.38405544 
-4.481270709931606 1:0.33097072 2:0.43946385 3:0.029901311 4:0.63170548 5:0.36396883 
-8 1:0.31432974 2:0.24928587 3:0.25099426 4:0.028549962 5:0.18535695 
-8 1:0.31432974 2:0.25291145 3:0.24961948 4:0.031605309 5:0.18864532 
-8 1:0.31432974 2:0.25130008 3:0.24961948 4:0.036013023 5:0.18718394 
-8 1:0.42342065 2:0.31399692 3:0.2489321 4:0.14290008 5:0.2792735 
-8 1:0.57318952 2:0.43455651 3:0.27043747 4:0.37941397 5:0.44891693 
-8 1:0.57318952 2:0.43309163 3:0.27043747 4:0.37490609 5:0.4474645 
-8 1:0.56394453 2:0.43199297 3:0.27632936 4:0.37640872 5:0.44285178 
-8 1:0.56394453 2:0.43089431 3:0.27632936 4:0.37640872 5:0.44176574 
-8 1:0.68412943 2:0.44583608 3:0.31300633 4:0.42509391 5:0.50365398 
-8 1:0.68412943 2:0.44583608 3:0.31757254 4:0.42128725 5:0.50365398 
-8 1:0.68412943 2:0.44583608 3:0.32154957 4:0.41592787 5:0.50365398 
-8 1:0.67950693 2:0.44473742 3:0.35631168 4:0.4150263 5:0.50068229 
-8 1:0.68412943 2:0.4425401 3:0.35189277 4:0.41472577 5:0.50026276 
-8 1:0.68412943 2:0.43748627 3:0.31109147 4:0.40706236 5:0.49506298 
-8 1:0.68412943 2:0.43748627 3:0.30696715 4:0.40480841 5:0.49506298 
-8 1:0.68412943 2:0.43602139 3:0.31560858 4:0.4032557 5:0.49355583 
-8 1:0.67950693 2:0.43199297 3:0.31418471 4:0.40015026 5:0.48759037 
-8 1:0.67488444 2:0.43089431 3:0.30858742 4:0.3918858 5:0.48464499 
-8 1:0.6779661 2:0.43162675 3:0.30873472 4:0.38482344 5:0.48660796 
-8 1:0.69522342 2:0.42386289 3:0.37442922 4:0.36619083 5:0.48539777 
-8 1:0.71309707 2:0.42093313 3:0.39829135 4:0.36784373 5:0.48939237 
-8 1:0.7192604 2:0.41749066 3:0.33421712 4:0.36498873 5:0.488239 
-8 1:0.7192604 2:0.41551307 3:0.34320224 4:0.362284 5:0.48618107 
-8 1:0.7192604 2:0.41111844 3:0.36456032 4:0.35717506 5:0.48160781 
-8 1:0.7192604 2:0.41441441 3:0.34128738 4:0.35146506 5:0.48503769 
-8 1:0.7192604 2:0.41258331 3:0.34781755 4:0.3541698 5:0.48313206 
-8 1:0.7192604 2:0.41111844 3:0.34438062 4:0.35296769 5:0.48160781 
-8 1:0.7192604 2:0.4067238 3:0.33230225 4:0.35161533 5:0.47703482 
-3.814249398113265 1:0.60832049 2:0.41111844 3:0.066430991 4:0.29196093 5:0.43891637 
-8 1:0.60832049 2:0.41111844 3:0.29665636 4:0.28835462 5:0.43891637 
-8 1:0.60416025 2:0.41430455 3:0.33436441 4:0.28294515 5:0.44053294 
-8 1:0.60832049 2:0.41946825 3:0.33539549 4:0.28039068 5:0.44729037 
-8 1:0.60832049 2:0.41814986 3:0.2890951 4:0.28524919 5:0.44596813 
-8 1:0.60832049 2:0.41551307 3:0.28713114 4:0.28685199 5:0.44332366 
-8 1:0.60832049 2:0.41551307 3:0.2945942 4:0.28760331 5:0.44332366 
-8 1:0.60832049 2:0.41551307 3:0.30873472 4:0.28745304 5:0.44332366 
-8 1:0.60832049 2:0.41441441 3:0.32130407 4:0.28144252 5:0.44222183 
-8 1:0.61294299 2:0.41111844 3:0.30673148 4:0.27257701 5:0.44066761 
-8 1:0.60832049 2:0.41111844 3:0.29989689 4:0.27162534 5:0.43891637 
-8 1:0.61756549 2:0.41111844 3:0.28074827 4:0.27483095 5:0.44242147 
-8 1:0.61294299 2:0.41111844 3:0.27780233 4:0.27002254 5:0.44066761 
-8 1:0.60832049 2:0.41111844 3:0.27338341 4:0.26731781 5:0.43891637 
-8 1:0.60832049 2:0.41111844 3:0.27338341 4:0.26361132 5:0.43891637 
-8 1:0.60832049 2:0.41111844 3:0.27043747 4:0.2608565 5:0.43891637 
-8 1:0.60832049 2:0.41111844 3:0.27043747 4:0.25960431 5:0.43891637 
-8 1:0.60832049 2:0.41111844 3:0.26793342 4:0.25860255 5:0.43891637 
-8 1:0.60832049 2:0.41111844 3:0.26159965 4:0.25709992 5:0.43891637 
-8 1:0.60832049 2:0.40782246 3:0.26866991 4:0.2515402 5:0.43561117 
-8 1:0.60832049 2:0.4067238 3:0.27161585 4:0.25018783 5:0.43450935 
-8 1:0.60832049 2:0.4067238 3:0.27191044 4:0.24808415 5:0.43450935 
-8 1:0.60832049 2:0.4067238 3:0.27338341 4:0.2409717 5:0.43450935 
-8 1:0.60832049 2:0.4067238 3:0.28074827 4:0.24417731 5:0.43450935 
-8 1:0.60832049 2:0.4067238 3:0.28811312 4:0.24447784 5:0.43450935 
-8 1:0.60832049 2:0.40430675 3:0.28811312 4:0.23876784 5:0.43208555 
-8 1:0.60416025 2:0.40188969 3:0.26572397 4:0.22975207 5:0.42810042 
-8 1:0.60416025 2:0.40188969 3:0.26484018 4:0.22374155 5:0.42810042 
-8 1:0.60416025 2:0.40309822 3:0.26484018 4:0.22975207 5:0.42931061 
-8 1:0.60832049 2:0.40350106 3:0.26690234 4:0.22990233 5:0.43127779 
-8 1:0.6 2:0.40188969 3:0.26616586 4:0.2312547 5:0.4265412 
-8 1:0.60832049 2:0.40188969 3:0.27043747 4:0.23095417 5:0.42966202 
-8 1:0.60416025 2:0.40188969 3:0.27043747 4:0.23005259 5:0.42810042 
-8 1:0.60416025 2:0.40079103 3:0.27338341 4:0.22344102 5:0.42700044 
-8 1:0.60832049 2:0.40188969 3:0.26749153 4:0.21803156 5:0.42966202 
-8 1:0.5972265 2:0.39895994 3:0.26749153 4:0.21913348 5:0.42257553 
-8 1:0.59583975 2:0.40199956 3:0.2639564 4:0.21803156 5:0.42509323 
-5.242815323653121 1:0.54453005 2:0.30982202 4:0.26341097 5:0.31560599 
-8 1:0.22187982 2:0.081520545 3:0.15338538 4:0.012772352 5:0.010844881 
-8 1:0.21725732 2:0.081520545 3:0.25511857 4:0.014876033 5:0.0097364834 
-8 1:0.21725732 2:0.084816524 3:0.2489321 4:0.016829452 5:0.012624524 
-8 1:0.22187982 2:0.085915183 3:0.24686994 4:0.017580766 5:0.014701651 
-8 1:0.21725732 2:0.085915183 3:0.24686994 4:0.021487603 5:0.013587204 
-8 1:0.20338983 2:0.087892771 3:0.24686994 4:0.022990233 5:0.011978002 
-8 1:0.20955316 2:0.085915183 3:0.24097805 4:0.027598297 5:0.011733387 
-8 1:0.21725732 2:0.086903977 3:0.24215643 4:0.025995492 5:0.014453616 
-8 1:0.50338983 2:0.16501868 3:0.28884961 4:0.24237415 5:0.16184625 
-8 1:0.49922958 2:0.16501868 3:0.28222124 4:0.24072126 5:0.16065079 
-8 1:0.49922958 2:0.16018457 3:0.2792753 4:0.23636364 5:0.15599021 
-8 1:0.49922958 2:0.16611734 3:0.29032258 4:0.23546206 5:0.16171 
-0.6275395304856467 1:0.42342065 2:0.12839669 3:0.077380076 4:0.15181568 5:0.10470172 
-8 1:0.46224962 2:0.11294221 3:0.32169686 4:0.14079639 5:0.1005109 
-8 1:0.46224962 2:0.11623819 3:0.33760495 4:0.14420235 5:0.10364777 
-8 1:0.47149461 2:0.11404087 3:0.33038739 4:0.15086401 5:0.10403652 
-8 1:0.4807396 2:0.11477331 3:0.30873472 4:0.14380165 5:0.10722441 
-8 1:0.4807396 2:0.11184355 3:0.31639417 4:0.1444027 5:0.1044187 
-8 1:0.4853621 2:0.10887717 3:0.32331713 4:0.14229902 5:0.10281634 
-0.01760768860532194 1:0.12942989 2:0.12253717 3:0.056562086 4:0.027197596 5:0.023857896 
-2.049725867320622 1:0.18489985 2:0.11085476 3:0.078362056 4:0.027347859 5:0.02744743 
-8 1:0.31432974 2:0.094264997 3:0.3602887 4:0.023741548 5:0.044872203 
-1.553347289750242 1:0.32542373 2:0.092800117 3:0.48843718 4:0.023991986 5:0.046324114 
-8 1:0.33097072 2:0.092067677 3:0.14803358 4:0.027648385 5:0.047049543 
-6.440506405626889 1:0.36979969 2:0.088881564 3:0.15156871 4:0.027798648 5:0.053913242 
-8 1:0.38828968 2:0.084450304 3:0.15927726 4:0.030202855 5:0.054489535 
-7.383996111263815 1:0.57318952 2:0.055152714 3:0.20680513 4:0.030202855 5:0.073623723 
-8 1:0.092449923 2:0.6012598 3:0.18692002 4:0.0096168295 5:0.41811064 
-8 1:0.18952234 2:0.5671281 3:0.17410517 4:0.007663411 5:0.42572818 
-7.810349428691874 1:0.22742681 2:0.55277228 3:0.16948986 4:0.0095667418 5:0.42755727 
-0.8614522396158485 1:0.053620955 2:0.41111844 4:0.03501127 5:0.24514859 
-8 1:0.097072419 2:0.4635245 3:0.23390779 4:0.043275733 5:0.30345386 
-8 1:0.097072419 2:0.46671061 3:0.23125644 4:0.044477836 5:0.3061449 
-8 1:0.10477658 2:0.47557313 3:0.23194383 4:0.047833709 5:0.31628486 
-8 1:0.46224962 2:0.7215264 3:0.01826484 4:0.49922364 5:0.68175058 
-0.8431184423902696 1:0.46224962 2:0.72445616 3:0.01826484 4:0.49521663 5:0.68455866 
-8 1:0.40061633 2:0.70511975 3:0.098394462 4:0.42349111 5:0.63809778 
-5.693403305888005 1:0.57318952 2:0.92045704 4:0.82449286 5:0.93206319 
-1.076589542554399 1:0.3596302 2:0.84618765 4:0.4770849 5:0.75048884 
-8 1:0.2431433 2:0.72951 3:0.25099426 4:0.036964688 5:0.59071787 
-8 1:0.25084746 2:0.73192705 3:0.24686994 4:0.041823191 5:0.59623724 
