svm_type c_svc
kernel_type rbf
gamma 1e-06
nr_class 2
total_sv 477
rho 9.51586
label 1 0
probA -2.53718
probB -0.118697
nr_sv 240 237
SV
512 1:21.89 2:30.426667 3:414 4:792.66667 5:0.004945567 
512 1:21.89 2:30.356667 3:421.5 4:797.5 5:0.004934099 
512 1:21.89 2:30.32 3:418.75 4:788.25 5:0.004928092 
512 1:21.89 2:30.15 3:416.5 4:759 5:0.004900243 
512 1:21.89 2:30.23 3:419 4:769.33333 5:0.004913348 
512 1:21.9175 2:30.5475 3:395.25 4:772.25 5:0.004973773 
512 1:22 2:30.175 3:423.5 4:794.25 5:0.004937632 
512 1:21.89 2:30.175 3:419 4:766.25 5:0.004904339 
512 1:21.89 2:30.125 3:419 4:756.25 5:0.004896148 
512 1:21.89 2:30.175 3:419 4:751.33333 5:0.004904339 
512 1:21.89 2:30.033333 3:419 4:746.5 5:0.004881133 
512 1:21.89 2:29.8675 3:419 4:740.5 5:0.004853971 
512 1:21.84 2:29.84 3:419 4:735 5:0.004834569 
512 1:21.89 2:29.89 3:419 4:719 5:0.004857656 
512 1:21.89 2:29.42 3:415.5 4:643.5 5:0.004780685 
512 1:21.89 2:29.7725 3:415 4:648 5:0.004838411 
512 1:21.7 2:28.445 3:412 4:584.5 5:0.004567351 
512 1:21.7 2:28.5 3:279.33333 4:585 5:0.004576247 
512 1:20.6 2:22.195 3:358 4:647 5:0.003324453 
445.9879105340435 1:22.6 2:25.2 3:583 4:1143.5 5:0.00427237 
512 1:22.856667 2:24.496667 3:615 4:1119.6667 5:0.004217926 
512 1:22.89 2:24.295 3:624 4:1105 5:0.004191483 
512 1:22.89 2:24.245 3:625.75 4:1040.25 5:0.004182798 
512 1:22.89 2:24.175 3:628.5 4:1035.5 5:0.004170641 
512 1:22.89 2:24.166667 3:633 4:1023 5:0.004169194 
512 1:22.89 2:24.05 3:633 4:1016.5 5:0.004148932 
430.5991940592626 1:22.89 2:23.89 3:637.5 4:993.25 5:0.004121147 
512 1:23.675 2:22.745 3:289 4:795.75 5:0.004114101 
512 1:24.29 2:23.29 3:688 4:863.5 5:0.004373051 
512 1:24.39 2:23.3925 3:236.5 4:852.5 5:0.004419017 
512 1:24.2 2:23.55 3:450 4:733 5:0.00439825 
512 1:24.2 2:23.745 3:419.75 4:697.25 5:0.004434928 
512 1:23.7 2:24.43 3:87 4:599.66667 5:0.004427757 
512 1:22.39 2:26 3:191.5 4:534.5 5:0.004352666 
512 1:22.365 2:26.2675 3:407.25 4:535 5:0.004391036 
512 1:22 2:28.025 3:418.5 4:614 5:0.004583228 
512 1:21.89 2:27.89 3:279.33333 4:603.66667 5:0.004530253 
512 1:21.29 2:25.345 3:328.5 4:519 5:0.003964875 
512 1:22.5 2:24.9175 3:1021.25 4:577.5 5:0.004198397 
512 1:23.29 2:24.3675 3:783 4:608.5 5:0.00430775 
512 1:23.315 2:24.4725 3:792 4:619 5:0.004333024 
512 1:23.29 2:24.43 3:786 4:606 5:0.004318876 
512 1:23.29 2:24.525 3:796.5 4:614 5:0.004335788 
512 1:23.29 2:24.3925 3:792 4:616 5:0.004312201 
512 1:23.29 2:24.365 3:792 4:614 5:0.004307305 
512 1:23.29 2:24.463333 3:798 4:610.66667 5:0.00432481 
512 1:23.29 2:24.575 3:796.5 4:610 5:0.004344689 
512 1:24 2:25.1 3:804.5 4:662 5:0.004633532 
131.358083331201 1:23.945 2:25.1 3:819 4:665 5:0.004618132 
172.9879526631352 1:23.856667 2:24.963333 3:763.33333 4:601.66667 5:0.004568298 
512 1:23.823333 2:25.066667 3:767 4:604.33333 5:0.004578092 
512 1:23.79 2:25.323333 3:425.33333 4:596.66667 5:0.004615983 
512 1:23.79 2:25.666667 3:438.5 4:542.5 5:0.004679037 
512 1:21.29 2:32.79 4:577 5:0.005139165 
512 1:20.5 2:24.6 3:397 4:851.75 5:0.003664014 
512 1:20.5 2:24.775 3:389 4:857 5:0.003690234 
512 1:20.633333 2:25.36 3:399.66667 4:879.33333 5:0.003809284 
512 1:20.65 2:25.445 3:389 4:874.25 5:0.003826083 
512 1:20.675 2:25.5475 3:393 4:882.33333 5:0.003847551 
512 1:20.675 2:25.575 3:393 4:885.8 5:0.003851718 
512 1:20.7 2:25.7 3:401 4:889.25 5:0.003876665 
512 1:20.7 2:25.73 3:399.66667 4:891.66667 5:0.003881218 
512 1:20.745 2:25.79 3:397 4:901.75 5:0.003901192 
512 1:20.79 2:25.79 3:394.5 4:905 5:0.003912086 
512 1:20.79 2:26.065 3:399 4:901.75 5:0.003954066 
512 1:22 2:30.166667 3:419 4:972 5:0.004936258 
119.1174637032197 1:22 2:30.075 3:419 4:976.75 5:0.004921139 
512 1:22 2:30.133333 3:419 4:974.66667 5:0.00493076 
512 1:21.89 2:30.39 3:411.5 4:978 5:0.00493956 
512 1:20.566667 2:30.5 3:301 4:785.66667 5:0.004568094 
85.95555036372298 1:20.79 2:30.856667 3:405 4:834 5:0.004686439 
512 1:20.823333 2:30.856667 3:405 4:840.66667 5:0.004696138 
512 1:20.84 2:30.84 3:405 4:838.5 5:0.004698436 
512 1:20.89 2:30.89 3:405 4:843 5:0.004720722 
512 1:20.89 2:30.89 3:405 4:846.5 5:0.004720722 
512 1:21.7 2:32.895 3:37 4:1143 5:0.005287952 
196.4128228117159 1:20.79 2:27.1225 3:296 4:1467 5:0.00411555 
512 1:23.18 2:27.272 3:426 4:721.25 5:0.004792988 
512 1:23.15 2:27.2675 3:429.5 4:714 5:0.004783441 
512 1:23.15 2:27.245 3:426 4:713.5 5:0.004779464 
512 1:23.15 2:27.2 3:426 4:708.25 5:0.004771509 
512 1:23.1 2:27.2 3:426 4:704.5 5:0.004756993 
512 1:23.1 2:27.2 3:419 4:701 5:0.004756993 
512 1:23.1 2:27.2 3:419 4:701.66667 5:0.004756993 
512 1:23.1 2:27.2 3:419 4:699 5:0.004756993 
512 1:23.1 2:27.2 3:419 4:689.33333 5:0.004756993 
512 1:23.075 2:27.175 3:419 4:688 5:0.004745351 
512 1:23.075 2:27.15 3:419 4:690.25 5:0.004740952 
512 1:23.1 2:27.1 3:419 4:691 5:0.004739371 
512 1:23.1 2:27.166667 3:419 4:683.5 5:0.004751119 
512 1:23.05 2:27.15 3:419 4:687.5 5:0.004733732 
512 1:23 2:27.125 3:419 4:686 5:0.004714942 
512 1:23 2:27.125 3:418.5 4:680.5 5:0.004714942 
512 1:20.7 2:22.39 3:356 4:457 5:0.003374666 
512 1:20.7225 2:22.5 3:419 4:470.75 5:0.003396065 
512 1:20.73 2:22.5 3:419 4:472 5:0.003397643 
512 1:20.7225 2:22.525 3:419 4:470.5 5:0.003399859 
512 1:20.7675 2:22.65 3:411 4:478 5:0.003428371 
512 1:20.79 2:22.79 3:411 4:492 5:0.003454488 
512 1:20.815 2:22.8675 3:411 4:497.75 5:0.00347167 
512 1:20.823333 2:23.033333 3:408.33333 4:499 5:0.003498792 
512 1:20.815 2:23.025 3:400 4:507 5:0.003495715 
512 1:20.89 2:23.175 3:396 4:514.75 5:0.003534987 
512 1:20.89 2:23.29 3:396 4:515 5:0.003552629 
512 1:20.89 2:23.29 3:396 4:520.75 5:0.003552629 
512 1:20.89 2:23.29 3:396 4:526 5:0.003552629 
512 1:20.89 2:23.323333 3:398.33333 4:527 5:0.003557743 
512 1:20.945 2:23.39 3:399.5 4:531.25 5:0.00358013 
512 1:20.963333 2:23.463333 3:413 4:536 5:0.003595494 
512 1:21 2:23.5 3:411 4:542.75 5:0.003609319 
512 1:21 2:23.5 3:411 4:541 5:0.003609319 
512 1:21 2:23.566667 3:411 4:548.5 5:0.003619618 
512 1:21 2:23.6 3:412.2 4:553.25 5:0.003624768 
512 1:21 2:23.6 3:405 4:559.25 5:0.003624768 
512 1:21 2:23.6 3:405 4:567.33333 5:0.003624768 
512 1:21 2:23.7 3:405 4:569 5:0.003640217 
512 1:21 2:23.7 3:405 4:576 5:0.003640217 
512 1:21.025 2:23.7225 3:405 4:578.75 5:0.003649329 
512 1:21.025 2:23.7225 3:412 4:585.75 5:0.003649329 
512 1:22.533333 2:26.823333 3:607 4:1092.3333 5:0.004531083 
512 1:22.6 2:26.815 3:558 4:1102 5:0.004548177 
512 1:22.7225 2:26.7475 3:558 4:1125.25 5:0.004570746 
512 1:22.7 2:26.89 3:534 4:1106 5:0.004588962 
512 1:22.625 2:26.4975 3:565.75 4:1037.5 5:0.004500811 
512 1:22.625 2:26.525 3:584.5 4:1043 5:0.004505516 
37.2708879288593 1:22.6 2:26.5 3:630.5 4:1035.75 5:0.004494363 
512 1:22.633333 2:26.46 3:570.66667 4:1029.6667 5:0.004496686 
512 1:22.65 2:26.495 3:630 4:1034 5:0.004507267 
512 1:22.823333 2:25.856667 3:340.66667 4:983 5:0.00444472 
512 1:22.29 2:26.166667 3:334.33333 4:900.33333 5:0.004354007 
512 1:22.2 2:27.5 3:429 4:910 5:0.004552304 
512 1:22.2675 2:27.4225 3:429 4:917.25 5:0.004558213 
512 1:22.2675 2:28.025 3:429 4:959.75 5:0.004659112 
512 1:22.6 2:28.29 3:525 4:1100 5:0.004800287 
512 1:22.6 2:28.245 3:524.83333 4:1101 5:0.004792592 
512 1:22.6 2:28.2 3:524.66667 4:1102 5:0.004784898 
512 1:22.29 2:25.2 3:433 4:966 5:0.004192075 
512 1:22.29 2:25.2 3:433 4:966.33333 5:0.004192075 
512 1:22.29 2:25.15 3:433 4:967.5 5:0.004183701 
512 1:22.29 2:25.03 3:433 4:970 5:0.004163605 
500.8361643428277 1:22.2225 2:24.865 3:433 4:954.75 5:0.004118903 
512 1:22.26 2:24.826667 3:433 4:951.66667 5:0.004121974 
512 1:22.245 2:24.89 3:433 4:940.75 5:0.004128762 
512 1:22.245 2:24.89 3:433 4:935.5 5:0.004128762 
512 1:22.2225 2:24.84 3:433 4:933.25 5:0.004114734 
512 1:22.2 2:24.7 3:433 4:937.66667 5:0.004085752 
512 1:22.2 2:24.7 3:433 4:938 5:0.004085752 
512 1:22.2 2:24.7 3:433 4:933.5 5:0.004085752 
512 1:22.2 2:24.7 3:433 4:925.5 5:0.004085752 
512 1:22.2 2:24.65 3:433 4:921 5:0.004077427 
512 1:22.2 2:24.566667 3:433 4:920.33333 5:0.004063552 
512 1:22.2 2:24.55 3:433 4:912.25 5:0.004060778 
512 1:22.2 2:24.334 3:429.5 4:913 5:0.004024818 
512 1:22.2 2:24.34 3:433 4:903 5:0.004025817 
512 1:22.2 2:24.395 3:433 4:905.5 5:0.004034973 
512 1:22.2 2:24.34 3:433 4:907 5:0.004025817 
512 1:22.2 2:24.356667 3:433 4:903 5:0.004028591 
512 1:22.175 2:24.39 3:433 4:900.5 5:0.004027962 
512 1:22.175 2:24.365 3:433 4:900.25 5:0.004023807 
512 1:22.2 2:24.365 3:433 4:900.5 5:0.004029979 
512 1:22.133333 2:24.29 3:433 4:898.66667 5:0.004001106 
512 1:22.15 2:24.2225 3:433 4:892 5:0.003993996 
512 1:22.133333 2:24.2 3:433 4:886 5:0.003986186 
512 1:22.1 2:24.2675 3:433 4:884.25 5:0.003989211 
512 1:22.1 2:24.245 3:433 4:887 5:0.003985489 
512 1:22.1 2:24.29 3:433 4:884 5:0.003992934 
512 1:22.125 2:24.2675 3:433 4:878.5 5:0.003995333 
512 1:22.133333 2:24.26 3:433 4:887 5:0.003996132 
512 1:22.125 2:24.15 3:433 4:882.25 5:0.003975865 
512 1:22.1 2:24.0725 3:433 4:879.25 5:0.003956952 
512 1:22.1 2:23.996667 3:433 4:866 5:0.003944408 
512 1:22.1 2:24.12 3:433 4:866 5:0.00396481 
512 1:22.066667 2:23.926667 3:433 4:863 5:0.003924796 
512 1:22.025 2:23.945 3:433 4:853.25 5:0.003917793 
61.3108629202513 1:22 2:23.926667 3:433 4:858 5:0.003908772 
512 1:22.025 2:23.9175 3:433 4:847 5:0.003913265 
512 1:22.075 2:23.9725 3:426 4:839 5:0.003934372 
512 1:22.025 2:24.0475 3:213 4:845.5 5:0.003934669 
512 1:20.2 2:18.6 3:401.33333 4:439 5:0.002715358 
512 1:20.15 2:18.7 3:419 4:457.25 5:0.002721553 
512 1:20.125 2:18.865 3:411 4:458 5:0.00274141 
512 1:20.15 2:18.89 3:411 4:460 5:0.002749327 
512 1:20.2 2:18.89 3:411 4:459.75 5:0.002757882 
512 1:20.2 2:19.05 3:411 4:464 5:0.002781346 
512 1:20.2225 2:19.05 3:407.5 4:463.5 5:0.002785236 
512 1:20.2675 2:19.2175 3:400 4:470.25 5:0.0028177 
512 1:20.29 2:19.2225 3:400 4:483.5 5:0.002822377 
512 1:20.315 2:19.245 3:413 4:488.66667 5:0.002830085 
512 1:20.39 2:19.22 3:412.2 4:496.25 5:0.002839577 
512 1:20.39 2:19.26 3:409 4:496.25 5:0.002845514 
512 1:20.4175 2:19.29 3:411 4:497 5:0.002854832 
512 1:20.426667 2:19.163333 3:413 4:504 5:0.002837614 
512 1:20.4725 2:19.0975 3:411 4:503.25 5:0.00283587 
512 1:20.525 2:19.315 3:411 4:509.25 5:0.002877666 
512 1:20.5 2:19.2425 3:405 4:515 5:0.002862376 
512 1:20.566667 2:19.2 3:409 4:515.33333 5:0.002867849 
512 1:20.625 2:19.4175 3:405 4:524.5 5:0.002910988 
512 1:20.65 2:19.4725 3:408.5 4:531 5:0.002923796 
512 1:20.7 2:19.5 3:418.33333 4:530.33333 5:0.002937022 
512 1:20.7 2:19.5 3:419 4:533.66667 5:0.002937022 
512 1:20.7 2:19.575 3:419 4:535.75 5:0.002948372 
512 1:20.7225 2:19.6 3:419 4:546.25 5:0.00295627 
512 1:20.7 2:19.533333 3:419 4:547 5:0.002942066 
512 1:20.79 2:19.4725 3:419 4:546.25 5:0.00294924 
512 1:20.79 2:19.5 3:419 4:551.25 5:0.002953425 
512 1:20.79 2:19.533333 3:419 4:560 5:0.002958497 
481.5972975245258 1:20.79 2:19.525 3:419 4:564 5:0.002957229 
512 1:20.89 2:19.72 3:419 4:575.25 5:0.003005434 
512 1:21.7 2:20 3:377.75 4:757.75 5:0.00320437 
512 1:21.29 2:19.745 3:293.5 4:662.25 5:0.003084488 
512 1:21.84 2:21.6 3:429 4:904 5:0.003492059 
512 1:21.7 2:20.89 3:426 4:780.5 5:0.003347732 
512 1:19.525 2:27.025 3:289.75 4:473.75 5:0.003790078 
512 1:19.575 2:27.675 3:397 4:496.5 5:0.003893964 
512 1:19.575 2:27.6 3:405 4:501.5 5:0.003883346 
512 1:19.633333 2:27.633333 3:405 4:506.66667 5:0.003902271 
240.3485710057886 1:19.666667 2:27.73 3:405 4:510.66667 5:0.003924175 
512 1:19.633333 2:27.73 3:399.66667 4:512 5:0.003916008 
512 1:19.625 2:27.745 3:393 4:517 5:0.003916099 
512 1:19.633333 2:27.79 3:393.66667 4:515 5:0.003924535 
512 1:19.7 2:27.9175 3:389 4:528.75 5:0.003959116 
512 1:19.7 2:27.963333 3:393.66667 4:534.33333 5:0.003965658 
512 1:19.745 2:28.05 3:389 4:541 5:0.003989226 
512 1:19.7675 2:28.175 3:392.5 4:546 5:0.004012754 
512 1:19.79 2:28.1 3:393.66667 4:553 5:0.00400763 
512 1:19.79 2:28.2675 3:392.5 4:559.75 5:0.004031674 
512 1:19.79 2:28.323333 3:389 4:572.33333 5:0.004039689 
512 1:19.84 2:28.6975 3:389 4:578.75 5:0.004106207 
512 1:19.89 2:28.625 3:389 4:595 5:0.004108567 
512 1:19.89 2:28.65 3:389 4:599 5:0.004112179 
512 1:19.9175 2:28.8175 3:393 4:606.5 5:0.004143485 
512 1:19.945 2:29.05 3:397 4:636 5:0.004184313 
512 1:21.5 2:33.2225 3:31 4:1246 5:0.00527554 
512 1:22.1 2:37.79 3:209.5 4:1788.5 5:0.006234387 
512 1:20.4175 2:33.5225 3:405 4:487.25 5:0.004978035 
512 1:20.426667 2:33.56 3:405 4:494.33333 5:0.004986493 
512 1:20.5 2:33.6725 3:404.5 4:494.5 5:0.005026224 
512 1:20.5 2:33.79 3:405 4:495.5 5:0.005043906 
86.74592232629249 1:20.55 2:33.79 3:405 4:508 5:0.005059615 
512 1:20.6 2:33.863333 3:405 4:509.5 5:0.005086473 
-512 1:21.89 2:31.55 3:436.5 4:1047 5:0.00512966 
-512 1:21.89 2:31.36 3:434 4:1031 5:0.005098515 
-512 1:21.89 2:31.125 3:432.75 4:977.5 5:0.005059998 
-512 1:20.6 2:21.865 3:454 4:652.5 5:0.003274764 
-512 1:20.6 2:22.2 3:442.75 4:681.75 5:0.003325206 
-512 1:20.6 2:22.26 3:444 4:702.33333 5:0.003334241 
-512 1:20.633333 2:22.26 3:444 4:707 5:0.003341137 
-284.2102786876753 1:23.7225 2:22.79 3:288 4:838.75 5:0.00413418 
-512 1:23.7 2:22.823333 3:295 4:836 5:0.004134625 
-512 1:23.79 2:22.79 3:292.5 4:834.75 5:0.00415112 
-512 1:23.79 2:22.79 3:293.66667 4:829 5:0.00415112 
-512 1:23.79 2:22.7225 3:307.5 4:830.25 5:0.004138744 
-512 1:23.79 2:22.7 3:298.5 4:833.5 5:0.004134618 
-512 1:23.79 2:22.7 3:302 4:829.5 5:0.004134618 
-512 1:23.815 2:22.7225 3:312 4:824 5:0.004145015 
-512 1:23.89 2:22.7 3:313 4:824.33333 5:0.004159727 
-512 1:23.865 2:22.675 3:307.5 4:826.75 5:0.004148833 
-512 1:23.89 2:22.7 3:306 4:830 5:0.004159727 
-512 1:23.89 2:22.7 3:293.66667 4:827.33333 5:0.004159727 
-512 1:23.89 2:22.7 3:307 4:828.5 5:0.004159727 
-512 1:23.9725 2:22.6 3:296.5 4:822 5:0.004162003 
-512 1:23.945 2:22.575 3:298 4:827.5 5:0.004150459 
-512 1:23.945 2:22.6 3:294.5 4:826.5 5:0.004155086 
-512 1:24 2:22.5 3:294.75 4:829 5:0.004150362 
-512 1:24.05 2:22.5 3:304 4:801.5 5:0.004162927 
-512 1:24.1 2:22.4725 3:277.75 4:969.5 5:0.004170389 
-512 1:24.1 2:22.39 3:267.5 4:921.5 5:0.004154976 
-512 1:24.2 2:22.7 3:336.33333 4:726.33333 5:0.00423842 
-512 1:24.2 2:23.0225 3:497 4:722 5:0.004299052 
-512 1:24.2 2:23.7 3:630 4:734 5:0.004426464 
-512 1:24.2 2:23.745 3:690.5 4:729 5:0.004434928 
-512 1:21.29 2:25.496667 3:499.33333 4:525 5:0.003988753 
-512 1:21.29 2:25.463333 3:510.33333 4:528.66667 5:0.003983505 
-512 1:22.65 2:24.8975 3:726.75 4:585 5:0.004233654 
-512 1:22.666667 2:24.996667 3:737 4:594 5:0.004254963 
-512 1:22.7 2:24.9725 3:723.5 4:598 5:0.004259487 
-512 1:22.7 2:25 3:707 4:595.5 5:0.00426421 
-512 1:22.7225 2:25.175 3:720.5 4:604.5 5:0.004300171 
-512 1:22.7225 2:25.0475 3:714.5 4:613 5:0.004278243 
-512 1:23.7675 2:25.675 3:654 4:547 5:0.004674187 
-512 1:23.7675 2:25.7475 3:668.5 4:545 5:0.004687486 
-512 1:23.7 2:25.89 3:680.33333 4:564 5:0.004694368 
-512 1:23.7225 2:25.9725 3:664.75 4:567.75 5:0.004715872 
-512 1:23.7 2:25.89 3:675.25 4:569.5 5:0.004694368 
-512 1:23.745 2:26 3:669 4:571.5 5:0.00472735 
-512 1:23.7 2:26.075 3:667.25 4:564.75 5:0.004728167 
-512 1:23.7 2:26 3:655.66667 4:563.66667 5:0.004714465 
-512 1:21.445 2:32.145 3:438 4:599.5 5:0.005085734 
-512 1:21.39 2:32.09 3:441 4:600 5:0.005059743 
-512 1:20.39 2:36 3:345 4:517 5:0.00533995 
-512 1:20.5 2:36 3:362.5 4:518 5:0.005376649 
-512 1:20.7 2:35.03 3:387.33333 4:513.66667 5:0.005296013 
-512 1:21.6 2:28.89 3:319.75 4:639.25 5:0.004610839 
-512 1:21.633333 2:28.856667 3:340 4:637 5:0.00461495 
-512 1:21.675 2:28.865 3:357 4:638 5:0.004628159 
-512 1:21.7 2:28.815 3:392 4:640.5 5:0.004627203 
-512 1:21.745 2:28.79 3:384 4:641.75 5:0.004635988 
-512 1:21.79 2:28.7 3:360 4:639 5:0.004634208 
-512 1:21.79 2:28.7 3:345 4:639.33333 5:0.004634208 
-512 1:21.815 2:28.7 3:337 4:650 5:0.004641344 
-512 1:21.963333 2:28.89 3:347 4:634.33333 5:0.004715127 
-512 1:22 2:28.815 3:345.66667 4:637 5:0.004713405 
-512 1:22.075 2:28.84 3:357.8 4:642.75 5:0.004739315 
-512 1:21.7 2:29.5 3:342 4:627 5:0.004738041 
-512 1:21.79 2:29.365 3:415.5 4:632.5 5:0.004742405 
-512 1:21.856667 2:29.29 3:327 4:631 5:0.004749648 
-512 1:22 2:29.166667 3:370.75 4:636.5 5:0.00477137 
-512 1:22.1 2:29.1 3:329 4:628 5:0.004789719 
-512 1:22.1 2:29.133333 3:385 4:626.33333 5:0.004795248 
-512 1:22.125 2:29.1 3:390.5 4:632 5:0.004797078 
-512 1:22.175 2:28.9975 3:351.75 4:624.5 5:0.004794748 
-512 1:22.2 2:28.926667 3:419 4:628.33333 5:0.004790291 
-512 1:22.2675 2:28.89 3:420.5 4:629 5:0.004804027 
-512 1:22.29 2:28.89 3:415.5 4:630 5:0.004810662 
-512 1:22.315 2:28.79 3:372.75 4:625.5 5:0.004801237 
-512 1:22.39 2:28.7 3:347.5 4:631.75 5:0.004808168 
-512 1:22.39 2:28.7 3:332 4:626.25 5:0.004808168 
-512 1:22.5 2:28.7 3:353.5 4:626.5 5:0.004840678 
-512 1:22.4725 2:28.7 3:328.25 4:631.5 5:0.004832532 
-512 1:22.5 2:28.7 3:330.75 4:631 5:0.004840678 
-512 1:22.5 2:28.666667 3:350 4:629.33333 5:0.004835012 
-512 1:22.5 2:28.6 3:323 4:633.5 5:0.004823681 
-512 1:22.533333 2:28.6 3:340 4:636.66667 5:0.004833536 
-512 1:22.575 2:28.6 3:356.75 4:637.25 5:0.004845879 
-512 1:22.6 2:28.6 3:359.33333 4:628 5:0.004853299 
-512 1:22.6 2:28.5 3:355 4:628.25 5:0.004836197 
-512 1:22.666667 2:28.73 3:337 4:634.66667 5:0.004895458 
-512 1:22.7 2:28.7 3:326.5 4:635.25 5:0.004900285 
-512 1:22.7225 2:28.7 3:325 4:636.5 5:0.004907031 
-512 1:22.89 2:28.575 3:335 4:631 5:0.004935747 
-512 1:22.945 2:28.575 3:324.5 4:634.75 5:0.004952348 
-392.0387108179463 1:23 2:28.5 3:322 4:637 5:0.004955853 
-512 1:23 2:28.5 3:327.25 4:634.75 5:0.004955853 
-512 1:23.033333 2:28.566667 3:341.33333 4:633 5:0.00497765 
-512 1:23.1 2:28.55 3:357.75 4:630 5:0.00499499 
-512 1:23.1 2:28.5 3:329 4:627 5:0.004986172 
-512 1:23.1 2:28.5 3:333.25 4:629 5:0.004986172 
-512 1:23.133333 2:28.5 3:336.33333 4:630.66667 5:0.004996314 
-512 1:23.2 2:28.5 3:345 4:627 5:0.005016654 
-512 1:23.2 2:28.39 3:366.5 4:629.75 5:0.004997136 
-512 1:20.445 2:24.34 3:292.25 4:831 5:0.003612707 
-512 1:20.5 2:25.05 3:389 4:856.5 5:0.003731441 
-512 1:20.5 2:25.025 3:397 4:870.75 5:0.003727694 
-512 1:20.6 2:25.05 3:405 4:869 5:0.003754667 
-512 1:20.55 2:25.1 3:405 4:872.5 5:0.003750554 
-512 1:20.6 2:25.2 3:405 4:871.5 5:0.003777287 
-512 1:21.5 2:28.175 3:454 4:967.5 5:0.004468268 
-512 1:21.525 2:28.175 3:454 4:967 5:0.004475162 
-512 1:21.5 2:28.15 3:454 4:958.5 5:0.004464275 
-512 1:21.525 2:28.075 3:464 4:894.5 5:0.004459165 
-512 1:21.445 2:28.245 3:454 4:880.25 5:0.004464278 
-512 1:21.5 2:28.2675 3:457.75 4:873.75 5:0.004483043 
-512 1:20.6 2:30.633333 3:419 4:804.66667 5:0.004597722 
-512 1:20.625 2:30.7225 3:419 4:814.25 5:0.004618369 
-512 1:21.633333 2:33.163333 3:332.66667 4:1129.3333 5:0.005309581 
-512 1:21.675 2:33.19 3:431 4:1139.5 5:0.005327561 
-512 1:21.65 2:33.2 3:454 4:1139 5:0.005320969 
-512 1:22.166667 2:34.26 3:279.33333 4:1595.6667 5:0.005669935 
-54.81285049346018 1:20.79 2:27.245 4:2076.5 5:0.004134262 
-48.3463417191229 1:20.79 2:27.1 3:14 4:1405 5:0.004112113 
-512 1:20.79 2:26.745 3:50.75 4:1463.75 5:0.004057895 
-512 1:20.7 2:22.4175 3:426 4:460.25 5:0.003378833 
-512 1:20.7 2:22.5 3:423.66667 4:465.33333 5:0.003391335 
-512 1:20.7 2:22.463333 3:423.66667 4:472.66667 5:0.003385779 
-512 1:21.29 2:23.89 3:422.5 4:650.5 5:0.003735893 
-512 1:22.1 2:26.633333 3:459 4:1044 5:0.004380858 
-512 1:22.1 2:26.6 3:459 4:1036.5 5:0.004375336 
-512 1:22.05 2:26.575 3:469 4:1039 5:0.004357799 
-512 1:22.05 2:26.55 3:469 4:1039 5:0.00435367 
-512 1:22.7 2:26.89 3:531.25 4:1120 5:0.004588962 
-512 1:22.7 2:26.89 3:539 4:1113.6667 5:0.004588962 
-512 1:22.7 2:26.89 3:545.75 4:1104.75 5:0.004588962 
-512 1:22.675 2:26.865 3:604.75 4:1103.25 5:0.004577664 
-512 1:22.7 2:26.815 3:597.25 4:1102.75 5:0.004576069 
-512 1:22.7 2:26.7 3:528 4:1090 5:0.0045563 
-512 1:22.7 2:26.7 3:521 4:1086.25 5:0.0045563 
-512 1:22.7 2:26.666667 3:535.66667 4:1083.6667 5:0.00455057 
-512 1:22.675 2:26.575 3:533.25 4:1078.5 5:0.00452789 
-512 1:22.65 2:26.55 3:523.75 4:1064.75 5:0.004516692 
-512 1:22.666667 2:26.566667 3:524 4:1053 5:0.004524155 
-512 1:22.76 2:26.39 3:635.5 4:1022 5:0.004519554 
-512 1:22.856667 2:26.323333 3:676 4:1024.75 5:0.004534741 
-512 1:22.89 2:26.245 3:567.25 4:1020 5:0.004530356 
-512 1:22.89 2:26.2 3:582.5 4:1015.5 5:0.004522532 
-512 1:22.89 2:26.1 3:618.75 4:1007 5:0.004505145 
-512 1:22.89 2:26.175 3:579.25 4:997.5 5:0.004518185 
-512 1:22.89 2:26.133333 3:590.33333 4:1002 5:0.00451094 
-512 1:22.89 2:26.1 3:584.5 4:1000 5:0.004505145 
-512 1:22.89 2:26 3:564 4:997.75 5:0.004487759 
-512 1:22.29 2:26.1 3:503.5 4:892.5 5:0.004342837 
-512 1:22.2675 2:26.1725 3:567.5 4:883.5 5:0.004348983 
-512 1:22.29 2:26.29 3:569.25 4:879.25 5:0.004374674 
-512 1:22.29 2:26.26 3:490.66667 4:887.33333 5:0.004369647 
-512 1:22.29 2:26.2 3:487.33333 4:890 5:0.004359593 
-512 1:22.29 2:26.2 3:500 4:891.25 5:0.004359593 
-512 1:22.29 2:26.2 3:524 4:891 5:0.004359593 
-512 1:22.29 2:26.175 3:545.33333 4:881 5:0.004355404 
-512 1:22.315 2:26.1 3:520.6 4:866.25 5:0.004349495 
-512 1:22.29 2:26.1 3:509 4:864.66667 5:0.004342837 
-512 1:22.34 2:26.1 3:476.5 4:870 5:0.004356163 
-512 1:22.315 2:26.1 3:471.5 4:862 5:0.004349495 
-512 1:22.29 2:26.1 3:464 4:857.5 5:0.004342837 
-512 1:22.29 2:26.1 3:464 4:851.33333 5:0.004342837 
-512 1:22.29 2:26.1 3:459 4:846.75 5:0.004342837 
-512 1:22.29 2:26.1 3:459 4:844.66667 5:0.004342837 
-512 1:22.29 2:26.1 3:454.75 4:843 5:0.004342837 
-512 1:22.29 2:26.1 3:444 4:840.5 5:0.004342837 
-512 1:22.29 2:26.025 3:456 4:831.25 5:0.004330271 
-512 1:22.29 2:26 3:461 4:829 5:0.004326082 
-512 1:22.29 2:26 3:461.5 4:825.5 5:0.004326082 
-512 1:22.29 2:26 3:464 4:813.66667 5:0.004326082 
-512 1:22.29 2:26 3:476.5 4:819 5:0.004326082 
-512 1:22.29 2:26 3:489 4:819.5 5:0.004326082 
-512 1:22.29 2:25.945 3:489 4:810 5:0.004316867 
-512 1:22.2675 2:25.89 3:451 4:795 5:0.004301716 
-512 1:22.2675 2:25.89 3:449.5 4:785 5:0.004301716 
-512 1:22.2675 2:25.9175 3:449.5 4:795 5:0.004306317 
-512 1:22.29 2:25.926667 3:453 4:795.25 5:0.004313796 
-512 1:22.245 2:25.89 3:451.75 4:797.5 5:0.004295788 
-512 1:22.29 2:25.89 3:459 4:797 5:0.004307653 
-512 1:22.2675 2:25.89 3:459 4:795.5 5:0.004301716 
-512 1:22.2675 2:25.865 3:464 4:784.5 5:0.004297534 
-512 1:22.29 2:25.89 3:454 4:775.5 5:0.004307653 
-512 1:22.23 2:25.823333 3:454 4:777.33333 5:0.004280711 
-512 1:22.2225 2:25.8925 3:448 4:775.5 5:0.004290283 
-512 1:20.175 2:18.6 3:433 4:437.5 5:0.002711144 
-512 1:20.175 2:18.675 3:422.5 4:440.75 5:0.002722124 
-512 1:20.2 2:18.7 3:419 4:442 5:0.002730021 
-512 1:20.175 2:18.7 3:419 4:448.5 5:0.002725784 
-512 1:20.1 2:18.745 3:419 4:451 5:0.002719666 
-512 1:20.133333 2:18.7 3:409 4:458.66667 5:0.002718736 
-512 1:20.175 2:18.7225 3:411 4:456 5:0.002729078 
-512 1:21.7225 2:20.5 3:490.25 4:816 5:0.003289448 
-512 1:21.7 2:20.5 3:479 4:813.25 5:0.003284903 
-512 1:21.7 2:20.39 3:474 4:806 5:0.003267184 
-512 1:21.7 2:20.525 3:492.75 4:804.5 5:0.00328893 
-512 1:21.5 2:19.315 3:546 4:647 5:0.003056258 
-512 1:21.5 2:19.39 3:573 4:652.66667 5:0.003068184 
-512 1:21.55 2:19.34 3:560.75 4:663.75 5:0.003069662 
-512 1:21.6 2:19.356667 3:524 4:652 5:0.003081782 
-512 1:21.6 2:19.29 3:537 4:653 5:0.003071115 
-512 1:21.625 2:19.2225 3:548.75 4:649.5 5:0.003065023 
-512 1:20.7 2:18.89 3:611.5 4:452.25 5:0.002844726 
-129.1611460391379 1:20.7 2:18.89 3:1546.3333 4:455.33333 5:0.002844726 
-512 1:20.76 2:18.856667 3:829 4:452.66667 5:0.002850246 
-512 1:22.1 2:17.89 3:351.33333 4:459.33333 5:0.002935898 
-512 1:22.1 2:17.9725 3:351 4:457.5 5:0.002949501 
-512 1:22.1 2:18 3:351 4:463 5:0.002954036 
-512 1:22.15 2:17.945 3:351 4:458.5 5:0.002953996 
-512 1:22.2 2:17.89 3:355.5 4:456.75 5:0.002953926 
-512 1:22.29 2:17.815 3:357.5 4:455.4 5:0.002957722 
-512 1:22.29 2:17.84 3:353 4:453.5 5:0.002961892 
-512 1:22.365 2:17.745 3:353 4:452 5:0.002959584 
-512 1:22.39 2:17.7 3:362 4:452 5:0.002956556 
-512 1:22.4175 2:17.7 3:355.75 4:452.25 5:0.002961528 
-512 1:22.445 2:17.65 3:353 4:458 5:0.002958087 
-512 1:22.5 2:17.7 3:357.5 4:456 5:0.002976488 
-512 1:22.55 2:17.6 3:354.25 4:450.5 5:0.002968638 
-512 1:22.6 2:17.6 3:364.5 4:453 5:0.002977709 
-512 1:22.6 2:17.6 3:356 4:455.5 5:0.002977709 
-512 1:22.6 2:17.6 3:357.33333 4:458.66667 5:0.002977709 
-512 1:22.6 2:17.525 3:354.25 4:458.5 5:0.002964959 
-512 1:22.6 2:17.566667 3:357.33333 4:456 5:0.002972042 
-512 1:22.6 2:17.6 3:359.75 4:455 5:0.002977709 
-512 1:22.65 2:17.6 3:358 4:458.75 5:0.002986804 
-512 1:22.666667 2:17.566667 3:355 4:455.33333 5:0.002984152 
-512 1:22.7 2:17.6 3:358 4:455.5 5:0.002995924 
-512 1:22.7225 2:17.6 3:360 4:453.5 5:0.003000036 
-512 1:22.7 2:17.6 3:360 4:453 5:0.002995924 
-512 1:22.79 2:17.6 3:357.5 4:455.75 5:0.003012401 
-33.95935575749964 1:22.79 2:17.6 3:354 4:458 5:0.003012401 
-512 1:19.525 2:27.2925 3:397 4:484.75 5:0.003827824 
-512 1:19.525 2:27.365 3:392.5 4:486.75 5:0.003838055 
-512 1:19.566667 2:27.566667 3:393.66667 4:492.33333 5:0.003876606 
-512 1:21.166667 2:32.79 3:167 4:1117.3333 5:0.005100102 
-512 1:20.315 2:33.345 3:426 4:474.25 5:0.004919969 
-512 1:20.356667 2:33.4 3:419 4:482.33333 5:0.004940953 
